%YAML:1.0
my_svm: !!opencv-ml-svm
   svm_type: C_SVC
   kernel: { type:LINEAR }
   C: 2.5000000000000000e+000
   term_criteria: { epsilon:9.9999999747524271e-007, iterations:1000 }
   var_all: 144
   var_count: 144
   class_count: 2
   class_labels: !!opencv-matrix
      rows: 1
      cols: 2
      dt: i
      data: [ -1, 1 ]
   sv_total: 1
   support_vectors:
      - [ 4.28304672e-001, -6.36694431e-001, -2.52219820e+000,
          -1.49504936e+000, -1.40580952e-001, 3.28389066e-003,
          -1.76473647e-001, 5.80097847e-002, -6.28513619e-002,
          9.31068063e-002, -9.50714588e-001, -2.07592654e+000,
          -5.61072767e-001, 1.00696892e-001, 8.03189725e-002,
          -3.12536433e-002, -3.61463517e-001, -5.56333289e-002,
          5.08064806e-001, 2.85871327e-001, -2.02428401e-001,
          -9.30611193e-002, -4.97787803e-001, -1.68910742e-001,
          -4.85546917e-001, 2.67304540e-001, 9.30929035e-002,
          -5.88966608e-001, -4.60755676e-001, -4.87094522e-001,
          4.87312861e-002, -4.80957597e-001, -2.33982690e-002,
          -5.37286937e-001, 2.82370806e-001, -5.40632427e-001,
          -7.76482746e-002, -2.79749930e-001, 3.41517508e-001,
          4.14616734e-001, 1.14019644e+000, 2.77923703e-001,
          -1.40396571e+000, -1.16031504e+000, -6.62888169e-001,
          -2.92298704e-001, -6.57072216e-002, 7.73796022e-001,
          3.86862516e-001, 2.65479833e-001, -9.81936455e-001,
          -2.19035602e+000, -1.35824513e+000, -1.39291599e-001,
          -2.85390168e-001, 2.89941818e-001, -6.60831869e-001,
          -1.64644197e-001, 5.55565596e-001, 5.44627607e-001,
          -2.83453733e-001, 3.57933380e-002, 1.46388441e-001,
          -6.73426330e-001, -6.16952963e-002, 4.21330541e-001,
          5.96428156e-001, 2.36290023e-001, -6.13714099e-001,
          -8.03966105e-001, -3.24528456e-001, -5.55181384e-001,
          1.48758337e-001, -6.30229339e-002, -6.84550405e-001,
          4.95829642e-001, -8.18286002e-001, -7.50759542e-001,
          -1.76762033e+000, -6.61286386e-003, 8.92058730e-001,
          2.70017207e-001, -3.23603272e-001, -1.15445352e+000,
          -1.00309454e-001, -6.83851913e-002, 4.04046506e-001,
          2.19850126e-003, 5.18703818e-001, 3.12568158e-001,
          2.01599285e-001, 1.15348294e-001, -1.92734394e-002,
          7.86296248e-001, 8.01100016e-001, -7.87110746e-001,
          -2.31428933e+000, -5.90698004e-001, 1.06636047e+000,
          -5.33876240e-001, -1.25329638e+000, -1.32983291e+000,
          -7.45616555e-002, 6.06055677e-001, 8.35319012e-002,
          -1.72339427e+000, -1.11605906e+000, -1.00186288e+000,
          -5.48025072e-002, -5.04963517e-001, -1.11675870e+000,
          -3.25320721e-001, 4.83912587e-001, 2.52671610e-003,
          -9.13475573e-001, -5.74735463e-001, 3.58305603e-001,
          1.03881419e-001, -5.66892207e-001, -1.04467928e+000,
          -1.25812900e+000, -9.37896907e-001, -3.32188457e-001,
          -7.84376800e-001, -4.72696334e-001, -2.22738147e-001,
          -4.27614570e-001, 2.49523600e-003, -4.92847085e-001,
          4.31841686e-002, 1.07992864e+000, 1.89781830e-001,
          -6.63229585e-001, -6.85665846e-001, -1.23825029e-001,
          8.48134756e-002, -8.34699273e-001, -1.79395831e+000,
          -1.53872013e+000, 4.62808400e-001, 5.89796424e-001,
          5.71455777e-001, 6.22500658e-001, 5.31356670e-002 ]
   decision_functions:
      -
         sv_count: 1
         rho: -6.6131633359879398e+000
         alpha: [ 1. ]
         index: [ 0 ]
