svm_type c_svc
kernel_type linear
nr_class 16
total_sv 176
rho -4.01555 0.646915 -1.71715 2.91216 0.271319 2.90162 1.08434 2.18027 -3.7852 -1.95205 -1.02524 -8.4474 -8.14656 3.42342 3.50556 4.66875 0.47294 10.6504 4.74283 7.93038 6.73152 4.32742 0.83743 1.96639 4.28044 -7.07125 -5.18054 6.26548 5.17286 -4.43346 6.03955 1.37722 2.53243 0.317423 2.2246 -3.75355 -3.63997 -0.271935 -11.1198 -7.51729 3.89257 3.66778 7.34703 5.33267 5.66079 3.73609 2.78245 0.601068 -1.87976 3.09518 -10.4052 -4.42894 4.68998 4.37514 -5.11659 -1.46493 -2.68927 -0.340707 -10.3929 -7.34464 -6.58227 -11.9079 -12.7058 -0.982547 2.44133 2.19409 -1.38932 -0.202591 -6.42159 -5.68439 -0.783993 -11.3689 -9.07875 1.84515 3.94856 -3.57322 -0.0980531 -12.8262 -7.04715 -5.18172 -9.59981 -12.9661 -0.695223 2.97384 0.779662 -2.54686 -4.78825 -0.895477 -11.0055 -8.93698 6.90157 2.5622 -4.0102 -4.5413 -2.17874 -8.71546 -6.61189 3.55577 0.878585 -0.394304 2.91622 -8.85752 -8.82811 5.2571 7.25332 3.92967 -6.11064 -6.18312 8.01005 4.88245 -8.69993 -9.60586 2.55701 4.86707 3.37861 8.97072 6.60774 8.74474 8.36098 0.453844
label 1 2 3 4 5 6 7 8 9 10 11 12 13 14 15 16
probA -2.11269 -2.11875 -2.00431 -2.072 -2.32339 -1.93546 -2.26976 -2.36998 -2.14249 -2.18199 -1.9118 -1.94732 -2.007 -3.75232 -2.03748 -3.04808 -4.75113 -2.97978 -3.35052 -2.86344 -3.85932 -3.20409 -3.87934 -3.91538 -3.64907 -4.314 -3.60047 -3.29538 -2.9332 -2.96267 -2.87199 -2.84708 -2.91341 -3.25086 -3.02008 -3.01657 -3.16596 -2.71443 -2.73067 -2.89404 -3.26448 -2.52199 -3.64226 -4.24241 -3.46533 -3.70334 -3.36757 -3.65648 -4.18854 -3.20465 -2.21033 -3.25378 -3.81233 -2.68455 -3.23562 -3.59272 -3.34218 -3.21376 -3.56571 -3.39745 -3.15855 -2.58505 -3.06631 -3.53248 -2.59827 -3.42975 -3.36417 -3.45731 -3.59991 -3.38813 -3.07812 -2.89903 -2.77947 -3.24366 -2.97388 -3.36772 -2.96569 -4.06892 -3.83293 -3.21904 -2.35547 -2.74517 -3.39022 -2.63207 -4.24469 -3.42993 -3.66614 -3.292 -3.57938 -3.21204 -4.50484 -2.80547 -2.97795 -3.39508 -2.84756 -2.55489 -2.81618 -4.39995 -2.51443 -3.89633 -2.85476 -2.95229 -3.35765 -3.49749 -2.63504 -3.67055 -3.61747 -3.4315 -3.7748 -2.72664 -2.54852 -2.96044 -3.02503 -2.67401 -2.9403 -2.77857 -2.22254 -2.92822 -2.49993 -2.64359
probB 0.987674 0.188837 0.312076 0.331083 0.189292 0.261955 0.375949 0.176274 0.314168 0.543177 -0.0219194 0.00208745 0.17916 -0.994101 -0.0317178 -0.252692 0.527382 -0.149696 0.00187533 -0.319347 0.0213194 -0.158224 0.100118 0.142204 -0.104846 1.09915 0.551459 -0.0754034 -0.232707 0.264282 -0.191937 -0.155319 0.259806 0.107533 -0.0363428 0.0758332 0.142057 -0.000294505 0.0773798 0.319835 -0.104761 -0.132683 -0.248711 -1.16532 0.0384805 -0.161532 0.063023 -0.372662 -0.162535 -0.13452 0.159274 -0.0586785 -0.0763693 -0.0351651 -0.0866477 0.859465 0.136342 -0.00830777 0.318353 0.218776 -0.143115 -0.00502477 0.238699 -0.000111274 -0.230138 0.507788 0.202093 0.443557 0.677784 0.355312 -0.195362 0.0573716 -0.30628 0.292549 -0.115028 -0.0929256 -0.00134665 -1.01579 -0.105319 0.0773344 0.0529259 0.118309 -0.1283 -0.283031 0.136881 0.0462623 0.105468 0.0755043 0.841186 0.138341 0.233738 -0.246616 -0.0130493 0.00634908 -0.0727169 -0.0501285 -0.0194004 -0.202651 -0.258668 0.450613 0.0528592 -0.0339307 0.390654 -0.166101 -0.187702 -0.19983 0.497296 -0.11978 0.0438268 -0.40047 -0.0176295 0.252562 0.17235 -0.0218922 -0.0662025 -0.199434 0.0654133 -0.00488256 -0.131859 -0.25332
nr_sv 3 31 7 8 9 10 7 17 11 12 18 8 5 10 12 8
SV
6.407009066670543e-006 2.236439802044802e-006 2.90253356085267e-006 2.706432056503068e-006 2.511720658588345e-006 2.878214781428586e-006 2.933735533147856e-006 1.666273572421053e-006 2.869198936333539e-006 4.127646095172282e-006 3.672897623544421e-006 2.098422286239634e-006 4.035196552630785e-006 2.974796331942658e-006 1.856424267549691e-006 0:0.02595 1:0.00735 2:0 3:0 4:0 5:0.004625 6:0.0009 7:5e-005 8:0 9:0 10:0 11:5e-005 12:0 13:0 14:0 15:0 16:0.00105 17:5e-005 18:0 19:0 20:0.000675 21:0.11185 22:0.035325 23:0.000275 24:0 25:0 26:0.002225 27:0.0048 28:0 29:0 30:0 31:0 32:0 33:0 34:0 35:0 36:7.5e-005 37:0.00045 38:0.0001 39:0 40:2.5e-005 41:0.0002 42:0.002925 43:0.0082 44:0 45:0 46:0 47:0.009025 48:0 49:0 50:0 51:0 52:0 53:0 54:0 55:0 56:0 57:2.5e-005 58:7.5e-005 59:5e-005 60:0 61:2.5e-005 62:0.00015 63:0.0335 64:0.07005 65:0.00485 66:0 67:0 68:2.5e-005 69:0.002225 70:2.5e-005 71:0 72:0 73:0 74:0 75:0 76:0 77:0 78:0 79:0 80:0.0001 81:0.00025 82:0 83:0 84:2.5e-005 85:0.0658 86:0.01935 87:0 88:0 89:0 90:0.0058 91:0.000325 92:0 93:0 94:0 95:0 96:0 97:0 98:0 99:0 100:0 101:0.010175 102:0.00035 103:0 104:0 105:0.0029 106:0.0238 107:0.011225 108:0 109:0 110:0 111:0.014825 112:0 113:0 114:0 115:0 116:0 117:0 118:0 119:0 120:0 121:0 122:0 123:5e-005 124:0 125:0 126:0 127:0.01785 128:0.0354 129:0.0066 130:0 131:0 132:5e-005 133:0.0137 134:0.0023 135:0 136:0 137:0 138:0 139:0 140:0 141:0 142:0 143:0 144:0.0005 145:0.00025 146:0 147:0 148:0.0001 149:0.108625 150:0.033775 151:7.5e-005 152:0 153:2.5e-005 154:0.019675 155:0.0059 156:0 157:0 158:0 159:0 160:0 161:0 162:0 163:0 164:0 165:5e-005 166:5e-005 167:0 168:0 169:5e-005 170:0.00385 171:0.017525 172:0 173:0 174:0 175:0.000225 176:0 177:0 178:0 179:0 180:0 181:0 182:0 183:0 184:0 185:0 186:2.5e-005 187:2.5e-005 188:0 189:0 190:2.5e-005 191:0.0012 192:0.04865 193:0.012575 194:0 195:0 196:0.00025 197:0.00505 198:0.00035 199:0 200:0 201:0 202:0 203:0 204:0 205:0 206:0 207:0 208:0.00185 209:0.000225 210:0 211:0 212:0.001175 213:0.067725 214:0.01205 215:0 216:0 217:0.000125 218:0.01145 219:0.00315 220:0 221:0 222:0 223:0 224:0 225:0 226:0 227:0 228:0 229:0.00705 230:0.00055 231:0 232:0 233:0.00515 234:0.04485 235:0.015075 236:0 237:0 238:0 239:0.00255 240:0 241:0 242:0 243:0 244:0 245:0 246:0 247:0 248:0 249:0.00045 250:0.001275 251:0.000275 252:0 253:0 254:0.0006 255:0.00755 256:319.36099 257:309.8855 258:344.56842 259:322.13001 260:233.16674 261:306.46703 262:304.25575 263:233.67307 264:229.56826 265:302.32041 266:326.64855 267:378.92943 268:183.9945 269:315.84665 270:262.14632 271:276.08689 272:352.20282 273:308.6549 274:325.93982 275:148.24188 276:309.00739 277:309.15067 278:229.94361 279:308.26887 280:345.46294 281:365.32064 282:286.18705 283:264.38492 284:318.55481 285:322.21527 286:281.52627 287:191.73074 288:306.60486 289:347.05381 290:342.30179 291:256.50074 292:333.85797 293:235.67412 294:297.17392 295:245.71432 296:285.01882 297:338.50082 298:345.77883 299:326.27506 300:282.47852 301:339.708 302:281.39679 303:265.97957 304:324.71788 305:325.68882 306:278.94205 307:272.42976 308:154.70864 309:127.92737 310:241.63653 311:322.36802 312:314.47418 313:283.34295 314:337.45394 315:287.14304 316:287.35458 317:274.82845 318:268.15062 319:322.57314 320:267.35107 321:145.65632 322:320.67175 323:297.76101 324:277.70513 325:302.77158 326:294.139 327:277.25505 328:252.22897 329:95.307522 330:375.09798 331:279.26751 332:275.66495 333:271.45109 334:211.40693 335:261.35969 336:190.50085 337:293.19685 338:311.72688 339:371.2758 340:354.11311 341:321.28986 342:276.08841 343:362.07449 344:347.96366 345:299.22604 346:245.41913 347:301.93725 348:295.13529 349:305.66 350:158.23269 351:350.58086 352:298.00676 353:308.14412 354:292.41203 355:320.1858 356:308.89539 357:307.57908 358:294.42045 359:220.10887 360:254.23465 361:280.67332 362:198.51982 363:302.96298 364:259.16268 365:332.80587 366:247.65678 367:240.37889 368:314.96328 369:337.13548 370:333.77122 371:348.60963 372:299.09889 373:313.89515 374:250.79239 375:296.34047 376:323.69275 377:352.39627 378:311.76202 379:248.83503 380:278.37429 381:255.15448 382:274.13393 383:297.53511 384:282.76919 385:287.58424 386:294.93373 387:326.44064 388:304.93224 389:329.06365 390:344.74311 391:345.1865 392:311.15674 393:355.98822 394:285.21018 395:342.97326 396:310.02122 397:363.75608 398:263.56899 399:304.73491 400:322.94574 401:202.80684 402:187.39813 403:247.45481 404:246.3597 405:330.44442 406:226.94232 407:247.58345 408:311.72902 409:344.77492 410:120.87849 411:315.13017 412:332.12793 413:165.61997 414:225.82099 415:262.31519 416:323.21102 417:382.81697 418:309.0936 419:339.04052 420:268.44803 421:356.0751 422:314.10186 423:307.94895 424:217.25556 425:289.46631 426:329.81032 427:124.14803 428:277.41984 429:300.14416 430:132.1195 431:333.6633 432:261.72669 433:311.67968 434:283.63711 435:303.29018 436:322.3478 437:299.15211 438:335.90515 439:345.73497 440:331.9195 441:267.10755 442:258.68688 443:264.57454 444:253.6055 445:305.89307 446:227.85496 447:264.55874 448:335.11448 449:322.81708 450:343.44506 451:286.13623 452:208.6056 453:313.56935 454:238.35188 455:293.55545 456:272.10997 457:350.41186 458:281.9769 459:324.40082 460:303.13783 461:288.82274 462:311.99008 463:344.08868 464:299.09033 465:191.39278 466:328.02883 467:301.28875 468:314.04104 469:335.2965 470:306.30522 471:312.19694 472:308.98906 473:271.71218 474:289.57691 475:211.74819 476:298.541 477:343.34307 478:272.80054 479:220.15273 480:199.93605 481:263.32496 482:210.08476 483:242.49558 484:363.31905 485:274.97118 486:347.86176 487:342.905 488:304.31517 489:291.22439 490:337.1161 491:320.4784 492:302.79685 493:348.15522 494:303.45225 495:289.51909 496:353.38344 497:304.12312 498:278.72044 499:266.29867 500:303.73986 501:285.85119 502:294.30163 503:337.52801 504:325.04267 505:303.09511 506:324.3489 507:274.9514 508:240.56512 509:310.79646 510:236.16625 511:290.80816 512:295.0031 513:334.53933 514:302.54935 515:363.57309 516:279.61057 517:258.42774 518:303.80465 519:254.26056 520:331.55332 521:324.43239 522:329.40482 523:336.62901 524:262.45055 525:297.46985 526:299.3594 527:371.85996 528:315.78262 529:292.06789 530:344.36622 531:298.9573 532:261.77365 533:251.85155 534:219.89938 535:301.67716 536:344.33154 537:377.61972 538:299.76657 539:231.46794 540:342.67343 541:343.37667 542:315.52592 543:272.02667 544:355.16265 545:226.77712 546:307.42992 547:322.57899 548:310.54912 549:361.33947 550:271.55854 551:212.35353 552:314.35906 553:306.22413 554:337.55265 555:291.46855 556:191.88148 557:293.41905 558:280.52497 559:352.68939 560:283.82492 561:307.73553 562:336.03521 563:319.72201 564:322.53958 565:272.6127 566:282.28466 567:313.0797 568:254.13839 569:131.28178 570:333.51216 571:300.00355 572:338.69164 573:287.36988 574:315.16336 575:311.42975 576:246.53331 577:313.58593 578:267.61148 579:283.89738 580:297.6494 581:336.69276 582:333.36456 583:330.934 584:196.98936 585:316.00894 586:308.27964 587:286.78343 588:332.35099 589:317.35365 590:307.81105 591:154.94921 592:287.55406 593:359.82171 594:271.11775 595:301.87865 596:231.80238 597:343.47209 598:328.6407 599:274.08297 600:298.55077 601:289.23005 602:280.62506 603:300.08764 604:302.30907 605:320.90366 606:264.86042 607:316.63752 608:268.14346 609:268.70145 610:315.95987 611:190.62303 612:370.28107 613:317.47827 614:192.43957 615:305.16121 616:308.42585 617:363.69608 618:346.57698 619:334.29396 620:321.328 621:347.58987 622:343.64908 623:309.18669 624:337.8046 625:318.80629 626:334.54472 627:273.95173 628:314.31707 629:320.57363 630:330.02381 631:165.42172 632:322.24887 633:348.23652 634:182.81447 635:307.84554 636:316.31208 637:328.44145 638:291.28375 639:320.99405 640:297.00589 641:309.20001 642:314.46575 643:334.80633 644:269.071 645:345.12619 646:315.30956 647:303.59221 648:327.02727 649:187.40786 650:321.61064 651:310.53683 652:283.98831 653:337.7836 654:298.3296 655:304.73759 656:323.58403 657:257.4197 658:331.35891 659:345.71391 660:237.53181 661:302.58816 662:349.86649 663:266.41537 664:336.37251 665:229.87365 666:290.84327 667:203.72524 668:318.09247 669:313.16171 670:259.41214 671:223.33162 672:351.34685 673:291.47759 674:256.30301 675:253.37666 676:193.40176 677:304.61348 678:285.90128 679:302.59019 680:340.95278 681:220.00623 682:294.64887 683:323.63245 684:314.37254 685:326.72102 686:334.30034 687:153.15804 688:314.29129 689:249.09013 690:231.53072 691:304.65511 692:288.34626 693:345.46485 694:271.97508 695:280.6293 696:321.88124 697:242.32327 698:298.31136 699:171.32957 700:331.34352 701:338.58018 702:116.27254 703:230.88549 704:296.1635 705:268.06205 706:321.10995 707:350.1846 708:295.72562 709:291.30045 710:287.87912 711:318.07689 712:279.15533 713:311.49905 714:344.05209 715:340.17624 716:316.74006 717:264.40319 718:277.21955 719:285.09985 720:260.34247 721:196.40003 722:268.06073 723:324.62631 724:312.56921 725:286.40912 726:306.67922 727:158.51276 728:356.76353 729:297.5633 730:236.03012 731:284.99907 732:114.71195 733:303.15475 734:253.01626 735:280.755 736:290.35284 737:241.65062 738:234.55849 739:346.02443 740:273.50529 741:282.55134 742:237.20817 743:292.071 744:312.72037 745:285.78182 746:291.09506 747:355.69244 748:334.03643 749:355.29757 750:206.20172 751:306.2045 752:316.94256 753:314.81947 754:227.85152 755:267.06035 
2.269103087173341e-006 1.393256851895221e-006 1.167564145841611e-006 2.913144553986647e-006 1.585527368204206e-006 2.686674504604657e-006 8.729132414395364e-007 7.630587459997116e-007 1.922851256126126e-006 1.351650460024345e-006 2.583606186376407e-006 0 5.038549448561621e-007 1.337950468327854e-006 2.177770900555815e-006 0:0.0407 1:0.002225 2:0.0001 3:0 4:0.000125 5:0.0019 6:0.0109 7:0 8:0 9:0 10:0 11:0 12:0 13:0 14:0 15:0 16:0.002525 17:0.000425 18:0 19:0 20:0.00045 21:0.0793 22:0.03075 23:0.0025 24:0 25:0 26:0.0031 27:0.03795 28:0 29:0 30:0 31:0 32:0 33:0 34:0 35:0 36:0 37:0.000175 38:5e-005 39:0 40:0 41:7.5e-005 42:0.006575 43:0.0194 44:0 45:0 46:0 47:0.0013 48:0 49:0 50:0 51:0 52:0 53:0 54:0 55:0 56:0 57:0 58:7.5e-005 59:0 60:0 61:0 62:0 63:0.0094 64:0.000225 65:2.5e-005 66:0 67:0 68:2.5e-005 69:2.5e-005 70:2.5e-005 71:0 72:0 73:0 74:0 75:0 76:0 77:0 78:0 79:0 80:0.000175 81:5e-005 82:0 83:0 84:0.000225 85:0.1072 86:0.00165 87:0 88:0 89:0.0001 90:0.001575 91:0.0085 92:0 93:0 94:0 95:0 96:0 97:0 98:0 99:0 100:0 101:0.009675 102:0.002075 103:0 104:0 105:0.001525 106:0.049075 107:0.045425 108:0 109:0 110:0 111:0.01485 112:0 113:0 114:0 115:0 116:0 117:0 118:0 119:0 120:0 121:0 122:5e-005 123:0.0001 124:0 125:0 126:2.5e-005 127:0.0074 128:0.1033 129:0.00735 130:0.0004 131:0 132:0 133:0.009475 134:0.0396 135:0 136:0 137:0 138:0 139:0 140:0 141:0 142:0 143:0 144:0.001275 145:0.00025 146:0 147:0 148:5e-005 149:0.0222 150:0.03975 151:0.00175 152:0 153:0 154:0.0029 155:0.0122 156:0 157:0 158:0 159:0 160:0 161:0 162:0 163:0 164:0 165:5e-005 166:7.5e-005 167:0 168:0 169:0 170:0.00115 171:0.00245 172:0 173:0 174:0 175:0.000275 176:0 177:0 178:0 179:0 180:0 181:0 182:0 183:0 184:0 185:0 186:5e-005 187:2.5e-005 188:0 189:0 190:0 191:0.005425 192:0.05685 193:0.0008 194:0 195:0 196:0.0019 197:0.003075 198:0.005025 199:0 200:0 201:0 202:0 203:0 204:0 205:0 206:0 207:0 208:0.00965 209:0.000325 210:0 211:0 212:0.006625 213:0.083975 214:0.0274 215:2.5e-005 216:0 217:0 218:0.010575 219:0.01295 220:0 221:0 222:0 223:0 224:0 225:0 226:0 227:0 228:0 229:0.00075 230:0.0002 231:0 232:0 233:0.0002 234:0.004475 235:0.0223 236:0 237:0 238:0 239:0.00135 240:0 241:0 242:0 243:0 244:0 245:0 246:0 247:0 248:0 249:0 250:0.00015 251:0 252:0 253:0 254:2.5e-005 255:0.001375 256:284.41511 257:313.10221 258:266.30979 259:281.69994 260:229.74817 261:268.00581 262:239.90778 263:257.5939 264:256.78169 265:326.61059 266:289.36903 267:205.39894 268:152.84346 269:279.36903 270:238.0439 271:299.28804 272:309.48688 273:315.82229 274:218.70679 275:229.29815 276:270.99581 277:182.92112 278:246.46743 279:267.92109 280:289.78036 281:284.50016 282:336.1046 283:301.52726 284:303.15163 285:279.55433 286:226.59492 287:142.74485 288:295.88423 289:314.59543 290:241.6914 291:253.66928 292:298.4364 293:145.78099 294:304.92468 295:218.78334 296:274.42136 297:254.81425 298:282.15578 299:291.70608 300:274.04199 301:274.73422 302:242.96698 303:358.63256 304:330.53871 305:253.51029 306:299.35253 307:258.57206 308:222.26562 309:216.80995 310:277.8307 311:290.19043 312:273.2032 313:306.83168 314:331.53282 315:217.46241 316:284.3158 317:326.91995 318:309.05163 319:274.98238 320:246.57823 321:121.37305 322:235.59454 323:315.69439 324:274.82043 325:255.59006 326:264.89645 327:266.3223 328:277.15615 329:116.79718 330:263.55151 331:301.88999 332:301.47503 333:248.58642 334:224.18276 335:259.31251 336:137.0034 337:269.34832 338:322.30866 339:274.78761 340:288.5796 341:301.96721 342:300.28126 343:279.16834 344:322.178 345:276.65354 346:219.82446 347:199.39307 348:300.78166 349:212.06124 350:164.00521 351:268.53499 352:286.1387 353:232.08887 354:193.04701 355:281.1187 356:301.40468 357:242.59913 358:254.44959 359:222.46002 360:221.54691 361:234.14123 362:201.29922 363:313.21993 364:255.90426 365:291.48797 366:218.03102 367:228.55757 368:301.13197 369:271.51246 370:300.37235 371:339.00227 372:291.24206 373:323.10646 374:227.33811 375:310.63037 376:296.06224 377:315.52016 378:298.93393 379:291.28816 380:305.33162 381:279.34014 382:288.63677 383:310.10245 384:296.59723 385:312.95807 386:289.26191 387:228.65134 388:325.6005 389:232.95932 390:285.65233 391:335.31947 392:269.64211 393:280.4224 394:270.23387 395:336.61402 396:289.03131 397:243.60058 398:250.42571 399:207.76976 400:267.16134 401:158.25978 402:339.51692 403:207.76818 404:255.76258 405:243.5859 406:252.72964 407:184.8716 408:276.32613 409:256.88944 410:96.269224 411:263.91637 412:260.34061 413:183.21265 414:234.89392 415:304.46142 416:278.16939 417:290.18174 418:295.70612 419:232.10996 420:213.62242 421:287.14416 422:300.51838 423:281.31477 424:240.73552 425:243.65759 426:269.53695 427:122.60515 428:300.22479 429:240.55414 430:256.38264 431:283.59299 432:247.81787 433:253.02121 434:330.5849 435:325.1176 436:267.42229 437:258.77055 438:299.08036 439:279.14973 440:304.01094 441:234.34386 442:255.04539 443:316.75804 444:249.36158 445:293.29434 446:217.65857 447:246.52397 448:320.2274 449:287.57681 450:260.52823 451:278.42346 452:253.1139 453:257.89447 454:225.51508 455:258.50267 456:299.26557 457:301.99552 458:251.93122 459:323.41277 460:299.54539 461:286.3336 462:302.67992 463:307.21821 464:271.77647 465:158.7806 466:322.6155 467:221.52352 468:249.77447 469:270.76225 470:267.55375 471:244.80581 472:173.76051 473:347.35276 474:242.69351 475:242.09252 476:342.44824 477:323.85248 478:279.18512 479:160.84005 480:236.33695 481:247.52715 482:222.39028 483:244.54632 484:262.60077 485:325.94305 486:272.13163 487:325.71761 488:304.4734 489:286.07756 490:303.7913 491:290.88305 492:305.58428 493:300.6673 494:251.03521 495:279.88279 496:296.20589 497:263.3676 498:204.74913 499:237.4271 500:274.17067 501:266.6869 502:366.56204 503:268.19263 504:290.7039 505:251.81177 506:255.15781 507:324.68688 508:290.59606 509:250.07623 510:282.23577 511:264.93944 512:318.72062 513:249.8164 514:322.16904 515:250.19648 516:294.20076 517:296.43897 518:268.16738 519:309.04273 520:301.66268 521:146.6878 522:258.91498 523:252.0294 524:294.50628 525:313.34497 526:253.16137 527:303.79051 528:252.2771 529:255.60538 530:318.39424 531:344.14235 532:283.64866 533:278.23454 534:232.80251 535:326.91242 536:295.71874 537:314.79533 538:267.69371 539:272.36652 540:244.72948 541:293.99219 542:275.87908 543:276.82553 544:294.21924 545:248.31471 546:240.81393 547:254.77417 548:283.0896 549:303.93739 550:224.15076 551:244.07743 552:210.92455 553:287.81425 554:287.52821 555:276.68747 556:210.58476 557:311.87028 558:235.31634 559:249.93476 560:327.75067 561:233.5689 562:332.33059 563:305.14613 564:287.84785 565:281.4973 566:250.5496 567:262.95089 568:244.10494 569:133.86691 570:257.35805 571:306.1524 572:259.14398 573:268.50052 574:280.56185 575:293.81583 576:314.25369 577:301.19772 578:273.64048 579:286.97402 580:307.84681 581:309.21948 582:259.09902 583:295.4253 584:185.20254 585:281.06984 586:266.44558 587:273.65562 588:267.69351 589:269.57722 590:274.81741 591:335.04379 592:282.30663 593:255.81023 594:227.66984 595:277.57128 596:216.44052 597:256.26424 598:236.70316 599:237.56297 600:308.24877 601:294.71537 602:306.99945 603:279.57747 604:227.55865 605:266.17704 606:266.49358 607:338.69582 608:299.7693 609:261.09768 610:294.27119 611:186.20998 612:289.72232 613:293.68997 614:214.8126 615:311.13329 616:288.18869 617:272.71508 618:285.28258 619:274.43814 620:265.72802 621:269.01856 622:218.72742 623:317.83372 624:328.57359 625:293.09474 626:296.96744 627:279.68913 628:308.18502 629:266.56965 630:263.52696 631:201.06887 632:252.4558 633:255.01578 634:224.03688 635:317.13426 636:312.20809 637:289.69825 638:258.32982 639:318.74323 640:329.92256 641:272.68038 642:249.73333 643:278.42362 644:257.6018 645:289.16806 646:284.35585 647:321.00799 648:291.63347 649:161.85721 650:325.51676 651:315.14443 652:303.88855 653:320.72453 654:286.31897 655:306.51686 656:334.54802 657:275.90956 658:283.1068 659:254.74972 660:276.23791 661:299.043 662:331.29984 663:282.17679 664:258.86841 665:250.21397 666:291.26063 667:234.20727 668:324.76787 669:276.60187 670:197.81206 671:231.49525 672:266.75983 673:278.04797 674:305.6676 675:271.71739 676:240.66822 677:249.16407 678:297.78549 679:309.28929 680:282.13967 681:339.01532 682:263.49892 683:338.69956 684:276.2299 685:313.23864 686:223.18201 687:116.62878 688:292.13564 689:284.95754 690:281.00087 691:298.04885 692:280.96277 693:249.17203 694:188.91983 695:264.0661 696:266.79979 697:257.71955 698:255.35009 699:202.37282 700:293.41808 701:274.72515 702:120.02834 703:246.03147 704:298.29106 705:245.68647 706:301.62023 707:256.83605 708:259.36317 709:189.64815 710:321.87587 711:253.21075 712:229.66257 713:230.05339 714:137.94717 715:292.13596 716:319.1438 717:270.03116 718:300.1272 719:272.797 720:244.94907 721:286.9319 722:308.18251 723:274.9952 724:295.40847 725:288.43935 726:265.02354 727:143.0235 728:333.02751 729:246.62791 730:169.05069 731:275.13855 732:124.3775 733:244.30729 734:249.25204 735:285.88943 736:203.08041 737:275.43973 738:208.57846 739:321.42077 740:311.53095 741:276.01305 742:300.46731 743:260.35725 744:305.61716 745:261.22627 746:281.16156 747:327.37004 748:305.26791 749:298.37749 750:225.06467 751:232.94405 752:298.40778 753:258.67306 754:277.79047 755:259.87531 
3.905483926802696e-006 2.036173801776165e-006 2.218237574474831e-006 2.445445474976551e-006 2.177796834580539e-006 2.687693957577331e-006 2.720465433469817e-006 1.491396580349168e-006 3.049424930203938e-006 2.557668108422573e-006 1.180483415681294e-006 1.326934023497106e-006 2.296972979387726e-006 1.765217221663367e-006 1.115141870130341e-006 0:0 1:0.0002 2:7.5e-005 3:0 4:0 5:0.00025 6:0.00705 7:0 8:0 9:0 10:0 11:0 12:0 13:0 14:0 15:0 16:0 17:0 18:0 19:0 20:0 21:0.1187 22:0.015525 23:0.0011 24:0 25:7.5e-005 26:0.003075 27:0.036725 28:0 29:0 30:0 31:0 32:0 33:0 34:0 35:0 36:0 37:0.003125 38:0.0019 39:0 40:0 41:0.0001 42:0.02325 43:0.0248 44:0 45:0 46:0 47:0.002225 48:0 49:0 50:0 51:0 52:0 53:0 54:0 55:0 56:0 57:0 58:0 59:0.0001 60:0 61:0 62:0 63:0.011725 64:0.12145 65:0.018375 66:0 67:0 68:0.000175 69:0.0057 70:0.0002 71:0 72:0 73:0 74:0 75:0 76:0 77:0 78:0 79:0 80:0.000625 81:0.00065 82:0 83:0 84:0.000175 85:0.070975 86:0.00385 87:7.5e-005 88:0 89:0 90:0.001875 91:0.009375 92:0 93:0 94:0 95:0 96:0 97:0 98:0 99:0 100:0 101:0.000275 102:7.5e-005 103:0 104:0 105:0.000125 106:0.0092 107:0.0053 108:0 109:0 110:0 111:0.0004 112:0 113:0 114:0 115:0 116:0 117:0 118:0 119:0 120:0 121:0 122:0.0001 123:0 124:0 125:0 126:0.000275 127:0.00075 128:0.0602 129:0.0427 130:0.001425 131:0 132:7.5e-005 133:0.015625 134:0.035425 135:0 136:0 137:0 138:0 139:0 140:0 141:0 142:0 143:0 144:7.5e-005 145:0.0003 146:0 147:0 148:0 149:0.03005 150:0.02805 151:0.00115 152:0 153:0 154:0.001925 155:0.0141 156:0 157:0 158:0 159:2.5e-005 160:0 161:0 162:0 163:0 164:0 165:5e-005 166:0.000575 167:0 168:0 169:0 170:0.004875 171:0.004125 172:0 173:0 174:0 175:0.000725 176:0 177:0 178:0 179:0 180:0 181:0 182:0 183:0 184:0 185:0 186:7.5e-005 187:0.0001 188:0 189:0 190:0 191:0.00835 192:0.163025 193:0.0057 194:0 195:0 196:0.000475 197:0.0093 198:0.005275 199:0 200:0 201:0 202:0 203:0 204:0 205:0 206:0 207:0 208:0.001225 209:0.000575 210:0 211:0 212:0.000125 213:0.021725 214:0.0276 215:0.000225 216:0 217:0 218:0.004725 219:0.007475 220:0 221:0 222:0 223:0 224:0 225:0 226:0 227:0 228:0 229:0 230:2.5e-005 231:0 232:0 233:0 234:0.000725 235:0.001025 236:0 237:0 238:0 239:5e-005 240:0 241:0 242:0 243:0 244:0 245:0 246:0 247:0 248:0 249:0 250:0 251:2.5e-005 252:0 253:0 254:0 255:0.0007 256:305.75961 257:311.77794 258:273.20973 259:281.09598 260:266.13308 261:311.04657 262:286.8716 263:217.28792 264:282.58463 265:307.43832 266:299.98035 267:314.2673 268:213.00957 269:294.51264 270:270.54415 271:287.0451 272:315.28113 273:293.18668 274:320.48129 275:146.90498 276:293.15492 277:242.73079 278:217.21433 279:291.33786 280:301.88906 281:282.8073 282:269.22885 283:343.33622 284:313.73965 285:310.73475 286:210.78331 287:177.33919 288:285.05955 289:319.25472 290:255.46217 291:253.70504 292:304.94089 293:222.41106 294:259.31485 295:266.27533 296:289.56343 297:280.42495 298:303.56752 299:315.04859 300:281.31329 301:301.5537 302:251.27354 303:317.91014 304:267.90004 305:320.40017 306:301.13437 307:233.34837 308:171.78398 309:208.63745 310:271.68306 311:280.27507 312:282.38797 313:257.94335 314:308.70715 315:292.15748 316:286.77199 317:327.88412 318:282.56109 319:294.52967 320:286.52144 321:141.97625 322:256.76244 323:269.77353 324:251.98578 325:242.92131 326:286.42256 327:290.9619 328:319.24682 329:103.82431 330:308.81444 331:282.83829 332:180.5662 333:271.33751 334:219.67432 335:290.18308 336:172.00395 337:258.49226 338:323.02398 339:319.78704 340:293.90175 341:271.39993 342:301.78851 343:289.11335 344:302.39222 345:314.28027 346:294.77271 347:305.13822 348:308.72911 349:280.30419 350:92.361959 351:300.73571 352:283.90178 353:323.95879 354:316.31706 355:265.04237 356:246.0892 357:299.53147 358:216.61247 359:197.32526 360:229.51502 361:252.73558 362:210.23287 363:330.86961 364:247.00328 365:281.43006 366:209.92599 367:261.00025 368:331.65526 369:304.41012 370:237.0148 371:331.2658 372:343.74576 373:321.29832 374:196.47874 375:255.48207 376:291.41011 377:279.43248 378:321.50637 379:306.157 380:328.34745 381:306.10258 382:315.6681 383:275.16797 384:184.01006 385:281.71167 386:322.50921 387:266.19148 388:315.80166 389:294.1132 390:336.95485 391:325.48564 392:293.76633 393:287.46902 394:300.07033 395:326.00715 396:258.81117 397:298.2547 398:228.6953 399:270.20896 400:278.50823 401:168.32113 402:286.0917 403:247.02505 404:282.62796 405:305.56885 406:263.13607 407:176.30168 408:310.93806 409:329.36993 410:57.106953 411:282.92744 412:259.13474 413:168.05378 414:239.71599 415:283.12945 416:304.76384 417:287.32329 418:318.12043 419:263.87664 420:241.91609 421:298.48028 422:275.12331 423:278.23455 424:319.06067 425:259.12784 426:323.02638 427:170.9322 428:281.65192 429:291.86965 430:309.85023 431:315.23219 432:234.31011 433:279.60153 434:299.92947 435:303.07807 436:298.98856 437:266.72693 438:289.34331 439:303.2952 440:263.80836 441:241.53349 442:206.97653 443:265.05387 444:311.26219 445:228.9937 446:234.75303 447:268.06832 448:330.58397 449:284.72195 450:305.37451 451:274.34879 452:325.7009 453:285.04439 454:195.81593 455:278.49788 456:332.72139 457:301.56565 458:245.74426 459:303.13402 460:326.20939 461:292.61988 462:245.88536 463:296.78717 464:217.28385 465:175.45352 466:312.5697 467:250.41489 468:273.20114 469:277.49651 470:279.91246 471:302.05646 472:267.71333 473:178.81233 474:292.49807 475:262.19304 476:308.99439 477:298.97611 478:287.0799 479:222.07027 480:229.1649 481:288.13758 482:207.36966 483:198.6399 484:280.7707 485:328.15126 486:262.68683 487:301.29395 488:309.14456 489:277.81794 490:294.0951 491:319.56492 492:329.90808 493:302.78968 494:291.69235 495:308.79631 496:325.03778 497:324.51025 498:287.10561 499:227.16177 500:311.46117 501:295.11886 502:330.0437 503:283.7447 504:335.40943 505:297.17122 506:312.21279 507:319.8026 508:323.12657 509:241.80946 510:292.70069 511:320.1823 512:332.08459 513:312.36784 514:249.53479 515:242.44033 516:291.78263 517:318.56344 518:291.74618 519:294.05882 520:282.73725 521:296.32354 522:295.92038 523:301.40238 524:309.875 525:306.69355 526:288.80264 527:271.28882 528:273.97618 529:265.21275 530:294.09738 531:340.22538 532:323.3835 533:271.42854 534:235.68974 535:334.32545 536:309.90912 537:276.09904 538:295.86613 539:183.75306 540:246.06852 541:297.69649 542:295.64914 543:301.46921 544:283.65361 545:205.77193 546:288.27722 547:245.66353 548:274.589 549:279.44665 550:297.39913 551:196.2352 552:292.40712 553:320.88845 554:300.86066 555:316.78566 556:217.62666 557:291.42139 558:282.95561 559:255.14533 560:333.32459 561:275.94859 562:334.64691 563:278.30863 564:303.15901 565:287.86751 566:246.8374 567:255.45832 568:236.43486 569:131.62963 570:279.38554 571:330.23609 572:271.55501 573:295.19289 574:251.4107 575:327.81841 576:293.77953 577:297.81566 578:223.63541 579:309.44376 580:303.41713 581:291.83668 582:257.70028 583:291.26043 584:255.20345 585:303.36627 586:272.73058 587:303.13378 588:301.79056 589:298.23737 590:289.68636 591:369.20554 592:304.35108 593:286.97492 594:235.62559 595:307.81894 596:259.36717 597:247.5996 598:303.38383 599:289.77162 600:315.5191 601:312.90853 602:277.62165 603:277.63113 604:283.12055 605:279.03429 606:282.05638 607:272.02111 608:287.23355 609:295.17278 610:317.44042 611:232.48543 612:304.86475 613:275.28728 614:197.31003 615:314.34031 616:245.12021 617:264.3034 618:296.23237 619:270.49969 620:275.14139 621:262.74393 622:284.3926 623:311.69515 624:313.20027 625:278.84729 626:320.87452 627:271.18198 628:306.44312 629:281.25253 630:254.10585 631:297.42347 632:256.93172 633:323.62773 634:279.18348 635:325.78449 636:330.92941 637:300.89438 638:246.37473 639:301.28091 640:312.87111 641:315.12951 642:280.41529 643:275.37998 644:266.47435 645:313.89559 646:291.35701 647:317.82858 648:310.38284 649:129.91838 650:280.43039 651:295.25492 652:311.99484 653:271.33186 654:291.82051 655:245.43259 656:309.80994 657:241.94426 658:290.83552 659:267.83076 660:278.96538 661:263.75863 662:315.86051 663:258.94097 664:277.39787 665:253.55383 666:284.48523 667:202.61681 668:293.96972 669:273.56651 670:248.0259 671:154.40107 672:271.03068 673:286.61364 674:278.34978 675:299.67275 676:176.76035 677:281.2367 678:305.75214 679:288.61603 680:332.33416 681:273.42665 682:246.43568 683:325.54106 684:319.89642 685:302.48576 686:283.97469 687:171.135 688:242.55991 689:232.75231 690:229.14985 691:318.93675 692:259.37851 693:295.35627 694:314.59607 695:273.55762 696:292.56658 697:236.77615 698:208.43559 699:188.06654 700:301.9305 701:318.17482 702:129.32593 703:271.93724 704:271.18952 705:321.07136 706:276.21357 707:274.27677 708:278.49567 709:255.96443 710:289.02425 711:242.16354 712:319.58295 713:275.40818 714:255.7258 715:300.07626 716:306.84477 717:257.774 718:277.63124 719:271.23004 720:277.34948 721:305.49156 722:309.67449 723:284.28244 724:297.83047 725:313.49181 726:281.65084 727:140.69897 728:304.92101 729:293.60492 730:204.29918 731:263.31509 732:125.67367 733:276.8414 734:212.45573 735:297.17215 736:297.84861 737:269.09616 738:232.91123 739:284.86998 740:307.00634 741:300.78026 742:356.77586 743:318.5385 744:291.99738 745:297.13778 746:317.90014 747:230.16669 748:317.01649 749:321.54828 750:234.28004 751:303.03575 752:308.88794 753:279.54123 754:291.32365 755:281.88331 
-1.569654133248594e-006 5.873608546713214e-007 4.316103643261771e-007 1.524780496135434e-006 1.638149888529301e-006 1.340658348062517e-006 1.766530777479265e-006 1.190002387363434e-006 1.228360820229555e-006 3.075339027103978e-006 1.772463240164309e-006 1.484102337513464e-007 2.160698806507174e-006 3.13663117922041e-006 9.198940375339976e-007 0:0.081925 1:0.0085 2:0 3:0 4:0.0002 5:0.030675 6:0 7:0 8:0 9:0 10:0 11:0 12:0 13:0 14:0 15:0 16:2.5e-005 17:0 18:0 19:0 20:0.000125 21:0.046025 22:0.010275 23:0 24:0 25:0.030425 26:0.007725 27:0 28:0 29:0 30:0 31:0 32:0 33:0 34:0 35:0 36:0 37:0.00015 38:0 39:0 40:0 41:0.00275 42:0.0306 43:2.5e-005 44:0 45:0 46:0.000175 47:5e-005 48:0 49:0 50:0 51:0 52:0 53:0 54:0 55:0 56:0 57:0 58:0 59:0 60:0 61:0 62:2.5e-005 63:0.000325 64:0.130175 65:0.013375 66:0 67:0 68:0.000775 69:0.008 70:0 71:0 72:0 73:0 74:0 75:0 76:0 77:0 78:0 79:0 80:0.00095 81:0 82:0 83:0 84:0.0083 85:0.054475 86:0.009675 87:0 88:0 89:0.00045 90:0.00325 91:0 92:0 93:0 94:0 95:0 96:0 97:0 98:0 99:0 100:0 101:0.001125 102:0 103:0 104:0 105:0.00625 106:0.01275 107:0 108:0 109:0 110:0.0001 111:0 112:0 113:0 114:0 115:0 116:0 117:0 118:0 119:0 120:0 121:0 122:0 123:0 124:0 125:0 126:0.000125 127:0.000225 128:2.5e-005 129:0.009075 130:0 131:0 132:0 133:0.002425 134:0.00035 135:0 136:0 137:0 138:0 139:0 140:0 141:0 142:0 143:0 144:0 145:0 146:0 147:0 148:0 149:0.077175 150:0.00945 151:0 152:0 153:0.0039 154:0.0121 155:0 156:0 157:0 158:0 159:0 160:0 161:0 162:0 163:0 164:0 165:0 166:0 167:0 168:0 169:0.002375 170:0.1282 171:0.001025 172:0 173:0 174:0.00035 175:0.0007 176:0 177:0 178:0 179:0 180:0 181:0 182:0 183:0 184:0 185:0 186:0 187:0 188:0 189:0 190:0.000125 191:0.002725 192:0.003375 193:0.013925 194:0 195:0 196:2.5e-005 197:0.0082 198:0.00055 199:0 200:0 201:0 202:0 203:0 204:0 205:0 206:0 207:0 208:0 209:0 210:0 211:0 212:0 213:0.03805 214:0.016575 215:0 216:0 217:0.00045 218:0.01275 219:0 220:0 221:0 222:0 223:0 224:0 225:0 226:0 227:0 228:0 229:0.000625 230:0 231:0 232:0 233:0.0233 234:0.130825 235:0 236:0 237:0 238:0.000425 239:5e-005 240:0 241:0 242:0 243:0 244:0 245:0 246:0 247:0 248:0 249:0 250:0 251:0 252:0 253:0 254:0.00075 255:0.000125 256:320.01714 257:317.49794 258:343.95293 259:310.21184 260:266.02736 261:285.44337 262:259.83331 263:238.48522 264:280.95598 265:280.48926 266:315.83264 267:329.42288 268:214.972 269:271.81652 270:286.29817 271:270.76849 272:341.38514 273:261.35222 274:282.77445 275:183.57902 276:333.49137 277:288.14845 278:166.08354 279:347.90766 280:306.21873 281:245.55727 282:282.2326 283:312.11059 284:312.66349 285:283.82376 286:310.20882 287:183.98892 288:296.47086 289:292.2719 290:315.02155 291:305.39303 292:274.60496 293:164.01325 294:215.25041 295:276.52059 296:276.83086 297:338.67596 298:302.26223 299:290.89042 300:302.19552 301:314.30362 302:277.57391 303:301.89552 304:299.56544 305:315.35371 306:290.74568 307:281.01674 308:245.26523 309:221.53468 310:239.83339 311:306.142 312:303.80127 313:272.63991 314:323.14102 315:290.32151 316:295.83584 317:262.19522 318:284.87949 319:340.41709 320:311.09194 321:213.39508 322:286.22112 323:288.40798 324:264.15952 325:284.19321 326:295.61877 327:335.90897 328:293.89505 329:206.95153 330:299.01777 331:299.45721 332:247.84848 333:302.46669 334:275.49052 335:283.90859 336:156.4899 337:245.11546 338:279.36289 339:314.29004 340:328.23309 341:319.73461 342:309.01819 343:297.42738 344:348.02251 345:320.79865 346:257.89272 347:339.76521 348:304.32808 349:289.18197 350:138.31719 351:319.76091 352:302.88268 353:289.34348 354:239.28301 355:268.13924 356:322.97341 357:282.17178 358:337.93304 359:249.43194 360:286.92168 361:234.27031 362:224.88639 363:348.25481 364:248.50315 365:320.09824 366:199.07595 367:253.10863 368:320.32722 369:301.5411 370:308.98923 371:337.31308 372:333.92859 373:279.19992 374:291.48766 375:307.92937 376:298.35018 377:273.93837 378:346.31288 379:315.76013 380:235.87077 381:237.05201 382:276.92422 383:312.41994 384:291.62548 385:303.42816 386:338.30095 387:311.36959 388:334.47944 389:289.62034 390:247.37527 391:329.63468 392:316.95433 393:307.42193 394:306.2002 395:300.09614 396:340.09043 397:296.70709 398:338.59784 399:236.82343 400:292.92072 401:205.35349 402:219.15584 403:286.03727 404:251.70667 405:298.34133 406:259.07813 407:278.42565 408:272.99585 409:278.63396 410:180.32329 411:321.71456 412:250.95584 413:236.49575 414:294.54145 415:271.22586 416:294.35194 417:341.06726 418:305.44958 419:339.90342 420:250.73502 421:260.945 422:227.06514 423:347.29478 424:206.39658 425:300.24643 426:313.41883 427:181.6525 428:269.96113 429:318.39657 430:155.80917 431:291.19339 432:286.75389 433:304.3285 434:305.44783 435:243.4722 436:292.95432 437:247.49136 438:343.65277 439:358.49475 440:317.93679 441:280.34384 442:210.29678 443:318.26441 444:269.37213 445:289.5961 446:247.50267 447:240.39621 448:327.11632 449:270.34904 450:309.33306 451:274.86779 452:198.96341 453:300.47009 454:250.55852 455:297.4224 456:328.63891 457:328.52014 458:252.81963 459:324.86771 460:305.2531 461:304.72257 462:299.60044 463:233.2151 464:286.7314 465:221.1807 466:273.48847 467:247.04031 468:337.22532 469:273.97336 470:285.82117 471:290.5969 472:290.71999 473:264.37898 474:302.60552 475:198.98855 476:326.78626 477:322.7734 478:278.59057 479:253.67149 480:248.25617 481:304.31924 482:181.99122 483:256.42523 484:334.58595 485:284.56311 486:310.54047 487:312.42091 488:280.00129 489:311.27904 490:313.47474 491:307.78614 492:266.77629 493:329.14779 494:176.28618 495:347.87442 496:330.06872 497:262.04681 498:264.46653 499:235.86917 500:344.95298 501:303.50104 502:253.08394 503:313.59883 504:341.71335 505:251.50944 506:299.29806 507:220.92902 508:345.4572 509:314.99254 510:285.73676 511:307.41301 512:245.22647 513:276.83881 514:365.2784 515:348.84041 516:349.68725 517:233.93735 518:279.66241 519:287.23366 520:317.92414 521:257.37064 522:299.94129 523:275.66151 524:280.31489 525:298.63859 526:273.61339 527:314.89746 528:328.36131 529:326.2659 530:306.06815 531:348.60239 532:314.5296 533:270.86718 534:201.00691 535:347.65832 536:312.26984 537:336.22619 538:312.19242 539:264.97245 540:261.60246 541:315.54187 542:309.00217 543:303.99111 544:314.13928 545:248.75177 546:306.03691 547:323.73831 548:332.3184 549:303.86389 550:194.93111 551:251.18719 552:307.45093 553:289.0854 554:321.66052 555:268.13117 556:237.77304 557:295.10645 558:241.65765 559:330.69555 560:332.07774 561:294.73381 562:327.47506 563:308.61632 564:318.14996 565:302.34073 566:295.40455 567:308.93754 568:257.07375 569:181.44816 570:305.66223 571:303.27381 572:278.69276 573:301.32203 574:303.82048 575:295.09288 576:306.97477 577:330.13626 578:280.40908 579:322.29765 580:292.80263 581:324.30924 582:320.465 583:333.46172 584:151.43042 585:335.61474 586:262.00904 587:293.86963 588:345.36431 589:313.67042 590:310.72682 591:139.04026 592:308.07713 593:307.27178 594:282.84565 595:280.27156 596:210.8356 597:358.25385 598:316.56735 599:222.53381 600:318.23449 601:324.43144 602:300.65357 603:289.54013 604:257.68036 605:334.17613 606:295.67755 607:294.72887 608:300.34437 609:249.49849 610:328.21866 611:225.13078 612:269.62489 613:355.35313 614:228.60241 615:277.58772 616:258.56436 617:335.39919 618:332.54724 619:359.71165 620:310.70976 621:326.08793 622:362.12106 623:317.83189 624:254.01901 625:293.48007 626:323.50376 627:263.5531 628:349.76095 629:250.01709 630:314.27589 631:185.34643 632:321.3295 633:299.76386 634:197.139 635:294.00107 636:301.42442 637:318.71173 638:286.0422 639:283.94201 640:288.77387 641:317.39037 642:305.87697 643:224.90258 644:248.39386 645:298.98593 646:304.25956 647:304.58473 648:326.75369 649:167.95968 650:262.38907 651:303.02401 652:318.17511 653:294.43272 654:326.82894 655:302.21811 656:295.55651 657:254.76238 658:308.54146 659:308.63379 660:219.72898 661:313.77375 662:240.0597 663:303.11105 664:332.50562 665:234.10711 666:338.33384 667:261.23809 668:288.87663 669:302.80868 670:312.85813 671:278.88698 672:347.31895 673:275.89575 674:313.47885 675:290.66834 676:260.46909 677:297.44259 678:268.46836 679:330.76514 680:318.43896 681:282.75271 682:308.51176 683:332.84321 684:282.51243 685:317.22996 686:329.444 687:235.36242 688:218.29016 689:282.35124 690:245.44906 691:311.91848 692:274.06972 693:288.08844 694:273.98892 695:299.57163 696:293.75488 697:279.31728 698:284.40971 699:226.34827 700:296.95633 701:319.50655 702:186.03712 703:234.43932 704:307.45066 705:276.10638 706:316.93856 707:250.04084 708:274.09754 709:267.56034 710:293.66578 711:326.73976 712:340.99956 713:300.26937 714:326.2494 715:332.46228 716:315.58212 717:273.32476 718:318.59889 719:303.27747 720:229.45754 721:281.73781 722:325.03961 723:308.79657 724:263.66012 725:274.51553 726:319.39326 727:211.05791 728:330.95722 729:304.41103 730:198.23948 731:272.50011 732:211.77749 733:311.17674 734:279.65705 735:311.55985 736:240.38366 737:270.23374 738:216.06077 739:341.72453 740:314.73945 741:293.49371 742:308.29933 743:319.56776 744:331.08296 745:304.01647 746:308.21217 747:318.8693 748:290.94731 749:321.23984 750:246.68235 751:277.87516 752:268.11185 753:327.46614 754:228.58479 755:267.04631 
-1.863831193646486e-007 0 0 0 0 0 2.406727071177986e-007 0 0 1.332386948375794e-006 1.07804743269528e-006 0 2.753809880274579e-007 1.364519460817525e-008 0 0:0.006825 1:0.00355 2:0 3:0 4:0.0001 5:0.003075 6:0.000575 7:0 8:0 9:0 10:0 11:0 12:0 13:0 14:0 15:0 16:0 17:0 18:0 19:0 20:5e-005 21:0.0834 22:0.013175 23:0 24:0 25:0.000925 26:0.008025 27:0 28:0 29:0 30:0 31:0 32:0 33:0 34:0 35:0 36:0 37:2.5e-005 38:0 39:0 40:0 41:0.0003 42:0.105025 43:0.002375 44:0 45:0 46:0.005825 47:0.001525 48:0 49:0 50:0 51:0 52:0 53:0 54:0 55:0 56:0 57:0 58:0 59:0 60:0 61:0 62:0.0012 63:0.014025 64:0.1108 65:0.0198 66:0 67:0 68:0.000125 69:0.0421 70:0.000725 71:0 72:0 73:0 74:0 75:0 76:0 77:0 78:0 79:0 80:0 81:0 82:0 83:0 84:5e-005 85:0.036625 86:0.004975 87:0 88:0 89:0.00185 90:0.007375 91:0 92:0 93:0 94:0 95:0 96:0 97:0 98:0 99:0 100:0 101:7.5e-005 102:0 103:0 104:0 105:7.5e-005 106:0.02205 107:0.000225 108:0 109:0 110:5e-005 111:0.0009 112:0 113:0 114:0 115:0 116:0 117:0 118:0 119:0 120:0 121:0 122:0 123:0 124:0 125:0 126:2.5e-005 127:0.002175 128:0.018775 129:0.00935 130:0 131:0 132:0 133:0.0035 134:0.0006 135:0 136:0 137:0 138:0 139:0 140:0 141:0 142:0 143:0 144:2.5e-005 145:0 146:0 147:0 148:5e-005 149:0.033375 150:0.008125 151:0 152:0 153:0.003675 154:0.00575 155:0 156:0 157:0 158:0 159:0 160:0 161:0 162:0 163:0 164:0 165:0.000125 166:0 167:0 168:0 169:0.001675 170:0.15415 171:0.004825 172:0 173:0 174:0.0003 175:0.00215 176:0 177:0 178:0 179:0 180:0 181:0 182:0 183:0 184:0 185:0 186:2.5e-005 187:0 188:0 189:0 190:2.5e-005 191:0.0035 192:0.1362 193:0.014025 194:0 195:0 196:2.5e-005 197:0.01165 198:0.000575 199:0 200:0 201:0 202:0 203:0 204:0 205:0 206:0 207:0 208:5e-005 209:0 210:0 211:0 212:7.5e-005 213:0.030175 214:0.00535 215:0 216:0 217:0.000225 218:0.0041 219:0 220:0 221:0 222:0 223:0 224:0 225:0 226:0 227:0 228:0 229:5e-005 230:0 231:0 232:0 233:0.000175 234:0.0469 235:0.0001 236:0 237:0 238:2.5e-005 239:7.5e-005 240:0 241:0 242:0 243:0 244:0 245:0 246:0 247:0 248:0 249:0 250:0 251:0 252:0 253:0 254:0 255:0.000225 256:311.39111 257:339.48585 258:340.36781 259:292.99036 260:238.61832 261:335.15551 262:277.6082 263:273.89398 264:284.43946 265:301.49626 266:344.42819 267:327.10367 268:251.3308 269:335.34733 270:222.58663 271:320.26955 272:361.94639 273:255.58273 274:270.65326 275:219.22518 276:345.39291 277:315.31799 278:246.97734 279:341.57526 280:321.13981 281:329.6349 282:283.17204 283:273.59465 284:307.95355 285:328.94356 286:286.22977 287:218.48291 288:351.429 289:301.45878 290:342.69838 291:235.15873 292:346.2526 293:229.14375 294:267.99296 295:204.93981 296:301.38898 297:339.48897 298:337.09083 299:350.08214 300:244.78817 301:294.9057 302:229.18478 303:288.61628 304:303.44623 305:320.71696 306:284.1357 307:190.02897 308:225.10344 309:193.03871 310:251.93925 311:322.69546 312:360.78142 313:298.88371 314:325.67471 315:302.99136 316:333.69329 317:298.87622 318:337.28869 319:312.68097 320:320.50753 321:120.07485 322:313.60006 323:272.08763 324:257.46543 325:233.21361 326:242.73837 327:225.62224 328:315.39664 329:113.57689 330:294.70714 331:332.74713 332:235.57031 333:306.64914 334:154.53508 335:230.99061 336:233.96224 337:227.41874 338:270.66352 339:362.92661 340:305.46447 341:295.23126 342:308.97523 343:338.84902 344:306.42356 345:351.16731 346:271.71298 347:311.35807 348:333.48373 349:304.17596 350:251.35782 351:330.0076 352:282.21077 353:327.87916 354:286.71127 355:291.12507 356:335.64472 357:290.77397 358:331.68694 359:214.26156 360:254.61815 361:283.87381 362:137.3952 363:366.13785 364:251.41321 365:306.87493 366:209.51076 367:255.04761 368:336.87908 369:326.23657 370:314.78659 371:324.41881 372:327.11783 373:274.31514 374:245.33656 375:291.20579 376:328.26595 377:323.10363 378:343.44262 379:308.93259 380:247.17757 381:243.31918 382:335.19599 383:298.89648 384:259.84004 385:322.50026 386:357.03652 387:327.63642 388:306.37779 389:293.42959 390:316.56149 391:330.58788 392:307.04877 393:340.11699 394:304.59964 395:316.66572 396:372.13112 397:303.08293 398:329.95928 399:260.22123 400:350.76363 401:207.6145 402:276.41025 403:294.52462 404:289.42558 405:309.05393 406:224.15242 407:280.93446 408:332.33811 409:242.47793 410:211.04496 411:349.87945 412:274.02593 413:176.79373 414:242.8206 415:304.85561 416:310.22727 417:362.89742 418:327.71539 419:299.05091 420:278.9909 421:302.84641 422:324.80306 423:331.81015 424:311.04989 425:314.22102 426:321.14885 427:192.97823 428:284.7495 429:329.79122 430:265.70613 431:276.62067 432:279.52884 433:339.36002 434:339.14965 435:200.71177 436:280.42973 437:282.41515 438:336.02503 439:373.35602 440:314.68839 441:239.45292 442:278.59421 443:287.42582 444:289.93552 445:277.80966 446:279.59841 447:180.19362 448:314.70876 449:261.51664 450:303.79337 451:281.15053 452:305.2699 453:314.03421 454:159.71808 455:291.63964 456:305.9171 457:353.97846 458:292.61561 459:263.1521 460:291.41337 461:304.15373 462:320.64345 463:325.95681 464:274.7186 465:251.53266 466:291.23363 467:215.62416 468:324.90841 469:304.54328 470:350.3117 471:294.81469 472:287.10136 473:295.63902 474:289.88907 475:243.46392 476:321.73315 477:335.5392 478:266.1808 479:209.88893 480:209.84762 481:329.16107 482:177.71922 483:234.08 484:369.88429 485:280.26225 486:325.89526 487:300.04273 488:294.79943 489:240.80708 490:341.33747 491:356.7454 492:317.43237 493:370.92174 494:358.16178 495:300.89042 496:326.05229 497:287.47226 498:180.00072 499:272.31764 500:335.9642 501:259.55604 502:324.38598 503:308.05169 504:335.48323 505:281.21299 506:350.75523 507:269.09036 508:265.10718 509:296.70127 510:320.91156 511:249.16885 512:346.30147 513:286.80907 514:304.22653 515:363.81823 516:331.85856 517:248.18909 518:254.59799 519:332.84677 520:358.55409 521:275.73296 522:314.05928 523:288.4129 524:308.63061 525:300.24388 526:229.7159 527:337.32197 528:331.40721 529:274.89829 530:351.08785 531:297.08019 532:334.37955 533:238.21642 534:228.30725 535:356.10582 536:343.08193 537:340.82824 538:350.26486 539:229.23046 540:318.49926 541:375.67779 542:352.56603 543:311.11287 544:367.63325 545:156.48635 546:327.76151 547:362.02013 548:351.60084 549:322.53268 550:197.85844 551:228.38337 552:276.49558 553:305.13412 554:348.79855 555:304.13413 556:204.88986 557:307.48291 558:295.51172 559:353.0676 560:323.8479 561:304.62543 562:324.63231 563:318.77714 564:316.31388 565:336.31554 566:333.04761 567:321.64057 568:270.23706 569:216.30979 570:310.83027 571:319.60043 572:343.5328 573:292.02797 574:296.78347 575:317.90183 576:303.91416 577:360.56891 578:276.22873 579:302.62776 580:312.08508 581:251.38843 582:375.07729 583:310.49118 584:258.929 585:288.73632 586:325.60086 587:288.98977 588:358.54503 589:306.33425 590:278.35659 591:214.5042 592:263.70405 593:275.25731 594:232.1194 595:246.74942 596:277.11275 597:344.00555 598:304.34967 599:239.24668 600:299.80003 601:324.60794 602:287.85081 603:302.02746 604:263.76337 605:298.40712 606:248.018 607:309.45246 608:277.13145 609:284.49893 610:305.07812 611:174.95444 612:300.88063 613:332.59978 614:247.50299 615:307.50796 616:302.04645 617:336.41127 618:359.45302 619:331.59855 620:291.38458 621:356.79364 622:358.41075 623:295.26138 624:350.39516 625:304.93385 626:316.63297 627:290.35135 628:326.05978 629:304.7233 630:372.12819 631:173.90253 632:301.67708 633:370.34708 634:235.60104 635:287.33683 636:323.47259 637:336.95597 638:288.80282 639:276.39863 640:341.09813 641:337.51618 642:316.34977 643:295.28166 644:254.73893 645:287.09663 646:320.28143 647:305.76953 648:340.78291 649:241.48598 650:323.21545 651:301.04511 652:314.07995 653:320.26494 654:335.29084 655:263.01507 656:308.91271 657:265.01398 658:307.09815 659:321.35253 660:257.54177 661:278.15545 662:316.6994 663:321.38894 664:332.30382 665:247.3239 666:304.21277 667:244.79503 668:276.8899 669:310.16098 670:279.84867 671:142.82706 672:351.43844 673:339.21092 674:341.55107 675:263.2588 676:132.95432 677:342.05419 678:301.31425 679:296.59921 680:331.37005 681:258.43572 682:321.95149 683:278.23175 684:326.1868 685:316.31089 686:297.19239 687:190.37999 688:221.43094 689:323.82588 690:276.10537 691:340.99184 692:246.97527 693:262.91169 694:286.43134 695:307.20801 696:310.99696 697:260.46697 698:309.7546 699:173.4334 700:303.02497 701:346.82357 702:79.062543 703:260.98183 704:360.5857 705:256.5537 706:312.64595 707:332.44186 708:317.24714 709:284.7359 710:313.03409 711:321.50039 712:308.66612 713:292.6049 714:328.48961 715:362.79846 716:349.2748 717:299.83427 718:271.56547 719:304.72417 720:289.59364 721:259.77214 722:309.77868 723:318.79552 724:358.46512 725:266.82509 726:304.62275 727:187.81967 728:289.96151 729:299.13361 730:208.92978 731:302.33749 732:131.01279 733:275.51698 734:273.66105 735:284.19395 736:304.40272 737:332.30431 738:259.9361 739:261.06446 740:341.86901 741:300.60812 742:261.69355 743:350.32078 744:312.47729 745:347.55017 746:314.59619 747:336.47808 748:331.72637 749:343.32422 750:178.60561 751:328.87661 752:313.79137 753:302.80766 754:239.67145 755:313.04892 
-1.024523379884572e-006 1.567764223561493e-007 3.428969921049141e-007 2.508865737697179e-007 2.963339587284498e-007 5.844324084217401e-007 0 0 5.243194909078859e-007 0 0 1.030545928615189e-007 1.390375971014001e-006 0 0 0:0.128075 1:0.024 2:0 3:0 4:2.5e-005 5:0.01855 6:0.004425 7:0 8:0 9:0 10:0 11:0 12:0 13:0 14:0 15:0 16:2.5e-005 17:0 18:0 19:0 20:2.5e-005 21:0.0052 22:0.004375 23:0 24:0 25:0 26:0.0008 27:0 28:0 29:0 30:0 31:0 32:0 33:0 34:0 35:0 36:0 37:0 38:0 39:0 40:0 41:0 42:0.0179 43:0.00345 44:0 45:0 46:0 47:0.00355 48:0 49:0 50:0 51:0 52:0 53:0 54:0 55:0 56:0 57:0 58:0 59:5e-005 60:0 61:0 62:0 63:0.03955 64:0.1551 65:0.0209 66:0 67:0 68:0.000825 69:0.020325 70:0.00535 71:0 72:0 73:0 74:0 75:0 76:0 77:0 78:0 79:0 80:7.5e-005 81:2.5e-005 82:0 83:0 84:0 85:0.004675 86:0.0094 87:0 88:0 89:0 90:0.000625 91:0 92:0 93:0 94:0 95:0 96:0 97:0 98:0 99:0 100:0 101:2.5e-005 102:0 103:0 104:0 105:0 106:0.0197 107:0.00135 108:0 109:0 110:0 111:0.000675 112:0 113:0 114:0 115:0 116:0 117:0 118:0 119:0 120:0 121:0 122:0 123:0 124:0 125:0 126:0 127:0.01095 128:0.059725 129:0.0301 130:2.5e-005 131:0 132:0 133:0.0122 134:0.00475 135:0 136:0 137:0 138:0 139:0 140:0 141:0 142:0 143:0 144:0 145:0 146:0 147:0 148:0 149:0.003775 150:0.007125 151:0 152:0 153:0 154:0.00165 155:0.000325 156:0 157:0 158:0 159:0 160:0 161:0 162:0 163:0 164:0 165:2.5e-005 166:0.0001 167:0 168:0 169:0 170:0.042 171:0.003475 172:0 173:0 174:0 175:0.00095 176:0 177:0 178:0 179:0 180:0 181:0 182:0 183:0 184:0 185:0 186:0.007875 187:0.000325 188:0 189:0 190:0.005625 191:0.06995 192:0.017575 193:0.063375 194:0 195:0 196:0 197:0.03275 198:0.014675 199:0 200:0 201:0 202:0 203:0 204:0 205:0 206:0 207:0 208:0 209:2.5e-005 210:0 211:0 212:2.5e-005 213:0.01675 214:0.01285 215:0 216:0 217:5e-005 218:0.000775 219:2.5e-005 220:0 221:0 222:0 223:0 224:0 225:0 226:0 227:0 228:0 229:0.002875 230:0.00095 231:0 232:0 233:0.001475 234:0.06685 235:0.00285 236:0 237:0 238:0 239:0.00125 240:0 241:0 242:0 243:0 244:0 245:0 246:0 247:0 248:0 249:0 250:0.001425 251:0.00045 252:0 253:0 254:0.000375 255:0.012625 256:292.81955 257:316.84845 258:290.90702 259:371.17017 260:240.87578 261:312.2494 262:251.0948 263:241.18514 264:263.11781 265:293.73126 266:307.44815 267:304.23875 268:165.28922 269:337.03931 270:243.42103 271:281.54081 272:344.8377 273:303.6796 274:300.26865 275:217.65294 276:269.66296 277:271.73742 278:179.15843 279:270.39389 280:257.96854 281:300.23155 282:263.18979 283:317.61396 284:308.81157 285:295.91746 286:254.77561 287:185.7962 288:358.88579 289:330.52752 290:329.4237 291:309.71707 292:279.08931 293:194.67722 294:298.39344 295:272.48581 296:287.86138 297:358.59145 298:312.40001 299:235.99226 300:284.46656 301:252.46638 302:275.25406 303:269.0443 304:388.08054 305:336.46253 306:311.19826 307:271.02285 308:211.09411 309:158.57313 310:265.03421 311:330.72675 312:299.69938 313:284.28774 314:300.52152 315:258.06448 316:293.20722 317:274.24449 318:319.62602 319:254.7409 320:361.02377 321:90.938556 322:321.79211 323:281.04282 324:240.96076 325:312.9983 326:314.9898 327:304.46453 328:331.75671 329:141.48596 330:325.63118 331:292.84971 332:267.69476 333:226.73033 334:155.90577 335:284.77059 336:194.9914 337:187.19263 338:301.98395 339:355.55107 340:273.41746 341:294.56828 342:324.83947 343:246.48399 344:287.71714 345:319.38899 346:283.73564 347:303.64859 348:336.47886 349:275.00802 350:102.24193 351:280.44027 352:294.79714 353:350.96839 354:344.40174 355:331.86861 356:320.85471 357:310.8275 358:285.1127 359:217.63783 360:334.00662 361:268.73363 362:180.04577 363:262.23102 364:241.7289 365:291.89923 366:252.93696 367:258.7099 368:331.93217 369:270.48604 370:306.60958 371:303.3788 372:351.83426 373:350.80349 374:245.80608 375:322.95344 376:329.87989 377:299.79748 378:324.02744 379:281.96361 380:315.53033 381:326.54804 382:302.11523 383:299.08213 384:239.34403 385:281.33929 386:281.94102 387:280.84334 388:334.75823 389:270.46033 390:308.16599 391:277.86827 392:291.85722 393:313.45269 394:298.7738 395:301.06189 396:295.67474 397:336.7575 398:291.01798 399:339.82954 400:315.33883 401:172.04244 402:236.8228 403:239.10713 404:284.10419 405:296.98123 406:198.48798 407:226.63465 408:242.40778 409:293.24253 410:128.52756 411:289.12122 412:341.35771 413:143.32409 414:223.69447 415:241.79563 416:275.12847 417:363.2957 418:308.40605 419:348.87271 420:260.65929 421:286.66057 422:281.37307 423:334.5465 424:265.64288 425:368.25067 426:298.9203 427:162.4341 428:298.74266 429:292.14469 430:311.94178 431:312.58846 432:227.68017 433:266.47308 434:298.87634 435:336.81838 436:312.44297 437:288.95414 438:354.22071 439:356.57358 440:310.45421 441:227.30811 442:269.71273 443:296.25228 444:294.68193 445:290.96625 446:228.01172 447:257.45074 448:328.78292 449:267.62794 450:271.31517 451:268.43335 452:298.49455 453:303.7411 454:208.41586 455:240.70094 456:329.21408 457:270.9423 458:270.11501 459:228.51625 460:322.16405 461:310.94156 462:263.42877 463:332.39209 464:295.34366 465:175.08362 466:315.21041 467:312.2875 468:269.91932 469:300.60702 470:302.67274 471:297.05035 472:310.20347 473:220.72922 474:291.28792 475:214.47139 476:326.65644 477:297.17446 478:267.15615 479:204.59784 480:171.88148 481:263.47222 482:174.90023 483:256.96271 484:329.03745 485:307.34657 486:353.25702 487:298.32363 488:328.17636 489:224.82489 490:301.15448 491:289.91479 492:304.86269 493:340.4322 494:304.24264 495:330.05767 496:292.92294 497:306.12854 498:329.7169 499:266.34887 500:282.95253 501:327.70628 502:312.75023 503:341.13572 504:286.05165 505:312.62634 506:339.96274 507:336.49911 508:323.4839 509:271.18262 510:259.60354 511:278.86622 512:308.62011 513:280.46599 514:302.8908 515:190.70616 516:257.11811 517:344.52718 518:271.98288 519:306.0526 520:352.25156 521:307.67066 522:286.06898 523:292.10633 524:274.40031 525:305.99974 526:223.59558 527:307.53147 528:316.4159 529:277.50824 530:307.87764 531:323.91956 532:308.2119 533:300.06255 534:156.73792 535:321.93122 536:291.5919 537:301.8135 538:317.41888 539:221.13571 540:291.85303 541:349.82983 542:288.65446 543:310.79908 544:309.47287 545:195.83718 546:290.87166 547:280.70948 548:323.52675 549:301.52415 550:306.43022 551:221.11593 552:328.8182 553:321.23137 554:325.00637 555:328.75467 556:179.2715 557:307.35458 558:311.71439 559:281.16667 560:371.82104 561:291.95094 562:327.80793 563:291.92908 564:287.15136 565:324.43137 566:244.14963 567:272.16665 568:261.57645 569:215.21778 570:282.37374 571:313.00166 572:335.64277 573:260.32318 574:307.55527 575:293.60756 576:311.88164 577:298.5715 578:283.8198 579:341.4228 580:316.72188 581:293.50019 582:302.81141 583:319.1402 584:240.04663 585:355.9829 586:304.67682 587:268.25416 588:282.52761 589:296.03178 590:319.43958 591:313.51843 592:320.66635 593:294.4823 594:204.69227 595:314.97128 596:301.42869 597:239.86012 598:304.09994 599:299.85774 600:308.84485 601:356.73186 602:279.58681 603:326.78297 604:309.97416 605:341.80286 606:274.3938 607:293.9347 608:320.09018 609:270.15691 610:333.21815 611:167.00174 612:267.50038 613:365.80155 614:208.14683 615:275.40903 616:239.38892 617:275.49322 618:366.96018 619:292.54321 620:374.24223 621:282.44504 622:272.11367 623:231.63947 624:340.86762 625:296.9211 626:329.85432 627:293.66188 628:329.54963 629:315.49921 630:330.6344 631:230.04295 632:317.23471 633:325.52563 634:210.66866 635:326.33643 636:279.78264 637:307.00822 638:216.72865 639:263.55814 640:315.37586 641:323.65245 642:331.93037 643:312.66509 644:247.56028 645:359.75252 646:305.3889 647:318.65908 648:300.53961 649:167.03891 650:353.57081 651:288.28464 652:320.96526 653:371.84281 654:299.91896 655:337.98287 656:335.55845 657:270.06429 658:358.82989 659:289.58769 660:261.28629 661:301.34607 662:320.10531 663:332.45558 664:299.2209 665:310.19926 666:262.92548 667:238.6129 668:303.272 669:296.68242 670:321.93065 671:211.25694 672:359.51376 673:271.82105 674:239.82623 675:293.76892 676:149.99815 677:261.54907 678:267.06673 679:284.56678 680:382.55939 681:259.39075 682:276.25918 683:277.28672 684:310.34657 685:332.12109 686:281.31069 687:164.17184 688:349.11964 689:310.02505 690:293.60667 691:299.70725 692:290.67754 693:233.88157 694:294.68577 695:257.69752 696:343.8687 697:229.46021 698:297.26445 699:135.57844 700:303.87581 701:292.73525 702:146.7707 703:281.308 704:270.75355 705:267.98871 706:316.95874 707:327.92146 708:271.14526 709:280.24041 710:287.45555 711:349.38556 712:279.42247 713:342.74663 714:319.72645 715:290.41905 716:353.58973 717:301.78222 718:298.04519 719:289.03594 720:210.78046 721:254.92992 722:309.04384 723:283.78686 724:322.70371 725:257.49328 726:304.96129 727:147.06187 728:342.16866 729:318.00425 730:186.33846 731:285.41704 732:117.31514 733:220.19518 734:251.80904 735:309.4906 736:283.02377 737:320.97057 738:215.71228 739:310.23791 740:336.7149 741:335.21594 742:346.96784 743:288.02066 744:303.18283 745:299.38225 746:329.80048 747:304.10645 748:279.44296 749:317.22803 750:273.78449 751:302.8665 752:325.73483 753:322.29406 754:307.08392 755:301.82217 
-1.040473991406749e-006 4.537638102357802e-008 1.592480347622118e-006 1.458844847197672e-006 1.132903375061746e-006 2.072975546838196e-006 4.703614692666048e-007 3.394923274120769e-007 1.536385288496412e-006 1.99261786645802e-006 1.825870359153789e-006 0 0 1.098286508503629e-006 1.292623210043133e-006 0:0.103075 1:0.028225 2:0 3:0 4:0.000775 5:0.0262 6:0.017925 7:0 8:0 9:0 10:0 11:0 12:0 13:0 14:0 15:0 16:0.000125 17:5e-005 18:0 19:0 20:0.000125 21:0.015675 22:0.020425 23:0 24:0 25:0 26:0.001375 27:7.5e-005 28:0 29:0 30:0 31:0 32:0 33:0 34:0 35:0 36:0 37:5e-005 38:0.0001 39:0 40:0 41:0 42:0.016475 43:0.00365 44:0 45:0 46:0 47:0.0003 48:0 49:0 50:0 51:0 52:0 53:0 54:0 55:0 56:0 57:0 58:0 59:0.000125 60:0 61:0 62:0 63:0.01525 64:0.043475 65:0.008225 66:0 67:0 68:5e-005 69:0.007325 70:0.00025 71:0 72:0 73:0 74:0 75:0 76:0 77:0 78:0 79:0 80:2.5e-005 81:0 82:0 83:0 84:0 85:0.0089 86:0.02415 87:0 88:0 89:0 90:0.056075 91:0 92:0 93:0 94:0 95:0 96:0 97:0 98:0 99:0 100:0 101:0 102:0 103:0 104:0 105:2.5e-005 106:0.07925 107:0.012775 108:0 109:0 110:0 111:0.00175 112:0 113:0 114:0 115:0 116:0 117:0 118:0 119:0 120:0 121:0 122:7.5e-005 123:0 124:0 125:0 126:0 127:0.00765 128:0.0059 129:0.05115 130:0 131:0 132:0 133:0.02015 134:0.02255 135:0 136:0 137:0 138:0 139:0 140:0 141:0 142:0 143:0 144:0 145:2.5e-005 146:0 147:0 148:0 149:0.026625 150:0.014025 151:0 152:0 153:0 154:0.000325 155:7.5e-005 156:0 157:0 158:0 159:0 160:0 161:0 162:0 163:0 164:0 165:0.001375 166:0.0012 167:0 168:0 169:0 170:0.041125 171:0.001325 172:0 173:0 174:0 175:0.0002 176:0 177:0 178:0 179:0 180:0 181:0 182:0 183:0 184:0 185:0 186:2.5e-005 187:0.000425 188:0 189:0 190:0.0002 191:0.0633 192:0.041375 193:0.0066 194:0 195:0 196:0 197:0.0023 198:2.5e-005 199:0 200:0 201:0 202:0 203:0 204:0 205:0 206:0 207:0 208:2.5e-005 209:0 210:0 211:0 212:2.5e-005 213:0.02895 214:0.018325 215:0 216:0 217:0 218:0.0216 219:0 220:0 221:0 222:0 223:0 224:0 225:0 226:0 227:0 228:0 229:0.00025 230:0.00235 231:0 232:0 233:7.5e-005 234:0.10615 235:0.009775 236:0 237:0 238:0 239:0.001025 240:0 241:0 242:0 243:0 244:0 245:0 246:0 247:0 248:0 249:0 250:0.0002 251:0.000675 252:0 253:0 254:0 255:0.010275 256:313.81586 257:296.53266 258:278.71682 259:296.1374 260:246.44143 261:264.38704 262:230.93218 263:243.40402 264:281.71716 265:242.11063 266:308.29879 267:317.72534 268:161.24784 269:309.73833 270:229.91814 271:272.1688 272:293.10549 273:234.32643 274:280.54372 275:125.89754 276:263.28206 277:269.40644 278:250.52842 279:263.58625 280:264.11413 281:288.90658 282:322.37363 283:159.14765 284:305.97362 285:285.65478 286:262.49585 287:160.37588 288:321.76213 289:257.35905 290:282.85543 291:255.11817 292:290.33554 293:239.86324 294:291.47694 295:239.80254 296:296.66003 297:305.75802 298:314.17613 299:251.93921 300:289.90971 301:279.07524 302:270.56752 303:315.08797 304:319.31128 305:317.33338 306:294.47214 307:140.28138 308:225.79562 309:122.24364 310:275.82941 311:295.90019 312:273.61743 313:284.86582 314:304.5697 315:277.99076 316:278.44547 317:255.15616 318:281.39768 319:251.57046 320:284.46033 321:103.46925 322:328.65122 323:273.15479 324:312.84399 325:272.93672 326:284.6849 327:257.60897 328:266.01409 329:126.78246 330:306.01612 331:285.64923 332:189.39789 333:161.63953 334:157.83282 335:303.80173 336:169.70585 337:232.0969 338:302.61323 339:334.05586 340:302.88819 341:295.83276 342:294.0818 343:246.27489 344:263.25167 345:276.2769 346:276.57354 347:338.91523 348:255.53001 349:283.49406 350:192.88256 351:278.42271 352:249.32654 353:248.97325 354:244.70792 355:300.66183 356:261.89784 357:300.46222 358:316.86834 359:242.33234 360:305.08881 361:231.32295 362:187.32283 363:307.61053 364:240.64979 365:279.59337 366:235.03928 367:236.15795 368:322.84889 369:291.41116 370:284.60494 371:270.88744 372:288.28802 373:232.06827 374:238.20085 375:287.12949 376:330.9389 377:360.45709 378:318.75832 379:267.41608 380:239.04708 381:294.61173 382:296.94131 383:295.91083 384:256.72246 385:268.20927 386:291.87559 387:280.40174 388:303.33978 389:242.99721 390:303.41271 391:308.23607 392:254.20283 393:305.04626 394:204.6525 395:289.6091 396:257.32644 397:306.17052 398:266.14747 399:257.20383 400:318.90053 401:175.62645 402:281.80359 403:185.36681 404:268.78112 405:320.16851 406:220.9382 407:250.52813 408:283.94197 409:255.31135 410:47.737944 411:258.79377 412:290.31502 413:161.63719 414:199.31763 415:308.87439 416:277.98063 417:332.52774 418:273.18482 419:310.45331 420:283.47682 421:279.20562 422:322.97701 423:292.69181 424:178.60273 425:282.4842 426:336.8346 427:179.54365 428:303.79265 429:278.91335 430:269.74441 431:318.15482 432:282.00245 433:275.50593 434:292.14158 435:171.66033 436:289.0734 437:248.89565 438:305.41289 439:330.16517 440:249.82354 441:223.4541 442:249.04404 443:285.17767 444:302.1692 445:261.67096 446:215.88379 447:226.8478 448:282.18831 449:253.92094 450:311.08802 451:275.25436 452:274.62167 453:260.87963 454:228.48492 455:289.89846 456:322.41593 457:299.42556 458:205.38588 459:300.56627 460:324.6673 461:330.07417 462:289.49364 463:221.98375 464:273.91871 465:232.9661 466:296.20331 467:208.1417 468:262.2645 469:295.28723 470:291.56274 471:281.08803 472:275.06932 473:314.0024 474:320.4171 475:211.8732 476:282.64113 477:277.69556 478:212.04209 479:195.73674 480:164.15051 481:246.66114 482:158.15377 483:230.23286 484:304.79329 485:295.72516 486:329.9497 487:286.65571 488:307.42091 489:282.11314 490:305.60518 491:276.66785 492:249.44746 493:339.5478 494:193.97185 495:294.02234 496:328.86976 497:296.03466 498:235.53632 499:249.55169 500:286.32684 501:320.52727 502:259.04636 503:310.63641 504:261.35005 505:268.37259 506:302.44518 507:225.0698 508:274.36139 509:273.68746 510:245.47228 511:284.00669 512:320.25521 513:288.93138 514:286.48333 515:189.33874 516:269.74684 517:209.85806 518:270.0886 519:252.57988 520:306.40242 521:251.89641 522:312.81667 523:338.40413 524:305.06607 525:257.94049 526:198.49429 527:300.04329 528:310.45244 529:226.12734 530:290.86874 531:312.96324 532:309.90431 533:323.21199 534:224.22927 535:306.16373 536:269.29542 537:312.32784 538:344.76585 539:236.90711 540:292.41864 541:343.08981 542:262.40221 543:327.11056 544:259.85707 545:190.44479 546:279.72329 547:314.86181 548:317.24852 549:316.25419 550:277.57098 551:193.64098 552:297.99749 553:316.28661 554:291.12504 555:236.61416 556:155.01758 557:282.00076 558:297.01659 559:273.81537 560:322.67201 561:325.87538 562:305.62442 563:320.57921 564:306.09799 565:291.43342 566:248.86796 567:301.31697 568:270.78143 569:208.17266 570:274.88858 571:334.1968 572:327.05733 573:285.09376 574:326.18188 575:280.77457 576:281.12002 577:242.62486 578:271.45963 579:316.81743 580:300.67152 581:303.06027 582:275.26636 583:316.22713 584:176.48741 585:250.74928 586:304.30602 587:261.06581 588:284.26594 589:294.34038 590:262.64426 591:237.08916 592:259.55026 593:310.82393 594:248.50092 595:244.19277 596:176.98325 597:224.77202 598:252.60609 599:284.84147 600:240.12423 601:318.14295 602:297.54815 603:316.22955 604:219.64353 605:280.65338 606:298.67847 607:331.46059 608:314.37874 609:224.85838 610:326.79233 611:176.89945 612:276.43799 613:281.60397 614:227.20792 615:257.59312 616:226.01691 617:288.61235 618:287.51191 619:310.23816 620:297.80108 621:275.79948 622:258.04153 623:242.54013 624:267.07313 625:292.68148 626:316.60469 627:265.25974 628:279.00961 629:268.28345 630:323.01686 631:289.37086 632:311.39459 633:307.1283 634:226.25481 635:212.75708 636:278.01143 637:330.92525 638:252.61463 639:324.13719 640:272.11584 641:302.21758 642:248.0217 643:271.52615 644:215.12695 645:319.69931 646:291.8125 647:306.64553 648:305.00732 649:160.78456 650:311.99228 651:260.18386 652:297.2104 653:318.44795 654:323.33093 655:313.38145 656:257.75617 657:265.27257 658:327.27968 659:276.67033 660:265.6014 661:269.23401 662:338.66873 663:318.84041 664:290.90076 665:268.132 666:263.70826 667:236.36483 668:286.35397 669:297.32924 670:306.00359 671:217.33316 672:291.46174 673:268.02153 674:291.42341 675:252.16012 676:211.76092 677:269.17427 678:268.91573 679:278.00218 680:320.08488 681:207.92027 682:282.82409 683:284.35258 684:320.25211 685:283.48228 686:289.82774 687:150.35693 688:268.60815 689:310.7005 690:285.96386 691:302.44857 692:275.103 693:307.84742 694:288.33777 695:198.97349 696:333.48067 697:289.99544 698:258.50908 699:170.42286 700:267.48005 701:237.16544 702:114.05871 703:260.34443 704:337.6643 705:225.22535 706:318.9944 707:310.75487 708:273.47655 709:260.93629 710:272.13929 711:284.5048 712:312.36289 713:315.23735 714:302.68616 715:284.4031 716:329.95245 717:243.03238 718:295.14003 719:269.86633 720:185.96969 721:264.59897 722:268.4052 723:244.99682 724:276.6802 725:254.85186 726:291.97378 727:125.2683 728:276.98846 729:242.47751 730:230.08108 731:287.40028 732:123.87747 733:287.37015 734:212.17446 735:300.6206 736:280.21584 737:281.26142 738:194.31088 739:303.63112 740:322.05892 741:281.41975 742:181.34683 743:298.84567 744:286.37368 745:255.03568 746:254.83666 747:288.00167 748:309.73005 749:286.53476 750:269.8377 751:345.58975 752:219.28855 753:261.18142 754:246.8171 755:273.26812 
-1.697475260002192e-007 8.624303013237405e-007 6.037846524905733e-007 0 0 0 8.550814711407884e-007 1.404055582635884e-007 0 1.189822585853671e-008 0 0 0 1.472931185026925e-007 0 0:0.132525 1:0.011975 2:0 3:0 4:2.5e-005 5:0.00215 6:0.000225 7:0 8:0 9:0 10:0 11:0 12:0 13:0 14:0 15:0 16:0.0002 17:0 18:0 19:0 20:0.0002 21:0.00865 22:0.006275 23:0 24:0 25:0 26:0.007125 27:0 28:0 29:0 30:0 31:0 32:0 33:0 34:0 35:0 36:0 37:0.000175 38:2.5e-005 39:0 40:0 41:0.0002 42:0.0661 43:0.006 44:0 45:0 46:5e-005 47:0.00075 48:0 49:0 50:0 51:0 52:0 53:0 54:0 55:0 56:0 57:0 58:0.000875 59:0.0002 60:0 61:0 62:0.000375 63:0.0059 64:0.137075 65:0.0218 66:0 67:0 68:0 69:0.008525 70:0.00075 71:0 72:0 73:0 74:0 75:0 76:0 77:0 78:0 79:0 80:0 81:2.5e-005 82:0 83:0 84:0 85:0.033075 86:0.011 87:0 88:0 89:2.5e-005 90:0.016275 91:2.5e-005 92:0 93:0 94:0 95:0 96:0 97:0 98:0 99:0 100:0 101:2.5e-005 102:0 103:0 104:0 105:0 106:0.020575 107:0.00065 108:0 109:0 110:0 111:7.5e-005 112:0 113:0 114:0 115:0 116:0 117:0 118:0 119:0 120:0 121:0 122:0 123:0 124:0 125:0 126:0 127:0.0001 128:0.0891 129:0.014 130:0 131:0 132:0 133:0.0061 134:0.001 135:0 136:0 137:0 138:0 139:0 140:0 141:0 142:0 143:0 144:5e-005 145:2.5e-005 146:0 147:0 148:0 149:0.029975 150:0.00435 151:0 152:0 153:0 154:0.002325 155:0 156:0 157:0 158:0 159:0 160:0 161:0 162:0 163:0 164:0 165:0.000625 166:0.0006 167:0 168:0 169:0.0001 170:0.0866 171:0.00845 172:0 173:0 174:0 175:0.000375 176:0 177:0 178:0 179:0 180:0 181:0 182:0 183:0 184:0 185:0 186:7.5e-005 187:0.000625 188:0 189:0 190:0 191:0.005625 192:0.058 193:0.0055 194:0 195:0 196:0 197:0.00265 198:0 199:0 200:0 201:0 202:0 203:0 204:0 205:0 206:0 207:0 208:5e-005 209:2.5e-005 210:0 211:0 212:0 213:0.014325 214:0.01115 215:0 216:0 217:0 218:0.0042 219:0 220:0 221:0 222:0 223:0 224:0 225:0 226:0 227:0 228:0 229:2.5e-005 230:7.5e-005 231:0 232:0 233:0 234:0.151325 235:0.0008 236:0 237:0 238:0 239:5e-005 240:0 241:0 242:0 243:0 244:0 245:0 246:0 247:0 248:0 249:0 250:0 251:7.5e-005 252:0 253:0 254:0 255:0.00175 256:337.71842 257:347.56076 258:309.76488 259:304.55617 260:266.52031 261:341.9371 262:227.68354 263:268.86428 264:291.85809 265:287.58112 266:309.79246 267:278.15437 268:210.63658 269:331.21922 270:283.72181 271:245.43658 272:348.69788 273:264.82607 274:337.84649 275:196.49373 276:323.42833 277:344.2303 278:242.85604 279:334.7359 280:341.72665 281:275.88604 282:289.41496 283:175.9114 284:367.97258 285:307.27896 286:251.19565 287:142.24259 288:346.03044 289:283.01966 290:324.36311 291:256.42743 292:331.9773 293:278.44666 294:252.96358 295:228.38672 296:289.62045 297:327.11102 298:326.14731 299:297.12927 300:307.96492 301:324.42424 302:279.3685 303:287.49449 304:288.64101 305:305.89087 306:294.9829 307:268.1451 308:235.42155 309:216.40174 310:204.01614 311:294.16343 312:366.45562 313:263.33829 314:302.05853 315:327.18828 316:319.75672 317:278.19928 318:309.52542 319:326.9861 320:314.28707 321:176.5137 322:302.4255 323:277.50228 324:286.62385 325:283.51177 326:314.03362 327:339.20788 328:304.49335 329:148.16854 330:303.71902 331:338.4804 332:272.08586 333:238.86459 334:186.75185 335:262.19441 336:201.85891 337:277.55982 338:312.02991 339:321.5206 340:341.52023 341:305.84841 342:267.33274 343:315.69829 344:313.76228 345:304.40561 346:238.27211 347:326.81781 348:314.48682 349:252.76944 350:313.3222 351:353.10156 352:286.70361 353:251.80557 354:356.19331 355:326.85817 356:339.63733 357:337.76657 358:288.83848 359:234.06922 360:203.28924 361:287.92833 362:157.28394 363:305.71103 364:275.50809 365:333.27968 366:232.14821 367:234.69746 368:344.31995 369:332.14134 370:329.17024 371:319.21067 372:341.65747 373:161.99378 374:244.07382 375:322.73292 376:301.32127 377:279.1123 378:312.93545 379:278.0468 380:283.64068 381:360.62183 382:250.93369 383:301.60304 384:236.0575 385:314.81268 386:307.94881 387:321.90304 388:303.46288 389:292.43939 390:318.16441 391:305.58354 392:275.48122 393:354.8046 394:298.25245 395:268.23918 396:339.19517 397:318.4547 398:343.63809 399:358.38721 400:311.10491 401:162.92003 402:238.75777 403:281.10015 404:331.9915 405:281.89643 406:303.79376 407:211.70784 408:316.62015 409:286.30432 410:72.82303 411:361.80128 412:332.35642 413:188.98774 414:262.77221 415:282.27398 416:284.53089 417:317.48352 418:263.90071 419:321.83615 420:225.20728 421:335.62978 422:300.7265 423:362.97118 424:289.10523 425:326.16626 426:305.67896 427:122.29041 428:324.99946 429:329.99547 430:335.17165 431:324.30279 432:246.84764 433:297.08078 434:311.12411 435:305.13752 436:311.53653 437:255.71162 438:319.66003 439:305.0554 440:252.93046 441:231.5391 442:265.11208 443:260.74352 444:270.06535 445:282.63162 446:234.66122 447:260.56018 448:325.09409 449:223.347 450:279.95153 451:316.55286 452:299.68279 453:347.93061 454:212.78739 455:294.90765 456:366.0116 457:331.68559 458:311.66135 459:337.82327 460:323.4494 461:313.48271 462:285.8194 463:321.63327 464:264.36442 465:261.79221 466:250.6241 467:279.95477 468:297.45706 469:338.89406 470:336.38755 471:266.32115 472:338.59317 473:280.41477 474:307.45748 475:231.82347 476:334.43055 477:360.29726 478:290.35709 479:251.92883 480:263.25766 481:315.2628 482:232.31568 483:245.30948 484:328.34774 485:258.77489 486:323.85145 487:309.24623 488:267.81842 489:278.93899 490:316.12636 491:280.4185 492:334.93363 493:360.10536 494:393.40427 495:321.72015 496:292.88611 497:249.96238 498:342.87946 499:301.69156 500:317.41248 501:297.88397 502:260.44992 503:347.90541 504:332.74285 505:305.74224 506:275.59904 507:282.07314 508:266.23562 509:310.61453 510:310.84188 511:300.99298 512:267.27814 513:277.93741 514:341.36267 515:332.22896 516:331.2143 517:294.30401 518:246.81943 519:237.89713 520:323.60088 521:313.76466 522:324.83509 523:319.89252 524:296.96978 525:315.13635 526:271.06005 527:316.98575 528:343.65263 529:243.78781 530:294.4678 531:321.47801 532:336.2644 533:204.21627 534:249.89114 535:252.91598 536:283.94177 537:348.84825 538:336.53504 539:270.9406 540:335.1339 541:320.74086 542:348.72275 543:292.36491 544:292.50029 545:225.44805 546:310.91476 547:347.70158 548:295.2681 549:341.37946 550:307.27206 551:255.67224 552:336.05138 553:322.1449 554:323.34915 555:283.5134 556:248.95687 557:293.8915 558:259.01498 559:337.52061 560:319.52218 561:316.17382 562:312.75769 563:253.92965 564:363.56782 565:387.15358 566:303.56724 567:329.0421 568:291.09088 569:249.96144 570:341.69676 571:271.1276 572:342.49377 573:299.11189 574:312.57176 575:312.78985 576:293.12972 577:318.0974 578:332.18413 579:314.98039 580:281.18552 581:342.46542 582:277.59065 583:311.49035 584:237.24017 585:361.13005 586:294.04934 587:319.01512 588:327.72538 589:316.8455 590:299.64394 591:296.46832 592:295.91923 593:358.08057 594:259.69574 595:272.45421 596:304.58928 597:316.91827 598:272.32345 599:311.34344 600:318.54509 601:328.36054 602:266.88663 603:303.3959 604:285.2718 605:282.5168 606:294.79621 607:278.1504 608:228.52099 609:294.96503 610:293.90576 611:213.36064 612:336.2422 613:340.99391 614:236.01789 615:308.23906 616:296.60186 617:343.23543 618:327.71484 619:341.61554 620:315.31072 621:304.45122 622:337.47863 623:354.58817 624:357.46296 625:317.93459 626:343.47709 627:315.79335 628:328.4254 629:325.69719 630:344.24236 631:271.79032 632:332.46345 633:361.48135 634:267.76093 635:277.29886 636:304.97967 637:323.20627 638:203.12766 639:315.23832 640:271.65661 641:364.6355 642:329.41294 643:274.41909 644:310.59158 645:266.94491 646:310.90692 647:276.3588 648:337.50497 649:144.61323 650:283.41447 651:288.80788 652:292.85158 653:321.60691 654:301.9797 655:348.7302 656:243.76165 657:277.12283 658:314.10225 659:333.11655 660:267.45645 661:289.17305 662:327.30667 663:318.96599 664:346.98854 665:269.67057 666:295.60347 667:239.69306 668:301.60414 669:331.64891 670:332.39995 671:245.52051 672:356.31836 673:315.2858 674:308.95399 675:267.04428 676:149.04201 677:274.26714 678:317.97486 679:305.44355 680:339.54185 681:316.85562 682:314.00099 683:332.37742 684:309.13231 685:346.43177 686:353.58045 687:179.71425 688:307.45989 689:226.67538 690:276.11029 691:290.09476 692:244.12635 693:326.82239 694:315.47618 695:279.13417 696:329.43423 697:218.01523 698:240.29415 699:222.16894 700:277.23167 701:326.89617 702:129.07948 703:290.38585 704:296.6226 705:286.36572 706:324.6409 707:323.29745 708:362.52616 709:242.51871 710:325.69063 711:333.74389 712:308.23034 713:310.2699 714:317.10104 715:326.38212 716:342.9186 717:290.72972 718:299.51411 719:287.02303 720:217.46357 721:225.65176 722:280.62416 723:361.35728 724:369.85497 725:298.44862 726:338.55307 727:134.61257 728:314.4034 729:262.27979 730:299.42798 731:288.55451 732:137.7886 733:262.58659 734:197.97263 735:305.02492 736:312.49726 737:310.39811 738:256.72445 739:334.073 740:277.48749 741:329.02 742:248.69285 743:287.6133 744:320.26532 745:330.55046 746:374.33512 747:287.09904 748:280.56512 749:307.00297 750:189.93307 751:262.73395 752:325.14542 753:263.41957 754:343.05941 755:326.05302 
-4.46421624578877e-007 0 1.058771832344033e-007 0 0 5.261391073936183e-007 0 0 0 2.347649979726753e-006 6.271600771158939e-007 0 1.847170379593582e-006 3.427672254688567e-008 0 0:0.1335 1:0.005775 2:0 3:0 4:0 5:0.00155 6:0 7:0 8:0 9:0 10:0 11:0 12:0 13:0 14:0 15:0 16:0.000125 17:2.5e-005 18:0 19:0 20:7.5e-005 21:0.00765 22:0.0016 23:0 24:0 25:0 26:0.001225 27:0 28:0 29:0 30:0 31:0 32:0 33:0 34:0 35:0 36:0 37:2.5e-005 38:0.0001 39:0 40:0 41:5e-005 42:0.070425 43:0.010025 44:0 45:0 46:0 47:0.002525 48:0 49:0 50:0 51:0 52:0 53:0 54:0 55:0 56:0 57:0 58:0.001525 59:0.000225 60:0 61:0 62:0.0005 63:0.013075 64:0.1357 65:0.0208 66:0 67:0 68:2.5e-005 69:0.004125 70:0.000175 71:0 72:0 73:0 74:0 75:0 76:0 77:0 78:0 79:0 80:0.001375 81:0.000175 82:0 83:0 84:0.00035 85:0.02065 86:0.007625 87:0 88:0 89:2.5e-005 90:0.01065 91:7.5e-005 92:0 93:0 94:0 95:0 96:0 97:0 98:0 99:0 100:0 101:0.00015 102:2.5e-005 103:0 104:0 105:0.000325 106:0.0468 107:0.0009 108:0 109:0 110:0 111:2.5e-005 112:0 113:0 114:0 115:0 116:0 117:0 118:0 119:0 120:0 121:0 122:2.5e-005 123:0 124:0 125:0 126:0 127:0 128:0.10795 129:0.009725 130:0 131:0 132:0 133:0.004025 134:0.001775 135:0 136:0 137:0 138:0 139:0 140:0 141:0 142:0 143:0 144:7.5e-005 145:0 146:0 147:0 148:0 149:0.01575 150:0.0136 151:0 152:0 153:0 154:0.009375 155:0.000175 156:0 157:0 158:0 159:0 160:0 161:0 162:0 163:0 164:0 165:0.0002 166:0.0019 167:0 168:0 169:0 170:0.074575 171:0.0053 172:0 173:0 174:0 175:0.000275 176:0 177:0 178:0 179:0 180:0 181:0 182:0 183:0 184:0 185:0 186:0.000125 187:0.0005 188:0 189:0 190:0 191:0.004675 192:0.068425 193:0.0022 194:0 195:0 196:0 197:0.00245 198:5e-005 199:0 200:0 201:0 202:0 203:0 204:0 205:0 206:0 207:0 208:0.000125 209:0 210:0 211:0 212:2.5e-005 213:0.12605 214:0.0135 215:0 216:0 217:0 218:0.0029 219:0 220:0 221:0 222:0 223:0 224:0 225:0 226:0 227:0 228:0 229:0.00015 230:0.0012 231:0 232:0 233:0.000125 234:0.0328 235:0 236:0 237:0 238:0 239:0 240:0 241:0 242:0 243:0 244:0 245:0 246:0 247:0 248:0 249:0 250:0 251:0 252:0 253:0 254:0 255:0 256:333.88299 257:323.47793 258:341.66628 259:341.73734 260:200.24955 261:320.42679 262:318.27469 263:246.63489 264:307.23923 265:327.44538 266:328.44441 267:323.81942 268:215.85556 269:346.68344 270:222.36114 271:308.18356 272:343.10754 273:276.04186 274:314.68268 275:238.74756 276:316.72022 277:321.46491 278:187.98611 279:302.52322 280:367.2988 281:330.85887 282:280.99698 283:196.45617 284:291.68565 285:298.27161 286:267.92685 287:181.58052 288:297.02913 289:277.15233 290:345.48557 291:268.41175 292:336.78151 293:174.0186 294:293.59848 295:284.84796 296:334.2564 297:379.4207 298:301.20782 299:268.40963 300:242.38161 301:319.69403 302:270.6404 303:279.61055 304:292.0413 305:341.33381 306:262.89522 307:138.50139 308:180.04603 309:227.96656 310:327.81813 311:307.93134 312:350.12117 313:303.88789 314:286.20022 315:309.56037 316:341.7616 317:331.81731 318:361.08528 319:318.85015 320:326.55154 321:217.43194 322:362.76073 323:233.8408 324:319.77005 325:278.29325 326:305.24553 327:246.72752 328:274.23695 329:117.80658 330:312.95337 331:329.93774 332:294.74506 333:256.17385 334:216.37292 335:271.15297 336:200.02761 337:275.26173 338:301.28081 339:349.93042 340:359.82297 341:329.83173 342:327.97533 343:337.01751 344:321.23641 345:328.10505 346:220.21909 347:328.79054 348:326.94062 349:289.40048 350:132.02892 351:356.97871 352:291.29685 353:346.72165 354:304.17181 355:310.62358 356:307.02344 357:344.48103 358:289.19663 359:252.63871 360:285.33716 361:237.07274 362:256.9887 363:316.42049 364:257.05715 365:341.54545 366:288.51251 367:288.27822 368:345.91216 369:317.923 370:329.07739 371:344.14042 372:317.88353 373:180.67243 374:187.7333 375:308.44627 376:314.22223 377:319.94342 378:326.58996 379:311.83609 380:236.77219 381:290.22176 382:295.36342 383:359.86647 384:271.41878 385:303.55653 386:335.21083 387:355.2021 388:276.55177 389:292.35934 390:287.16271 391:293.80833 392:295.12772 393:323.2488 394:277.75904 395:316.82817 396:352.80225 397:335.05866 398:326.59501 399:276.17841 400:329.1638 401:191.38923 402:274.31462 403:295.51594 404:323.36544 405:323.62757 406:195.37131 407:261.74051 408:243.02914 409:264.31491 410:92.489499 411:314.11935 412:322.36989 413:182.01929 414:263.97852 415:324.74025 416:334.75323 417:333.81086 418:279.96159 419:347.24195 420:290.26968 421:346.34912 422:247.94893 423:340.25371 424:212.56504 425:344.71941 426:332.34417 427:189.76364 428:317.88055 429:359.72167 430:211.15472 431:342.04965 432:259.367 433:296.40271 434:300.19695 435:250.6727 436:322.18645 437:272.71058 438:318.02441 439:338.23247 440:342.81926 441:222.73812 442:277.55279 443:325.50987 444:294.02488 445:274.90537 446:251.17378 447:271.41205 448:304.70974 449:306.93596 450:335.2663 451:320.59644 452:301.78429 453:269.39839 454:235.12611 455:280.72677 456:347.61602 457:303.52226 458:214.00506 459:308.64352 460:356.33172 461:338.49827 462:312.73551 463:307.03191 464:291.30706 465:186.90112 466:283.29541 467:324.62402 468:363.84027 469:311.10695 470:307.41608 471:324.56907 472:311.25965 473:304.48705 474:290.27945 475:265.01208 476:298.58695 477:333.96483 478:270.25644 479:249.39621 480:242.25809 481:345.15896 482:227.43817 483:226.4626 484:350.32669 485:303.70359 486:313.48132 487:307.27981 488:332.59634 489:290.66132 490:342.31257 491:360.77473 492:344.96654 493:363.91503 494:315.46887 495:314.55618 496:304.64709 497:273.35763 498:201.71374 499:247.12663 500:369.10311 501:306.71104 502:296.78216 503:226.27897 504:314.77867 505:288.96993 506:319.13917 507:295.27132 508:263.01547 509:279.82044 510:310.49789 511:309.04831 512:320.39633 513:298.44727 514:349.58988 515:348.864 516:369.44623 517:247.95184 518:315.35552 519:262.79024 520:367.46044 521:276.76224 522:323.90985 523:299.39089 524:286.685 525:322.54026 526:335.57068 527:354.9933 528:314.66419 529:243.09937 530:265.71951 531:277.94438 532:285.52802 533:218.85136 534:271.14833 535:332.47744 536:323.56534 537:360.57596 538:328.09082 539:245.57424 540:311.75872 541:349.78506 542:289.10997 543:256.11023 544:363.09856 545:257.04517 546:368.79863 547:350.70134 548:279.68349 549:346.29752 550:255.91437 551:269.39024 552:321.04529 553:324.47442 554:333.22328 555:305.56238 556:218.58637 557:325.82781 558:277.54088 559:358.72154 560:315.7285 561:321.12938 562:338.51332 563:308.34343 564:338.06467 565:315.87898 566:291.10462 567:328.91819 568:284.68218 569:209.47615 570:355.0765 571:330.46313 572:333.50848 573:264.04381 574:284.02511 575:315.23493 576:289.22652 577:302.29541 578:264.60446 579:242.08956 580:275.39816 581:340.14759 582:332.48047 583:320.49976 584:242.32302 585:316.75525 586:331.82286 587:334.02442 588:371.63177 589:314.60049 590:334.68723 591:284.1234 592:227.99486 593:345.96351 594:283.8795 595:312.80899 596:166.33519 597:341.83311 598:273.47206 599:329.97514 600:288.17077 601:335.27536 602:309.81457 603:290.62934 604:319.37722 605:338.2578 606:232.07779 607:307.71544 608:251.02338 609:298.23929 610:259.34551 611:247.18085 612:353.13508 613:316.34126 614:252.81303 615:309.91065 616:292.81473 617:318.64496 618:317.44366 619:372.51863 620:309.13651 621:395.12018 622:373.55599 623:293.93983 624:311.57735 625:325.77389 626:317.81056 627:306.05401 628:323.8001 629:319.32809 630:301.9675 631:286.20459 632:340.79837 633:376.44578 634:280.45495 635:263.72567 636:331.50444 637:309.50044 638:166.68161 639:234.00177 640:296.31223 641:337.07422 642:310.2769 643:305.6808 644:251.24821 645:332.93241 646:293.97486 647:318.91979 648:311.68668 649:160.64592 650:347.38884 651:339.66366 652:285.64363 653:306.89199 654:315.74181 655:351.15354 656:348.46452 657:213.20751 658:339.51109 659:358.26402 660:255.35785 661:264.58174 662:353.69034 663:279.96745 664:314.17513 665:212.0488 666:346.27838 667:235.7543 668:346.68422 669:348.32642 670:310.70378 671:238.32155 672:342.68318 673:340.90751 674:320.86363 675:302.23189 676:224.69616 677:304.22717 678:307.77439 679:335.55447 680:346.71938 681:231.35466 682:278.14383 683:343.48027 684:346.41981 685:333.41616 686:337.21957 687:135.04223 688:293.59019 689:221.09948 690:260.24188 691:330.90323 692:224.53605 693:332.28534 694:248.89075 695:213.78601 696:323.32656 697:196.20524 698:234.24994 699:224.55436 700:253.20846 701:332.92546 702:86.690637 703:274.69797 704:351.79487 705:247.68515 706:356.82369 707:317.6776 708:299.04258 709:271.8286 710:314.37859 711:350.13546 712:281.80138 713:362.96731 714:337.71866 715:316.67548 716:345.77281 717:286.27444 718:257.29464 719:292.3989 720:269.39415 721:293.63891 722:345.50619 723:345.10069 724:304.3921 725:329.54022 726:330.01311 727:76.506992 728:350.25017 729:277.88247 730:206.51662 731:342.80119 732:140.57093 733:308.55691 734:245.3132 735:293.60286 736:288.02277 737:318.80758 738:254.0679 739:333.1749 740:303.89678 741:297.35955 742:272.14686 743:369.10434 744:318.32527 745:293.73853 746:320.51767 747:338.32611 748:360.10486 749:325.61623 750:285.29159 751:292.25598 752:331.62714 753:288.39572 754:265.69295 755:284.819 
-8.935727239010772e-007 8.339563366755563e-007 1.630533402091869e-006 9.242111515700802e-007 1.489063032492512e-006 1.459982588080347e-006 1.759613581011754e-006 1.231594810034511e-006 2.101295126839413e-006 1.42881392152371e-006 0 2.914006992423599e-007 0 1.099389345166508e-006 0 0:0.08825 1:0.01655 2:0 3:0 4:5e-005 5:0.01075 6:0.001675 7:0 8:0 9:0 10:0 11:0 12:0 13:0 14:0 15:0 16:0 17:5e-005 18:0 19:0 20:0 21:0.033975 22:0.0064 23:0 24:0 25:0 26:0.003225 27:0.000425 28:0 29:0 30:0 31:0 32:0 33:0 34:0 35:0 36:0 37:0.000175 38:2.5e-005 39:0 40:0 41:0 42:0.006325 43:0.00335 44:0 45:0 46:0 47:0.002125 48:0 49:0 50:0 51:0 52:0 53:0 54:0 55:0 56:0 57:0 58:0.0001 59:0.0001 60:0 61:0 62:5e-005 63:0.0764 64:0.07315 65:0.02025 66:0 67:0 68:0 69:0.009675 70:0.0011 71:0 72:0 73:0 74:0 75:0 76:0 77:0 78:0 79:0 80:0 81:0 82:0 83:0 84:0 85:0.018125 86:0.01445 87:0 88:0 89:0 90:0.031975 91:0.00035 92:0 93:0 94:0 95:0 96:0 97:0 98:0 99:0 100:0 101:0 102:5e-005 103:0 104:0 105:0 106:0.040525 107:0.024525 108:0 109:0 110:0 111:0.002525 112:0 113:0 114:0 115:0 116:0 117:0 118:0 119:0 120:0 121:0 122:0.000375 123:0.00015 124:0 125:0 126:0.0002 127:0.012575 128:0.091375 129:0.004875 130:0 131:0 132:0 133:0.00345 134:0.00505 135:0 136:0 137:0 138:0 139:0 140:0 141:0 142:0 143:0 144:0 145:2.5e-005 146:0 147:0 148:0 149:0.0283 150:0.00765 151:2.5e-005 152:0 153:0 154:0.001125 155:0.000125 156:0 157:0 158:0 159:0 160:0 161:0 162:0 163:0 164:0 165:0.00025 166:0.000975 167:0 168:0 169:0 170:0.03955 171:0.0134 172:0 173:0 174:0 175:0.001925 176:0 177:0 178:0 179:0 180:0 181:0 182:0 183:0 184:0 185:0 186:0 187:0.0008 188:0 189:0 190:0 191:0.0511 192:0.07885 193:0.014575 194:0 195:0 196:0 197:0.0074 198:7.5e-005 199:0 200:0 201:0 202:0 203:0 204:0 205:0 206:0 207:0 208:0 209:0.0001 210:0 211:0 212:0 213:0.0365 214:0.003675 215:0 216:0 217:0 218:0.0015 219:0 220:0 221:0 222:0 223:0 224:0 225:0 226:0 227:0 228:0 229:2.5e-005 230:0.0001 231:0 232:0 233:0 234:0.095525 235:0.009375 236:0 237:0 238:0 239:0.000675 240:0 241:0 242:0 243:0 244:0 245:0 246:0 247:0 248:0 249:0 250:0 251:0.0001 252:0 253:0 254:0 255:0.001525 256:309.14922 257:339.85036 258:341.29274 259:279.34275 260:278.6585 261:317.91124 262:288.21559 263:275.1305 264:299.17148 265:314.96951 266:307.7344 267:300.82387 268:203.93253 269:328.87198 270:191.95134 271:261.43986 272:254.58461 273:307.61477 274:321.64573 275:214.04927 276:307.85717 277:318.41758 278:258.01662 279:300.04811 280:325.80357 281:281.07433 282:259.67093 283:165.29467 284:322.87585 285:305.35067 286:257.65897 287:196.31189 288:338.11024 289:276.78217 290:317.29386 291:274.00097 292:278.66756 293:293.10002 294:253.41922 295:192.04803 296:313.26445 297:320.86424 298:333.27942 299:265.27115 300:306.56019 301:326.5241 302:268.9416 303:310.77154 304:285.84627 305:294.6288 306:327.65937 307:294.43733 308:212.52581 309:207.46643 310:244.7176 311:306.10134 312:312.40339 313:318.03764 314:247.39287 315:348.25836 316:329.30672 317:282.26135 318:311.4937 319:315.60774 320:303.48706 321:118.99059 322:328.21196 323:281.78143 324:323.19874 325:303.33853 326:295.82837 327:293.39333 328:330.18617 329:108.37389 330:309.71365 331:312.75633 332:269.91995 333:239.38072 334:238.24839 335:313.39411 336:218.40589 337:287.36939 338:292.53294 339:326.96813 340:314.3589 341:338.15018 342:293.89182 343:313.93837 344:330.14662 345:314.15114 346:306.37523 347:282.11499 348:267.05387 349:309.89169 350:223.33702 351:283.52151 352:310.68355 353:337.72099 354:314.88808 355:302.94289 356:323.39689 357:303.67828 358:288.69405 359:230.24767 360:262.97548 361:293.67403 362:207.0427 363:318.65117 364:247.74112 365:313.64475 366:212.96713 367:252.08738 368:319.37206 369:284.61219 370:324.59615 371:321.40726 372:305.20743 373:183.29781 374:191.94683 375:331.97925 376:285.8205 377:206.00603 378:322.4316 379:336.88748 380:306.52919 381:333.39456 382:242.00553 383:333.54894 384:263.49527 385:327.72048 386:302.79108 387:307.68475 388:282.92241 389:315.96168 390:302.49649 391:294.32897 392:306.09749 393:327.42298 394:307.06384 395:322.75405 396:340.92676 397:298.88315 398:296.81574 399:327.58843 400:309.13632 401:191.77656 402:239.54728 403:293.67602 404:310.59794 405:300.07122 406:240.25558 407:210.59529 408:298.34005 409:194.05171 410:69.520765 411:315.48586 412:308.40567 413:173.18862 414:249.23452 415:272.88757 416:325.92854 417:295.95476 418:320.82428 419:280.12366 420:267.99592 421:321.14705 422:297.06945 423:333.18446 424:308.10136 425:310.75044 426:328.38706 427:146.45009 428:274.54916 429:336.301 430:271.45549 431:317.44479 432:262.69209 433:289.10146 434:324.81292 435:280.73796 436:296.94786 437:256.52009 438:325.69331 439:317.67728 440:304.30814 441:170.62677 442:263.30543 443:258.52702 444:299.50024 445:289.51672 446:258.11564 447:300.64097 448:245.18031 449:252.82167 450:300.19759 451:308.54263 452:322.81977 453:262.70874 454:230.38892 455:257.59635 456:288.77206 457:292.65439 458:345.77424 459:313.74696 460:286.64154 461:292.62278 462:266.50253 463:271.59743 464:321.57084 465:167.71816 466:322.87813 467:239.30241 468:305.82021 469:336.77965 470:334.85744 471:219.64343 472:311.95462 473:253.71904 474:287.41461 475:282.38173 476:318.88597 477:308.42795 478:278.29989 479:218.6461 480:229.71029 481:296.82591 482:265.48993 483:262.17177 484:288.25627 485:274.66138 486:310.24185 487:325.34733 488:310.34299 489:255.57509 490:312.38053 491:329.38236 492:308.11385 493:310.1201 494:272.98847 495:302.0104 496:331.0845 497:317.88265 498:354.75003 499:291.54186 500:319.41863 501:302.5129 502:294.1677 503:322.40991 504:316.36889 505:329.17905 506:329.05809 507:290.71398 508:298.93018 509:279.12219 510:326.42826 511:256.47046 512:247.87975 513:167.88432 514:304.5395 515:343.05751 516:344.43495 517:329.18752 518:297.49351 519:255.17126 520:283.20478 521:334.00109 522:320.46379 523:328.35926 524:289.90084 525:317.24271 526:260.99547 527:331.90612 528:311.11499 529:239.03877 530:279.06624 531:288.66284 532:309.23179 533:202.07531 534:248.60431 535:250.34227 536:305.57359 537:324.15489 538:315.03512 539:242.88083 540:298.77752 541:310.24594 542:284.42515 543:304.72342 544:292.98522 545:273.21304 546:307.28634 547:339.43089 548:280.98729 549:310.95795 550:331.87838 551:247.93184 552:306.21049 553:315.57227 554:295.14077 555:326.51906 556:216.22317 557:321.1589 558:278.88722 559:310.62127 560:309.03726 561:318.18647 562:328.97903 563:266.64067 564:311.04109 565:329.34778 566:314.04274 567:299.95746 568:266.31657 569:218.4237 570:279.60113 571:264.15886 572:268.09498 573:310.11111 574:295.46424 575:322.14441 576:297.72961 577:308.88776 578:317.64453 579:279.35926 580:316.52747 581:289.41901 582:321.71843 583:308.70867 584:180.82132 585:321.8988 586:290.28236 587:329.22435 588:323.57876 589:308.42355 590:294.52217 591:373.75483 592:350.42139 593:288.17588 594:278.88545 595:305.56217 596:347.94893 597:324.73111 598:262.66485 599:298.54537 600:311.66285 601:321.92081 602:329.85325 603:303.07728 604:241.78924 605:270.81849 606:305.65183 607:214.88329 608:251.71319 609:236.63661 610:323.65096 611:247.53362 612:328.22074 613:298.23892 614:250.14438 615:299.41635 616:262.17494 617:354.15359 618:309.80492 619:275.01196 620:311.54353 621:325.62509 622:309.25287 623:290.89651 624:304.02342 625:335.80583 626:295.99274 627:298.60917 628:219.9611 629:295.14377 630:313.70371 631:302.09613 632:278.41565 633:326.91774 634:291.20152 635:275.80991 636:325.75696 637:294.44963 638:314.36961 639:299.33651 640:315.66093 641:331.00128 642:315.74674 643:325.06514 644:256.11039 645:238.31964 646:275.99072 647:307.42541 648:331.73197 649:173.84184 650:329.03269 651:322.89063 652:304.12586 653:299.22199 654:256.54946 655:321.90174 656:309.7847 657:220.6274 658:319.04907 659:324.47501 660:260.73176 661:311.33759 662:338.27528 663:345.51297 664:331.86537 665:290.38709 666:330.38153 667:213.07801 668:275.94701 669:304.47196 670:312.04861 671:229.12741 672:346.19124 673:302.94134 674:305.43212 675:266.38177 676:174.45736 677:279.90314 678:277.52499 679:346.13597 680:328.36134 681:219.45859 682:247.64726 683:341.94752 684:333.81245 685:308.19187 686:307.04827 687:154.34293 688:285.59302 689:232.27453 690:238.85052 691:323.35013 692:317.3217 693:312.58717 694:344.23366 695:288.70885 696:311.82424 697:227.86413 698:274.94871 699:223.18731 700:276.1935 701:286.20166 702:67.789691 703:295.02329 704:324.65308 705:279.8242 706:308.97781 707:292.18968 708:279.52381 709:250.44856 710:357.94361 711:320.31537 712:317.15356 713:271.33088 714:292.32252 715:333.90287 716:271.41622 717:261.23468 718:319.41998 719:303.34239 720:297.73014 721:205.11162 722:342.03547 723:280.53125 724:309.48967 725:320.94894 726:308.54447 727:76.824941 728:333.83743 729:290.75588 730:246.88989 731:336.76675 732:103.17474 733:313.22212 734:251.93221 735:323.07861 736:333.73884 737:282.32507 738:274.27038 739:327.64889 740:289.7023 741:347.42306 742:241.81255 743:259.68875 744:328.81993 745:317.37163 746:327.38916 747:316.66827 748:254.48574 749:328.58762 750:224.54811 751:263.16281 752:293.3293 753:273.19258 754:317.73474 755:315.08636 
