<?xml version="1.0"?>
<opencv_storage>
<my_svm type_id="opencv-ml-svm">
  <svm_type>C_SVC</svm_type>
  <kernel><type>LINEAR</type></kernel>
  <C>5.0000000000000000e-001</C>
  <term_criteria><epsilon>9.9999999747524271e-007</epsilon>
    <iterations>1000</iterations></term_criteria>
  <var_all>756</var_all>
  <var_count>756</var_count>
  <class_count>7</class_count>
  <class_labels type_id="opencv-matrix">
    <rows>1</rows>
    <cols>7</cols>
    <dt>i</dt>
    <data>
      1 2 3 4 5 6 7</data></class_labels>
  <sv_total>21</sv_total>
  <support_vectors>
    <_>
      -2.68415153e-001 -1.80704683e-001 -6.05870783e-002
      -2.95587759e-002 2.80481228e-003 7.37231076e-002 -1.44057438e-001
      -1.13012850e-001 -3.44446780e-005 1.31280674e-002 1.74760118e-001
      1.25832602e-001 0. -3.77804245e-005 -7.58411246e-004
      1.23739690e-001 -1.77816674e-002 -2.30364408e-003 -1.24061131e-003
      2.36317352e-003 3.38622928e-003 1.65095419e-001 -9.32558477e-002
      2.18072720e-002 -2.66299298e-006 5.58733614e-003 1.59853473e-002
      -3.15688431e-001 0. -6.83780818e-005 -1.80140021e-003
      6.65325150e-002 5.41272766e-006 -1.80941981e-006 0. 0.
      2.83607244e-002 3.33156320e-004 -3.53813381e-003 -1.39506208e-003
      3.76157404e-004 1.87938679e-002 1.15880586e-001 -1.58454463e-001
      0. 0. 7.24145211e-004 -1.82076276e-003 0. 0. 0. 0. 3.67980227e-002
      3.78932394e-002 0. 0. 3.12500000e-002 4.23993580e-002
      -4.31213848e-004 -3.23974155e-003 0. 0. 6.13564514e-002
      2.29273632e-001 -3.06828886e-001 -2.13168070e-001 -5.36786914e-002
      -2.99540199e-002 -8.96065496e-003 7.24879727e-002 -1.99556664e-001
      -1.20514862e-001 -4.18243508e-005 1.04487212e-002 1.44186407e-001
      7.88068324e-002 0. -6.43451540e-006 1.07020605e-003
      5.50255515e-002 3.07743292e-004 -2.49024993e-003 -1.36652321e-003
      1.25826593e-003 3.47366137e-003 7.37268999e-002 -9.96854454e-002
      7.96306971e-003 3.88490953e-005 -1.00038508e-002 3.87622193e-002
      -2.78607935e-001 0. -2.21918544e-005 -1.69071846e-003
      1.32715687e-001 -1.66482147e-004 -3.61883963e-006 0. 0.
      2.87101790e-002 3.39585211e-004 1.36880961e-003 -6.38687110e-004
      4.88318503e-004 -2.40255613e-005 1.88327983e-001 -8.79335850e-002
      0. 0. -3.08850408e-003 8.17817748e-002 0. 0. 0. 0. 1.75925922e-002
      3.57664973e-002 0. 0. 5.69155104e-002 1.68326143e-002
      -3.98732610e-002 -1.32988403e-002 0. 0. 1.47494730e-002
      4.08458591e-001 -1.49559736e-001 -2.66182303e-001 -1.18788905e-001
      -1.96612775e-002 -3.85278807e-004 6.97996393e-002 -1.01850718e-001
      -9.30531919e-002 -3.70626966e-003 6.57732424e-004 1.90893471e-001
      2.63544112e-001 0. 0. -1.10480958e-003 1.97810993e-001
      3.10665779e-002 -3.52096022e-003 -2.98323081e-004 4.99493163e-003
      2.53807474e-002 1.53099811e-002 -1.09918512e-001 -1.77128408e-002
      0. 7.28661241e-003 7.32228979e-002 -9.33518484e-002 0.
      -4.50027665e-006 -2.94318399e-003 1.37916788e-001 3.03811656e-004
      0. 0. 0. 6.23900443e-002 -1.20776333e-003 -8.62093922e-003
      -1.97987538e-003 9.60481074e-003 3.26530188e-002 -5.91104031e-002
      -8.35103095e-002 0. 0. 1.76102843e-003 1.57442346e-001 0. 0. 0. 0.
      6.36574056e-004 -3.61883963e-006 0. 0. 4.25913982e-004
      1.90852559e-003 -2.56831292e-003 -8.68207589e-003 0. 0.
      -2.99619511e-002 -1.07322641e-001 -9.42119882e-002
      -1.94187418e-001 -1.20406836e-001 4.98446636e-003 -8.09866656e-003
      1.31231874e-001 -1.75642129e-002 -7.77191445e-002 -1.54523505e-003
      -1.92510691e-002 1.72787577e-001 2.93025196e-001 0.
      -1.35124821e-004 -2.63621681e-003 1.22555412e-001 1.74042955e-002
      2.03246740e-003 -8.96734244e-004 7.78084062e-003 2.51170844e-002
      6.89064562e-002 -9.27691013e-002 3.51948105e-003 2.40549824e-004
      7.30307365e-004 5.13872392e-002 -1.40397921e-001 0.
      -1.93035467e-005 -8.88343994e-003 1.59431249e-001 1.44675927e-004
      0. -7.80512164e-006 0. 4.72243577e-002 -1.22227129e-002
      -1.15041304e-002 -6.62114908e-005 1.04584284e-002 2.02171635e-002
      -1.17926277e-001 -1.49409056e-001 0. 0. 3.84295476e-003
      1.45090714e-001 0. 0. 0. 0. 2.83325114e-003 2.89351847e-005 0. 0.
      3.24074063e-003 3.94110894e-003 -8.96563847e-003 -1.48340883e-002
      0. 6.87285210e-005 3.14395898e-003 -2.07711235e-001
      1.78419352e-001 4.19045627e-001 2.99584679e-002 -1.98433369e-001
      -5.44522107e-002 9.54628959e-002 1.52925000e-001 1.30664259e-001
      -8.61160308e-002 1.11244313e-001 7.49726743e-002 5.14792688e-002
      -1.20889083e-001 -1.90333083e-001 1.45686090e-001 -2.03145772e-001
      4.05853763e-002 1.52259246e-001 -1.58507347e-001 1.86748341e-001
      5.46889193e-003 9.52510387e-002 -1.09194800e-001 4.31490391e-002
      -7.04815388e-002 8.83077607e-002 1.71330675e-001 4.70778793e-002
      1.77155659e-001 1.42402902e-001 -2.30229273e-001 1.54492557e-001
      5.78399636e-002 1.74511090e-001 7.78098777e-002 -1.20130606e-001
      -2.61646152e-001 1.46652028e-001 -5.73943496e-001 -9.04180110e-002
      1.49371698e-001 1.89793552e-003 1.59932196e-001 -9.99173820e-002
      -3.97665426e-002 -4.04473186e-001 -3.13844770e-001 2.60299504e-001
      -2.56875586e-002 3.24617811e-002 9.18507576e-002 4.84190971e-001
      9.67812762e-002 -9.78435203e-002 -8.18142295e-002 -2.13219807e-001
      -1.64382253e-002 2.33207732e-001 -1.54571339e-001 6.06459230e-002
      -9.63410363e-002 -3.31816599e-002 1.98079824e-001 8.99988040e-002
      -1.70099124e-001 2.81243050e-003 2.09861677e-002 -4.76241112e-002
      -3.17906767e-001 1.20994166e-001 1.12236999e-002 -1.75419167e-001
      -2.54092216e-001 -4.36737500e-002 -1.25643000e-001 1.81606069e-001
      -2.99550802e-001 -5.11268042e-002 -2.08395394e-003
      -2.37399172e-002 -3.86576280e-002 -1.47255257e-001
      -1.06004454e-001 9.58548561e-002 5.91581054e-002 -9.33251902e-002
      -1.59442738e-001 -8.47093537e-002 1.25074565e-001 7.34086260e-002
      2.15905886e-002 -2.61444181e-001 -3.09582986e-002 1.17761381e-002
      2.77917422e-002 1.77740335e-001 -1.40756667e-001 2.47655183e-001
      -7.85855297e-003 -1.41179547e-001 -1.07390836e-001 8.84243473e-002
      -4.07703966e-002 -1.99194014e-001 -8.95425230e-002 2.20037386e-001
      1.92796662e-001 3.13226581e-002 1.83361351e-001 1.33531719e-001
      1.23889655e-001 4.10334133e-002 5.29509597e-002 5.63044921e-002
      -1.09945334e-001 8.45999569e-002 5.17830513e-002 2.65292883e-001
      1.96565285e-001 9.06836092e-002 9.25993919e-002 -1.23843998e-002
      -1.08281439e-002 -1.65704653e-001 1.42519725e-002 -8.85464326e-002
      -5.44973696e-003 -2.72247314e-001 -1.42068669e-001 1.52450651e-001
      8.86511281e-002 3.48086357e-001 1.04338631e-001 -3.94712269e-001
      -1.92524433e-001 7.62912810e-001 6.48426190e-002 -1.98395044e-001
      1.86781183e-001 4.76024821e-002 7.93674588e-002 -3.41281444e-001
      -2.21073121e-001 -2.96875358e-001 -1.82854101e-001
      -2.71854907e-001 2.61671916e-002 -1.72640830e-001 2.59693265e-001
      -1.73005775e-001 -1.73531473e-001 -2.18765885e-001 9.74339806e-003
      2.33246505e-001 5.56015372e-002 4.49231803e-001 2.30228618e-001
      4.98897098e-002 2.47788755e-003 2.80318540e-002 9.36000198e-002
      -1.07147910e-001 -3.95412236e-001 -9.50914696e-002 1.13891698e-002
      -8.65141824e-002 -5.56565486e-002 -5.80506504e-001 1.88571475e-002
      -6.63757622e-002 -3.29697818e-001 -1.59395393e-002
      -5.48954180e-004 -8.83407146e-002 -1.51555225e-001
      -6.54851794e-002 -1.77539345e-002 5.24965003e-002 1.54315934e-001
      2.69706696e-001 -7.80384541e-002 2.32152864e-001 2.60133713e-001
      -4.47721854e-002 7.38359615e-002 -7.61589408e-003 -3.89380753e-002
      -1.24821723e-001 -3.91428977e-001 1.83734491e-001 2.12920249e-001
      -5.84269688e-002 2.91510284e-001 4.19146121e-001 -1.36396587e-001
      -4.77885120e-002 1.96342424e-001 7.77195320e-002 1.63451895e-001
      2.47190688e-002 2.36039639e-001 -8.84470716e-002 -2.58242726e-001
      1.47298723e-001 2.85107940e-001 -5.86224124e-002 -2.81006008e-001
      -4.81372811e-002 5.84673323e-002 -2.26170674e-001 -1.38484702e-001
      -8.41337964e-002 -2.15640426e-001 9.23268050e-002 -2.14017436e-001
      2.22439505e-002 -1.03652187e-001 1.29377767e-001 -1.40089924e-002
      5.52359521e-001 -8.09490830e-002 5.86651899e-002 -1.09939165e-001
      -3.06654871e-001 1.81382567e-001 1.75018519e-001 2.44200557e-001
      -2.11042404e-001 1.99429899e-001 3.01113218e-001 3.59218746e-001
      -8.83469954e-002 7.55917355e-002 -2.97128946e-001 -2.60470808e-001
      -2.47665346e-001 5.45036383e-002 -1.73627570e-001 -5.91578968e-002
      -6.56061247e-002 5.23726046e-001 6.41476437e-002 -3.55697095e-001
      -2.84351781e-002 5.65885454e-002 1.33128524e-001 6.44273162e-002
      -3.81484665e-002 -1.95695832e-001 -9.73519087e-002
      -1.63626969e-002 -1.79484755e-001 6.56467769e-003 -1.21574037e-001
      -5.28786741e-002 1.30977079e-001 -1.49892062e-001 -2.68122315e-001
      -3.86619389e-001 6.78200126e-002 -5.63279167e-002 -2.15535671e-001
      -2.36354843e-001 -1.15619823e-001 -5.01859672e-002 6.02023378e-002
      1.03307338e-002 -1.40217515e-002 1.49359033e-001 7.86397159e-002
      3.31131332e-002 -1.60990879e-001 2.36337721e-001 1.42149046e-001
      -1.74356759e-001 -2.16105595e-001 4.57176983e-001 -6.66848198e-002
      1.31263137e-001 -3.16627085e-001 1.51331544e-001 7.55889863e-002
      -1.70163482e-001 8.88551697e-002 1.62910260e-002 -4.17384118e-001
      -9.81042013e-002 -7.04112127e-002 -8.83539468e-002
      -4.61843461e-001 -5.78129232e-001 1.12882614e-001 7.08230615e-001
      2.74417430e-001 2.16749564e-001 3.21739525e-001 -1.84096083e-001
      3.29383880e-001 2.05838494e-003 4.06402558e-001 -8.50074291e-002
      -4.46054004e-002 6.72190338e-002 -5.19289039e-002 1.18448228e-001
      1.21551678e-001 -5.74698895e-002 -1.71880517e-002 9.52730477e-002
      -2.18031667e-002 3.10095819e-003 1.41451880e-001 9.57105607e-002
      2.19236508e-001 -6.01728167e-003 6.14205785e-002 -5.46941161e-003
      9.69440863e-002 1.37591541e-001 4.30792123e-001 1.33908778e-001
      -6.26635373e-001 6.40519112e-002 3.52974296e-001 1.76037714e-001
      -1.29056394e-001 -4.49258415e-003 1.09578148e-001 -1.18588351e-001
      4.21430916e-001 7.41245225e-003 1.40531585e-002 3.52916196e-002
      1.37584418e-001 4.56052311e-002 -2.25228861e-001 -6.00766242e-002
      -1.01109423e-001 -2.50664037e-002 3.94307971e-002 -7.02714026e-002
      1.32222310e-001 3.20009738e-001 2.01079413e-001 4.62072007e-002
      2.79086053e-001 -7.45047107e-002 1.23225106e-002 -4.20525484e-002
      -2.19290793e-001 1.15039675e-002 -2.20823549e-002 1.80526152e-001
      8.54425952e-002 -6.87439591e-002 -2.57324934e-001 3.35340828e-001
      -2.07483228e-002 3.16032648e-001 -2.32543439e-001 1.03407010e-001
      -5.71037382e-002 -1.34963751e-001 4.77835201e-002 3.11078966e-001
      2.66503900e-001 1.45032898e-001 6.85826316e-002 -6.49578944e-002
      -7.29872808e-002 -2.23502293e-002 2.06578791e-001 -2.52191991e-001
      -2.09084913e-001 2.76425332e-001 5.03498256e-001 1.94886252e-001
      2.32446387e-001 1.88302904e-001 -7.74961263e-002 6.19132370e-002
      1.75704524e-001 -9.77640897e-002 4.42833193e-002 4.28593904e-003
      -1.91321857e-002 -1.10610843e-001 1.50370866e-001 1.76147446e-001
      -9.51384082e-002 1.23353444e-001 -1.20740242e-001 -3.83895874e-001
      -5.05669340e-002 -2.28975683e-001 7.35384896e-002 -1.39888480e-001
      5.46651334e-002 3.68049145e-001 6.68522343e-002 2.14682788e-001
      -1.53641671e-001 1.07554391e-001 6.20919056e-002 -4.51270580e-001
      -1.29037693e-001 -4.33329716e-002 4.06389564e-001 -1.26656324e-001
      1.49627388e-001 -3.52425933e-001 1.34727702e-001 1.07224554e-001
      -4.42653568e-003 2.03435540e-001 7.33674318e-002 3.57163668e-001
      2.12449312e-001 -9.93497390e-003 8.60889107e-002 5.69410436e-003
      1.31622190e-002 -1.74075231e-001 -1.92415103e-001 -4.48009670e-002
      -2.48294711e-001 6.50821328e-002 -2.33185999e-002 1.38886750e-001
      -1.28585145e-001 5.39823025e-002 -2.79005915e-001 -3.10739279e-001
      -2.17914544e-002 -1.55981094e-001 2.22403765e-001 9.27317441e-002
      -2.51106381e-001 -1.56166136e-001 2.70713419e-002 -2.68855989e-001
      -3.67509909e-002 4.92626399e-001 -1.83499679e-001 9.79720205e-002
      3.31118442e-002 -4.01944928e-002 -6.69495463e-002 -2.59784818e-001
      9.25244540e-002 -1.28886551e-001 -9.15679708e-002 1.00183763e-001
      4.33792830e-001 1.60944656e-001 3.65602374e-002 -8.92889649e-002
      -2.40648434e-001 -1.98183641e-001 -9.28849429e-002 7.18191788e-002
      -2.59887725e-001 1.28641546e-001 -1.18460052e-001 6.45407364e-002
      3.48234355e-001 -1.33763790e-001 2.97024250e-001 -3.58281620e-002
      8.68237764e-002 -4.91320621e-003 -2.92386532e-001 -1.03670396e-001
      4.13966067e-002 -1.31531462e-001 -2.54654825e-001 7.69435838e-002
      -8.62875134e-002 1.16048567e-001 3.44620980e-002 2.30955914e-001
      1.05793655e-001 -1.92330945e-002 1.04651593e-001 1.02872610e-001
      6.35014623e-002 -9.36026126e-002 1.03002332e-001 -6.14598356e-002
      -1.37262747e-001 5.12894802e-002 -1.75911427e-001 9.95660350e-002
      -2.32208326e-001 -2.06175238e-001 1.21158004e-001 1.45194307e-001
      -1.41632542e-001 2.40544692e-001 1.43479735e-001</_>
    <_>
      6.56324401e-002 -1.36213496e-001 -1.24667622e-001 -1.14407055e-001
      2.69278605e-002 2.12331384e-001 -2.51596957e-001 -2.84734994e-001
      0. 8.75213072e-002 2.93608189e-001 -3.04945201e-001 0.
      2.22738036e-005 2.35309824e-002 2.25065917e-001 -3.34010832e-002
      1.75109846e-004 -1.29687076e-003 2.28243112e-003 -1.71246398e-002
      1.17075570e-001 -4.78836447e-002 5.80481067e-003 -5.27056909e-005
      1.76937245e-002 1.45217597e-001 -4.65849489e-001 0. 0.
      4.41122875e-002 -4.28401940e-002 -8.06566895e-005 -6.08843811e-006
      0. 0. 2.90472303e-002 1.86882433e-004 -5.50089695e-004
      -9.42345243e-004 -1.86746567e-003 1.91078745e-002 7.26132840e-002
      -1.10487662e-001 -3.29410568e-006 1.51849163e-004 1.76927540e-002
      3.65161337e-002 0. 0. 0. 0. 3.72082070e-002 2.03853436e-002 0. 0.
      3.06345280e-002 5.05149290e-002 3.81246321e-002 3.15539801e-004 0.
      3.23815970e-003 9.36332345e-003 3.06848943e-001 7.99676254e-002
      -1.76299199e-001 -1.41822085e-001 -9.73280892e-002 3.41148973e-002
      2.88357168e-001 -3.68899226e-001 -3.02078635e-001 0.
      5.76113425e-002 2.33451635e-001 -4.54853117e-001 0.
      2.19834092e-005 9.58285294e-003 1.20147057e-001 -3.58986296e-002
      -5.38678782e-004 -1.92427469e-004 2.23910110e-003 -5.30392630e-004
      1.10073850e-001 1.63921230e-002 7.08013133e-004 -1.19425807e-004
      1.97011661e-002 1.21618740e-001 -4.94044393e-001 0. 0.
      1.49803171e-002 -6.09526560e-002 -1.47629515e-004 -6.08843811e-006
      0. 0. 2.89753694e-002 1.80209242e-003 1.01659470e-003
      -2.94467583e-007 -8.67696304e-004 -2.26401351e-003 9.99827534e-002
      -3.52939144e-002 0. 6.60667138e-005 6.63716765e-003
      1.42427862e-001 0. 0. 0. 0. 1.77285932e-002 1.92161314e-002 0. 0.
      5.33499755e-002 2.05365922e-002 1.77319162e-002 2.24755425e-003 0.
      3.48804630e-002 5.01238275e-003 6.11557186e-001 1.01585880e-001
      -1.80500031e-001 -2.52545953e-001 -2.40814254e-001 6.33060411e-002
      3.81192207e-001 -3.51010382e-001 -3.25922579e-001 7.68027439e-006
      6.96522966e-002 2.94159383e-001 -1.04565673e-001 0.
      2.04176540e-005 7.37092504e-003 2.88604289e-001 1.69990901e-002
      7.53728382e-005 -6.00398693e-004 -6.40516009e-005 1.59311965e-002
      5.24507128e-002 -2.24477500e-002 -3.29209343e-002 1.91110594e-004
      1.36842309e-002 1.37353748e-001 -2.83783466e-001 0.
      1.85615033e-006 2.09239405e-002 1.01422846e-001 3.18287028e-004 0.
      0. 0. 6.32363856e-002 4.70907381e-003 -2.23094947e-003
      -1.10355858e-003 6.72921166e-003 3.00449412e-002 -5.58543801e-002
      -3.69878449e-002 0. 6.09846611e-005 1.00911800e-002
      2.48354509e-001 0. 0. 0. 0. -3.24246683e-003 1.82404576e-004 0. 0.
      -6.50150992e-004 2.89397733e-003 8.48447811e-003 -3.61537281e-003
      0. 2.27670022e-003 -2.89447829e-002 -1.45103922e-002
      5.76805361e-002 -2.65213877e-001 -3.55411291e-001 -1.79572776e-001
      6.41053915e-002 3.82996202e-001 -3.97316068e-001 -3.19341183e-001
      2.31700396e-005 5.72178960e-002 3.19911063e-001 -2.47271243e-003
      0. -6.71941052e-006 6.40799059e-003 3.06991339e-001
      3.39734514e-004 3.21075134e-003 -5.40538866e-004 7.39083439e-003
      1.32245691e-002 8.63632932e-002 -3.19300406e-002 -1.01742269e-002
      1.51963715e-004 1.56226847e-002 1.48508400e-001 -2.91371852e-001
      0. 0. 2.05481537e-002 2.04538763e-001 1.42137491e-004 0. 0. 0.
      4.27892357e-002 -4.06760909e-003 -1.82262762e-003 -4.65665013e-004
      4.45329212e-003 1.74990539e-002 -5.00160269e-002 -5.38853146e-002
      0. 3.04923306e-005 7.33219460e-003 2.89879233e-001 0. 0. 0. 0.
      2.95188511e-003 2.89351847e-005 0. 0. 3.18364287e-003
      1.19291693e-002 1.63937942e-003 -2.97590438e-003 0.
      1.53478829e-003 -1.45501299e-002 -9.74916294e-002 8.18311274e-002
      -1.02075741e-001 6.46989867e-002 5.71959279e-002 -2.37013251e-001
      -1.83218300e-001 1.92971528e-001 4.51278314e-002 -1.72497228e-001
      1.47693977e-002 -2.72658225e-002 -1.49003267e-001 -1.07783288e-001
      4.42958564e-001 -3.97275276e-002 -2.56527960e-001 7.76669756e-002
      -1.38722420e-001 -1.27735818e-002 9.68349129e-002 -3.83729301e-002
      1.44247627e-002 -2.38736972e-001 1.46392375e-001 -1.14317276e-001
      1.40650332e-001 -1.05601929e-001 1.72571406e-001 2.26958334e-001
      4.54055257e-002 1.03686698e-001 1.19674623e-001 5.05146086e-002
      -2.43434042e-001 -2.05143243e-002 9.64908954e-003 -3.68348897e-001
      1.35073904e-002 -1.10829011e-001 -2.36471707e-004 -1.72839344e-001
      -2.89777309e-001 -1.07142881e-001 -2.35517532e-001 3.78276184e-002
      -1.52548522e-001 8.77850205e-002 2.74913888e-002 1.03015170e-001
      -1.56556711e-001 -2.88679097e-002 -1.03652008e-001 1.45106375e-001
      -1.55263096e-001 -1.94575548e-001 4.62509459e-003 1.50574908e-001
      1.63401321e-001 -3.27646323e-002 4.89923172e-002 -1.97722286e-001
      1.67287126e-001 1.72768101e-001 6.07160702e-002 -1.15532622e-001
      -1.56694278e-002 -5.99131249e-002 -2.22992487e-002
      -9.75519698e-003 2.47421697e-001 -1.00253910e-001 -6.18329318e-003
      -1.92533895e-001 8.26015249e-002 3.70140374e-001 7.60661140e-002
      1.31659642e-001 3.83951873e-001 2.38807961e-001 -7.63602927e-002
      1.35517523e-001 1.22484239e-002 2.79498667e-001 3.30835283e-002
      8.00962970e-002 8.31486806e-002 -8.77119303e-002 -3.19869339e-001
      9.90017354e-002 -9.72988829e-002 1.75825227e-002 -2.40301684e-001
      -2.47098655e-001 2.49740556e-001 6.76350519e-002 8.79527777e-002
      2.53606886e-002 8.39235634e-002 3.82597446e-001 -2.25339159e-001
      1.44438893e-001 -8.84544626e-002 -1.56598359e-001 -2.08006784e-001
      2.19993107e-002 -1.82356328e-001 -2.57225722e-001 5.08226380e-002
      1.47636056e-001 8.24896321e-002 -1.06990337e-001 1.95067152e-001
      1.06716998e-001 1.18206449e-001 -2.49699220e-001 -1.97848052e-001
      -1.69743579e-002 3.74299169e-001 1.55751944e-001 5.56866266e-002
      -6.35684356e-002 -2.20000610e-001 -6.95219114e-002
      -8.46198760e-003 -1.29170313e-001 -5.20889871e-002 8.47905502e-002
      -1.26148224e-001 -8.65484122e-003 1.21874794e-001 2.26010829e-001
      1.23884574e-001 -2.13491783e-001 -1.93625972e-001 -8.56082290e-002
      1.19173061e-002 3.15367788e-001 4.25301492e-002 1.58327818e-001
      -1.02779716e-001 -3.46509069e-002 -1.43270105e-001
      -3.02462310e-001 1.79006401e-002 -7.23111490e-003 3.06731373e-001
      -1.28895506e-001 2.25608284e-003 1.54186025e-001 -2.06749052e-001
      -1.17089488e-001 6.95833266e-002 -1.05623230e-001 1.29735753e-001
      2.47254018e-002 7.65604302e-002 3.25581491e-001 1.78357586e-001
      -8.46392512e-002 -5.10056578e-002 1.03431813e-001 -1.12403907e-001
      -2.59692132e-001 2.73261312e-002 1.10541597e-001 -1.66871771e-001
      1.61636040e-001 4.50058579e-001 7.71767423e-002 -2.12111529e-002
      -2.63336062e-001 9.94598269e-002 1.54019654e-001 -1.77214846e-001
      -9.06518623e-002 -6.48521855e-002 -5.35667725e-002 6.01305813e-002
      -1.80357452e-002 4.29518133e-001 -7.73559064e-002 4.98292223e-002
      3.26132089e-001 -1.08999401e-001 3.21598709e-001 6.85940590e-003
      2.08067760e-001 -3.46660204e-002 -9.80117992e-002 1.57270551e-001
      2.25284189e-001 -1.03779107e-001 1.47673100e-001 3.49115282e-001
      -2.34313861e-001 1.09861746e-001 2.06070974e-001 -1.07946666e-002
      3.49673405e-002 -4.41530049e-001 9.64649618e-002 -2.70364322e-002
      2.66203992e-002 1.51056722e-001 2.97048122e-001 -3.52958143e-002
      -2.81168729e-001 -3.81187171e-001 -3.83813083e-002 1.39684811e-001
      -3.12109068e-002 -1.12471387e-001 6.34816289e-002 -1.11787766e-001
      3.76222841e-002 -1.99913532e-001 1.01870275e-003 -2.86753904e-002
      -1.03016227e-001 3.48493397e-001 -2.34110087e-001 -1.46640524e-001
      2.51391646e-003 -7.04842508e-002 8.03790689e-002 1.04731888e-001
      -8.92114490e-002 -9.11074951e-002 -3.14137600e-002
      -2.07415950e-002 3.25760543e-001 -5.12486026e-002 9.70370844e-002
      -3.82014960e-002 -5.69695942e-002 -3.03238988e-001 1.18516080e-001
      7.89983943e-002 3.90477814e-002 -2.45767459e-001 8.37843418e-002
      -6.86126649e-002 -4.03946638e-002 2.57600844e-001 2.07183331e-001
      7.18881339e-002 4.69775237e-002 -1.79157540e-001 2.49652162e-001
      2.76893247e-002 -4.31189835e-002 -2.57715166e-001 -5.67336492e-002
      -3.58206809e-001 -3.88361141e-002 -2.51231827e-002
      -2.53927171e-001 -3.80204082e-001 -1.17955014e-001
      -3.08566261e-003 6.59948960e-002 1.18687898e-001 -1.68240946e-002
      2.73682773e-001 -2.19083726e-002 -2.14234386e-002 3.42376158e-002
      1.22129016e-001 4.55793589e-002 9.48028117e-002 -4.96723838e-002
      -5.03872186e-002 1.74656987e-001 1.11516543e-001 -6.61612451e-002
      -5.09226143e-001 3.42427045e-001 5.56661598e-002 7.00143129e-002
      -2.15919331e-001 2.74166137e-001 2.29982406e-001 1.19711487e-002
      -2.81270146e-002 -2.66870409e-002 -7.45075196e-002 3.57730389e-001
      2.30409950e-001 -2.50317603e-001 1.26065969e-001 -1.43984631e-001
      -7.25974236e-003 3.66466418e-002 -7.91031774e-003 -1.08869448e-001
      2.06239335e-003 -2.14283377e-001 2.47073799e-001 3.55543792e-002
      -1.71005428e-001 1.73089698e-001 -1.07102627e-002 2.38249466e-001
      2.59008668e-002 -3.12454607e-002 -2.91206181e-001 -4.72152889e-001
      1.15355663e-001 -1.40881717e-001 -3.08337539e-001 -6.40098676e-002
      -7.97126144e-002 8.54672566e-002 -3.51137877e-001 2.02216953e-002
      -5.94812967e-002 -2.76626945e-001 9.95915383e-002 -6.65670931e-002
      3.02622337e-002 -3.16743821e-001 -2.99589336e-001 8.12705904e-002
      2.09489688e-001 1.48600623e-001 4.68285382e-003 -1.33129850e-001
      1.45289004e-001 6.93287030e-002 2.35640392e-001 -1.82506189e-001
      -5.54927401e-002 -1.16259009e-001 3.14170897e-001 -8.58557001e-002
      2.72601843e-001 4.84023653e-002 -8.62497315e-002 -1.23115852e-001
      1.52212217e-001 -9.55567285e-002 -2.21157782e-002 -1.04230195e-001
      -8.03716257e-002 1.77158397e-002 2.36266434e-001 1.89738011e-003
      -7.92422220e-002 2.62869764e-002 -9.64717343e-002 1.40649248e-002
      1.62215471e-001 7.08482340e-002 1.16117939e-001 -2.34230772e-001
      3.27811018e-002 7.06871375e-002 1.49274662e-001 -9.33171064e-003
      -2.04466015e-001 -1.31413236e-001 4.06802297e-002 -3.20369899e-002
      1.35298863e-001 2.79360682e-001 1.88859254e-001 7.31260329e-002
      -7.45187402e-002 4.65505663e-003 6.95207939e-002 1.50675196e-002
      -4.38798517e-002 -4.78420928e-002 -3.97268273e-002 3.41457337e-001
      1.31269068e-001 4.40884419e-002 -2.56221704e-002 -7.10671321e-002
      6.18888848e-002 -3.64725679e-001 1.45530164e-001 -4.12416384e-002
      -5.98996170e-002 2.73208886e-001 4.33198065e-002 2.74751559e-002
      2.42656711e-002 1.59596995e-001 -1.47520781e-001 -4.94564399e-002
      -2.79108472e-002 -1.50094524e-001 1.28028348e-001 -2.32489675e-001
      3.59030545e-001 -2.71196425e-001 -6.16827384e-002 1.74751416e-001
      1.43362537e-001 3.40950191e-001 -1.59142017e-001 2.24853680e-001
      2.11490050e-001 -2.28189170e-001 -1.64051056e-001 -2.65763551e-001
      3.99542660e-001 -1.28896967e-001 -2.57643778e-002 -2.05677643e-001
      -4.23107207e-001 5.55575751e-002 1.35514364e-001 4.85881642e-002
      -4.60880548e-002 -1.68547899e-001 1.28306568e-001 6.05590343e-002
      -7.19710812e-002 1.25002218e-002 1.01518026e-002 4.92838845e-002
      -1.75535724e-001 1.65258557e-001 3.45670521e-001 2.25368559e-001
      -8.93126503e-002 2.19286278e-001 2.60954410e-001 1.56268582e-001
      -2.54398435e-001 -1.13528818e-001 2.66604461e-002 -2.11455137e-001
      7.01088533e-002 2.07277864e-001 2.65191823e-001 2.09086086e-003
      -7.60424584e-002 5.38932756e-002 -1.10927857e-001 6.22786321e-002
      8.76907185e-002 -6.55441880e-002 -1.97816685e-001 -6.10203333e-002
      -5.32109886e-002 -1.99848250e-001 -5.52178562e-001
      -1.72311559e-001 4.39110026e-003 -9.83001217e-002 9.34781805e-002
      -2.78119408e-002 2.75975582e-003 -5.94972856e-002 -2.99788207e-001
      -6.07710369e-002 6.53757453e-002 6.67927414e-002 -3.14044744e-001
      2.70323545e-001 -1.94991991e-001 -3.62173557e-001 1.05538823e-001
      -2.40774959e-001 5.57794236e-002 -2.51167923e-001 1.90873653e-001
      -2.11627007e-001 -1.13901105e-002 -6.63434789e-002 1.42173722e-001
      -6.29017502e-002 -6.05441295e-002 3.86439152e-002 1.00808010e-001
      1.07697606e-001 -4.23768386e-002 1.44065827e-001 2.93908659e-002
      -7.29134083e-002 8.98229927e-002 -1.84448153e-001 1.92294698e-002
      -1.39529303e-001 -4.60294187e-002 -8.49348158e-002 7.94970021e-002
      -3.18226367e-002 1.15122600e-002 -1.00965478e-001 3.57111484e-001
      -6.30369633e-002 6.14089370e-002 7.05636367e-002 -4.35429215e-002
      1.94546625e-001 1.37873456e-001</_>
    <_>
      1.21388324e-001 -8.63997862e-002 -3.82293463e-002 -9.36749298e-003
      1.27569297e-002 1.31959334e-001 -1.90904111e-001 -5.97826988e-002
      -5.14009571e-006 5.59174530e-002 1.22958891e-001 -5.52245043e-002
      0. 0. 1.18952049e-002 1.57056883e-001 1.02391024e-003
      8.55158665e-004 -1.33278023e-003 -9.61484679e-004 1.29747554e-003
      2.04217434e-001 1.73142403e-002 2.24699769e-002 0. 1.12801651e-002
      3.00880838e-002 -2.37636656e-001 0. 0. 2.81908046e-002
      -5.53886592e-003 1.65420795e-006 0. 0. 0. 2.71579605e-002
      4.75724693e-003 2.99855531e-003 -1.61605116e-004 -2.85367714e-003
      1.12805767e-002 1.09124362e-001 -5.61119355e-002 0.
      -1.46418941e-004 1.09608732e-002 -1.41012222e-001 0. 0. 0. 0.
      3.65515500e-002 2.01697703e-002 0. 0. 2.28941739e-002
      2.15199031e-002 2.39047427e-002 2.15408596e-004 0.
      -1.72434869e-004 -9.98515170e-003 -3.26380759e-001 9.82910544e-002
      -3.11030019e-002 -4.95135225e-002 -1.12138717e-002 1.70586761e-002
      1.76808938e-001 -1.93203911e-001 -1.13295913e-001 -1.05474365e-003
      4.38164547e-002 7.79528394e-002 -1.69592336e-001 0.
      -3.75051022e-005 2.96156202e-003 8.97835642e-002 9.45198815e-004
      -6.89784484e-003 -6.77370466e-004 -1.53533425e-002 3.02310125e-003
      1.68681130e-001 2.68316735e-002 1.10791186e-002 2.14501651e-005
      1.14545943e-002 8.35868940e-002 -2.55197763e-001 0.
      -1.80010084e-005 5.70167881e-003 -3.77732962e-002 2.89351847e-005
      0. 0. 0. 2.73785368e-002 3.50572541e-003 1.06096535e-003
      -1.31915367e-005 -1.82661484e-003 1.45969831e-003 4.35291231e-002
      -1.51783396e-002 0. 0. -2.87181488e-003 1.10292435e-002 0. 0. 0.
      0. 1.75422486e-002 1.89913958e-002 0. 0. 5.52949347e-002
      1.37716038e-002 -1.54274544e-002 -1.50815200e-003 0.
      -4.75390116e-005 -8.52600113e-003 -8.12588260e-002 1.96191847e-001
      2.98135895e-002 -8.05184916e-002 5.90300281e-003 4.83746082e-002
      2.53154784e-001 -3.65145266e-001 -9.85137075e-002 -2.43953182e-005
      5.27428687e-002 1.29089639e-001 -1.52945817e-001 0. 0.
      2.87828245e-003 1.60425559e-001 3.09015699e-002 -7.14006950e-004
      1.79474952e-003 -6.87930826e-003 1.94321536e-002 9.14920196e-002
      3.70654501e-002 9.23044328e-003 -9.54251009e-005 1.16915964e-002
      1.39722988e-001 -3.07433218e-001 0. -8.06451644e-005
      1.07110403e-002 -4.45317477e-002 3.18287028e-004 0. 0. 0.
      6.17591478e-002 4.13188059e-003 -3.94377531e-003 -2.70353688e-004
      4.80788155e-003 1.03602614e-002 -1.91056225e-002 2.11954452e-002
      0. -4.25075414e-004 -3.49679700e-004 9.24987793e-002 0. 0. 0. 0.
      6.36574056e-004 0. 0. 0. 2.01878975e-005 6.51795708e-004
      -4.12538787e-003 -1.59885536e-003 0. -3.59559854e-005
      -2.03440078e-002 -3.19915682e-001 2.12534055e-001 4.41075908e-003
      -9.23712701e-002 8.32272042e-003 5.09019643e-002 2.91951984e-001
      -2.20940411e-001 -1.37928888e-001 -6.02838874e-004 3.48702408e-002
      1.12206049e-001 -1.37192179e-002 0. -1.00024306e-004
      3.39746504e-004 1.36186972e-001 1.62095372e-002 1.36471610e-003
      -9.78774158e-004 5.23836119e-003 2.03391351e-002 1.27001569e-001
      3.88288312e-002 2.36951504e-002 1.11151436e-004 1.18302600e-002
      9.36537907e-002 -3.41914624e-001 0. -1.62306369e-005
      9.21518449e-003 -3.88806127e-002 1.44675927e-004 -1.30366301e-004
      -1.50610103e-005 -7.53050517e-006 4.37358879e-002 -3.96095170e-003
      -6.07781531e-003 -1.05912413e-003 5.34760300e-003 5.67539502e-003
      -9.33827832e-002 3.07303690e-003 0. 0. -3.60618089e-003
      4.94930483e-002 0. 0. 0. 0. 2.83325114e-003 9.90130502e-006 0. 0.
      3.21641844e-003 2.31780950e-003 -1.13440836e-002 -2.21704366e-003
      0. 3.65426567e-005 -2.88934875e-002 -3.16948473e-001
      3.49539280e-001 2.39168286e-001 3.51372153e-001 -1.34091020e-001
      1.76397748e-002 2.53123432e-001 3.22426087e-003 2.36803517e-001
      -1.83319137e-001 1.92365780e-001 4.58128527e-002 1.85457170e-001
      -1.98718607e-002 4.55767751e-001 -1.05336726e-001 -1.24824911e-001
      1.87706165e-002 -8.87805820e-002 -7.03442395e-002 5.29343151e-002
      -9.89767537e-002 -1.58052951e-001 -1.79401249e-001 4.63533662e-002
      -5.93337193e-002 -1.92126408e-002 3.56288143e-002 -1.43083995e-002
      1.24947719e-001 -8.60061273e-002 -4.34492439e-001 2.00631514e-001
      1.38747454e-001 6.22349493e-002 -7.14877024e-002 2.17739478e-001
      -1.28239483e-001 -1.51719302e-002 8.64627361e-002 -1.93245456e-001
      4.47806232e-002 -5.62083185e-001 2.05401748e-001 -1.80505559e-001
      -1.73756480e-001 -2.01237440e-001 -1.83704093e-001
      -2.37079039e-002 -2.80534059e-001 -1.70895025e-001 1.43671185e-001
      -3.25842984e-002 -8.23564455e-002 -1.81177661e-001
      -4.83161181e-001 4.46896665e-002 4.86659795e-001 2.71565527e-001
      -1.48459822e-001 1.50686517e-001 1.81412086e-001 2.26481110e-001
      -4.55783755e-002 -1.39120426e-002 -2.49497741e-001 8.71709958e-002
      -2.86055245e-002 2.75836885e-001 1.76760480e-001 5.09029567e-001
      -9.13599283e-002 -1.41199017e-002 -1.43847749e-001 7.28513375e-002
      -1.70875803e-001 -1.70396730e-001 -4.76430088e-001 1.20453045e-001
      -7.47142211e-002 3.09324767e-002 1.03498951e-001 -2.52412334e-002
      2.90349960e-001 7.07073286e-002 -1.61902130e-001 2.16602758e-002
      -6.44925013e-002 5.23846336e-002 5.22027373e-001 -1.07481577e-001
      -5.11010401e-002 -2.09564865e-001 6.33655638e-002 3.09162289e-001
      1.43171534e-001 -5.75423613e-002 2.28692338e-001 3.31170142e-001
      6.27797097e-002 -7.22963959e-002 -1.66267529e-002 9.63270850e-003
      1.79586168e-002 -2.52717733e-001 -9.80978180e-003 7.43600279e-002
      -1.66023910e-001 -1.25084911e-002 3.25007290e-001 1.25333413e-001
      2.66492695e-001 7.88587928e-002 4.11377288e-002 6.45533949e-002
      -7.68716335e-002 -6.67172968e-002 1.43252626e-001 3.89051586e-001
      3.28125656e-001 -1.27261400e-001 3.05316508e-001 -2.36950353e-001
      -2.94910278e-002 1.29498452e-001 -1.45814076e-001 6.54293001e-002
      1.86325252e-001 5.72189428e-002 -1.22878309e-002 2.65319377e-001
      2.79107958e-001 5.46586849e-002 -4.44860160e-001 -6.43511713e-002
      -1.30380653e-002 2.27987915e-002 1.29218578e-001 1.66872770e-001
      2.31957182e-001 -2.54404306e-001 6.59448132e-002 1.41960368e-001
      -4.49633390e-001 -1.49575531e-001 -6.96503883e-003
      -2.07264692e-001 -1.98967159e-001 9.05334279e-002 3.81822884e-002
      2.78862327e-001 -5.96869513e-002 -2.52606660e-001 2.42877856e-001
      2.01534018e-001 -1.46529585e-001 4.32154864e-001 -1.22442478e-002
      1.24559157e-001 -3.71486694e-002 -1.51441976e-001 1.55809879e-001
      -2.54525319e-002 -3.67953479e-001 2.36474536e-002 -7.75732324e-002
      -8.80949348e-002 1.05825409e-001 -1.11427076e-001 2.00370774e-001
      1.61138877e-001 -9.77530628e-002 -1.17927499e-001 -1.70971856e-001
      -2.75544435e-001 -4.52933401e-001 -4.67650406e-002 2.19142914e-001
      -7.38243237e-002 -1.08420879e-001 4.64069963e-001 9.60512236e-002
      4.83017713e-001 2.16989651e-001 -8.82590786e-002 -1.85187198e-002
      7.41914660e-002 5.22357225e-002 -2.31689692e-001 -3.62634271e-001
      2.27592051e-001 3.45189646e-002 -4.34293151e-002 1.83502305e-002
      2.99400598e-001 -5.67525104e-002 1.01870019e-002 1.29509419e-001
      -4.82914038e-002 1.44174337e-001 -6.67998567e-002 3.61889422e-001
      -1.64239146e-002 4.46019210e-002 9.80616361e-002 1.28535777e-002
      1.77341968e-001 -2.37492174e-002 -8.44583511e-002 -6.06858246e-002
      -1.08030923e-001 -1.45952433e-001 -2.60911952e-003
      -3.21052819e-001 -6.65820092e-002 -8.21526349e-002 2.44829863e-001
      2.36591831e-001 -1.33702502e-001 -4.63125259e-002 3.22429866e-001
      -6.99393600e-002 -9.52194035e-002 -8.46835151e-002
      -3.87484729e-001 9.81903449e-002 1.73957199e-001 6.99301213e-002
      -8.11354816e-002 -2.96972305e-001 1.02950200e-001 1.79325774e-001
      -1.09660693e-001 1.13277182e-001 -1.77623913e-001 -1.46540418e-001
      -8.61834288e-002 3.20200250e-002 2.64967941e-002 -1.53557152e-001
      1.65082395e-001 2.14677915e-001 1.20654792e-001 2.13615149e-001
      -1.74394667e-001 1.20594077e-001 -9.80963260e-002 3.21709104e-002
      -2.25568727e-001 1.77217409e-001 -5.56819476e-002 -1.13404877e-001
      -2.72985607e-001 -9.53148976e-002 4.41141158e-001 -7.01777861e-002
      3.95583063e-001 -3.02461386e-001 -1.74427494e-001 -1.23904094e-001
      1.61766142e-001 3.82180989e-001 1.18110254e-001 1.04597777e-001
      2.46537462e-001 -1.56540200e-001 -9.59005877e-002 -2.83992141e-001
      5.56165017e-002 9.77542847e-002 3.83977860e-001 -1.91099614e-001
      -5.65473996e-002 -5.03794439e-002 3.60667631e-002 -6.11400977e-002
      -4.20510948e-001 5.64728618e-001 1.36418432e-001 -1.62873194e-001
      -1.21726900e-001 1.88993365e-001 3.69184822e-001 -3.65515620e-001
      -1.29767209e-001 -3.82296667e-002 -3.19983989e-001 2.44773664e-002
      2.73547202e-001 9.19748768e-002 -1.22692905e-001 -3.71202081e-001
      -1.50839046e-001 1.22166276e-001 8.11053589e-002 -1.09782681e-001
      2.43862599e-001 -2.22259909e-001 1.81689009e-001 -2.86684752e-001
      -2.34117545e-002 -3.18056792e-001 -2.12357894e-001 9.66084283e-003
      -1.53057426e-001 7.96082616e-002 -1.84776977e-001 -5.59032023e-001
      -1.46598831e-001 -9.20325443e-002 -3.09190601e-002 3.35748821e-001
      -4.97061461e-002 3.78777951e-001 -3.71528238e-001 -5.04328161e-002
      -9.75667778e-003 -2.35316053e-001 1.38430707e-002 2.73376882e-001
      5.80460548e-001 -2.56201148e-001 -3.46637785e-001 1.63993880e-001
      1.55485794e-001 -3.50087136e-002 -1.42745718e-001 -8.06078985e-002
      4.64165300e-001 3.02104473e-001 1.06671050e-001 -1.95484430e-001
      7.24596307e-002 -2.37952068e-001 8.24123770e-002 1.43831983e-001
      3.15636188e-001 3.47896397e-001 -1.76861495e-001 -7.58711295e-003
      -2.98784184e-003 -1.76588133e-001 2.53037721e-001 7.81415999e-002
      -8.78306478e-002 1.63663477e-002 1.27738521e-001 -7.57692242e-003
      -1.59625471e-001 1.94092453e-001 -1.34680614e-001 -5.85296825e-002
      4.78386134e-002 7.27793723e-002 1.00466050e-001 -2.72140533e-001
      -1.12362757e-001 1.44419938e-001 -1.53884187e-001 4.38286424e-001
      -3.56564313e-001 1.67033598e-001 3.71250249e-002 -4.18705381e-002
      1.21718571e-001 6.82178974e-001 -6.33898005e-002 2.02539071e-001
      -2.52037585e-001 -1.61332518e-001 6.07022569e-002 7.79509917e-002
      -1.50200769e-001 -1.91057518e-001 -2.56399274e-001 2.34582499e-001
      2.82268077e-001 1.10183232e-001 -7.81185031e-002 6.11678660e-002
      2.49195576e-001 -2.66231090e-001 3.78955156e-001 -2.24904001e-001
      4.67842408e-002 6.01299182e-002 1.68391749e-001 1.94539651e-002
      4.92534004e-002 4.88405228e-001 -4.63454187e-001 -3.38464350e-001
      -2.87777096e-001 -2.01712221e-001 -1.49369910e-001 8.95668119e-002
      1.50199652e-001 -5.49207255e-002 -1.87333882e-001 2.47830734e-001
      -7.44460663e-003 1.19957700e-001 1.29670694e-001 3.98212373e-002
      -1.17889673e-001 -1.99234098e-001 -1.10353148e-002
      -1.85892671e-001 5.72395384e-001 1.03996769e-001 3.36555056e-002
      -4.28353101e-001 -2.19800696e-001 -2.11677309e-002 1.77196592e-001
      1.74419463e-001 -1.93802696e-002 1.46491066e-001 1.33472443e-001
      4.83582616e-001 -2.10802391e-001 -1.11101024e-001 -3.11631024e-001
      2.34029219e-001 -3.82613949e-002 -1.52353734e-001 -1.44814357e-001
      1.03465334e-001 5.47433756e-002 1.61861852e-001 4.88888919e-001
      2.42965892e-001 -2.01920867e-001 -1.60572067e-001 -4.42605838e-002
      -2.13928670e-001 3.28312188e-001 1.26341566e-001 -3.21297079e-001
      -1.77117735e-001 -8.16897675e-002 -7.34485164e-002
      -7.93919992e-003 -7.34957680e-002 -2.81742066e-002 1.73817366e-001
      -1.68551151e-002 5.99485077e-002 1.28045991e-001 -3.98651510e-001
      -3.67345989e-001 -3.27618629e-001 1.45103678e-001 1.59642026e-001
      3.28148574e-001 7.17054727e-003 -1.43770874e-001 5.27042076e-002
      -4.51170325e-001 2.57926226e-001 -6.78600818e-002 -3.02076280e-001
      -9.49165374e-002 -1.43724792e-002 3.75473052e-002 -3.32896560e-001
      2.87178993e-001 -2.91262120e-001 1.30160853e-001 1.27380863e-001
      1.38511181e-001 -2.37240300e-001 9.78421643e-002 7.59818628e-002
      -1.27035692e-001 -3.82795557e-002 -3.16311598e-001 6.63214503e-003
      -5.07842638e-002 1.43987849e-001 4.68446426e-002 1.72998920e-001
      3.71756554e-001 -1.31805435e-001 -3.83147714e-003 -1.88075826e-001
      1.60247788e-001 1.38396323e-001 4.76150364e-002 3.92392687e-002
      -1.37174800e-001 -4.85583134e-002 -5.19275777e-002
      -2.20917225e-001 4.83103096e-002 2.85816431e-001 2.79311359e-001
      9.06830356e-002 -7.46182427e-002 4.13137883e-001 1.04208767e-001</_>
    <_>
      -1.26842543e-001 -9.02754720e-003 -1.46941356e-002
      -1.47490995e-004 -9.01589915e-003 6.82602674e-002 1.46548435e-001
      1.42379953e-002 -1.76016311e-003 -2.85181473e-003 1.35969713e-001
      1.03122793e-001 0. -2.13486623e-004 -7.97897053e-004
      1.06820270e-001 -1.30139198e-002 2.28962075e-004 -1.70337262e-005
      5.05721073e-006 -4.95401351e-003 5.01045324e-002 -2.86443457e-002
      -9.91862966e-004 -8.21923546e-004 -9.73656774e-004 6.55215383e-002
      4.48697619e-002 0. -1.08878175e-003 1.76646300e-002
      1.14757523e-001 0. 0. 0. 0. -1.06404605e-003 1.54888828e-003
      1.03684259e-003 6.55241456e-005 -4.48654406e-003 1.17587587e-002
      -1.46457225e-001 -1.03917375e-001 -8.64620844e-004
      -5.94950281e-004 5.15061850e-003 -3.48597988e-002 0. 0. 0. 0. 0.
      0. 0. 0. -4.64269752e-003 -7.81463692e-004 -1.09178517e-002
      2.14319350e-003 -1.45170907e-003 -2.28430703e-003 -2.77800504e-002
      -3.33856136e-001 -1.95748076e-001 5.58023751e-002 -2.96529122e-002
      -7.40973162e-004 -1.20111508e-002 1.57958388e-001 1.38598740e-001
      -1.77059062e-002 -1.36011501e-003 -2.30062064e-002 1.12881996e-001
      5.08429334e-002 0. 0. -3.61865177e-003 5.49084730e-002
      -2.46841274e-003 -4.74641623e-004 -1.65553865e-004
      -2.00850758e-004 -1.30588340e-003 -2.64592059e-002
      -1.14743803e-002 -2.56068353e-003 -4.43437530e-005 3.54244164e-003
      4.47986610e-002 1.35489590e-002 0. 0. 1.91988176e-004
      1.18148617e-001 -8.72191958e-006 0. 0. 0. -7.89837353e-003
      -9.30154603e-003 4.11841698e-004 -2.62631820e-005 0.
      -8.88142176e-003 -5.60127720e-002 -8.65317956e-002 0.
      -3.20229956e-005 -1.00694494e-002 2.19058413e-002 0. 0. 0. 0.
      -1.65716468e-004 -3.60560440e-003 0. 0. 0. -4.40669293e-003
      -1.42054688e-002 2.04279763e-003 0. 0. -2.18647439e-002
      -2.23575503e-001 -1.83068901e-001 8.09914321e-002 -2.21821181e-002
      -2.29442995e-002 1.87062693e-003 1.65176436e-001 1.63942054e-001
      -7.27471057e-003 0. -2.56234594e-002 1.67962596e-001
      1.46996677e-001 0. -3.09555617e-004 6.43300475e-004
      1.19572558e-001 1.63829409e-005 -6.50750240e-004 2.46413308e-003
      -8.35720799e-004 3.68526904e-003 -3.69333923e-002 -9.35898162e-003
      -8.15750565e-004 0. -1.64119166e-003 -1.24390032e-002
      7.45599717e-002 0. -2.13486637e-005 -3.64946754e-004
      1.40021935e-001 -1.48272637e-004 0. 0. 0. 2.79821426e-004
      -1.23080751e-002 -1.36341073e-003 -3.74487718e-004 0.
      -1.88059942e-003 -3.92136693e-001 -7.11781681e-002 0. 0.
      -4.10336535e-004 2.67676804e-002 0. 0. 0. 0. 0. -3.50621180e-003
      0. 0. 0. -3.26503464e-003 -2.56392080e-002 -1.25987804e-003 0. 0.
      -1.37891350e-002 -2.43227214e-001 -3.79199833e-002 1.08800277e-001
      -4.29779664e-002 -2.67497413e-002 1.33111132e-002 1.85557604e-001
      2.30340496e-001 -1.04350522e-002 -3.09214593e-005 -3.26731391e-002
      1.52610362e-001 1.97706208e-001 0. 0. -9.89979249e-004
      9.81384963e-002 4.45611600e-004 7.14257476e-005 1.10702554e-003
      -6.43365085e-004 3.96230957e-003 -3.73789556e-002 -4.12070192e-003
      -9.38398414e-004 0. 4.85708378e-003 8.95376038e-003
      5.96682020e-002 0. 0. -5.58665721e-003 1.56479448e-001 0.
      -1.99999995e-004 0. 0. 1.99704152e-003 -3.47731006e-003
      -9.25338594e-004 -8.69673295e-006 0. -5.35974326e-003
      -4.30335134e-001 -9.10020620e-002 0. 0. -6.75625959e-003
      -2.44921166e-002 0. 0. 0. 0. 5.54733742e-005 0. 0. 0. 0.
      -3.53646348e-004 -2.74598151e-002 -1.44989789e-003 0. 0.
      -2.17294060e-002 -4.10067648e-001 3.33413184e-001 2.03523859e-001
      3.86316404e-002 -8.86473358e-002 9.38688405e-003 1.22906752e-001
      1.69896912e-002 1.23756558e-001 6.38430286e-003 1.14126787e-001
      -1.84457861e-002 -3.64899226e-002 -9.41042975e-002
      -2.78183520e-001 2.47760177e-001 -8.75505134e-002 1.98309779e-001
      -2.80744713e-002 8.54691938e-002 -1.96076259e-001 6.49431488e-004
      -3.76503058e-002 -3.71474437e-002 3.11931539e-002 -6.13959953e-002
      7.82842711e-002 2.82740127e-002 1.51953772e-001 2.47046009e-001
      3.88916023e-002 -1.77092299e-001 -1.08255163e-001 1.76848173e-001
      1.21880420e-001 7.24591911e-002 1.60199776e-002 -9.40256789e-002
      2.32900202e-001 -6.46914989e-002 -1.92401230e-001 9.83619839e-002
      -4.75603603e-002 1.51953697e-001 9.78128612e-002 -1.01985812e-001
      -9.32588577e-002 -3.40881854e-001 4.89318311e-001 2.25509005e-003
      -9.15788338e-002 1.41880929e-001 -1.26984060e-001 -1.29779309e-001
      -4.62958068e-002 -2.53520727e-001 1.37121871e-001 3.41423824e-002
      -1.07312895e-001 -2.91430708e-002 6.88643605e-002 -4.54236150e-001
      3.14891875e-001 -9.59164202e-002 5.27940430e-002 -5.00109196e-001
      -1.35589093e-001 9.08112153e-002 -9.88577753e-002 -2.17103675e-001
      1.12488635e-001 4.30908173e-001 -8.63143131e-002 -1.28371436e-002
      1.52900144e-001 5.98787740e-002 -6.76539317e-002 -1.75605550e-001
      -1.66451529e-001 4.49804626e-002 2.93224286e-002 -1.73427552e-001
      -4.56607975e-002 4.45218325e-001 8.66831094e-002 1.56680107e-001
      1.24862544e-001 -1.22423723e-001 -7.37780631e-002 3.51398915e-001
      1.18039668e-001 -8.58255625e-002 -2.53232509e-001 -1.01575471e-001
      -4.91801687e-002 2.70178765e-001 8.79281685e-002 2.26499274e-001
      1.16073020e-001 3.72416973e-002 -1.34066969e-001 -1.00053139e-002
      -1.41417691e-002 -7.88863152e-002 -1.02596164e-001 1.60280839e-001
      -1.13547817e-002 -3.44300866e-002 2.63638735e-001 4.99223843e-002
      -8.88126716e-003 2.35303983e-001 3.37207973e-001 6.35162070e-002
      1.52277695e-002 9.66266543e-003 -7.29951542e-003 3.09342355e-001
      2.78067514e-002 1.13857850e-001 3.33281197e-002 2.97692735e-002
      8.41310322e-002 -1.12315610e-001 -1.00752711e-001 6.76257089e-002
      -7.87159875e-002 3.68866138e-002 2.63221804e-002 -1.15612717e-002
      2.12444112e-001 1.17647778e-002 1.48043320e-001 -3.63005161e-001
      -1.15970984e-001 6.28138706e-002 2.23750532e-001 2.39905983e-001
      -1.04261681e-001 1.24861218e-001 1.25521645e-002 7.11267218e-002
      -6.90621287e-002 -4.29953486e-001 -1.19899236e-001 4.76062559e-002
      2.03817308e-001 -3.21833909e-001 1.25417458e-002 -2.45078385e-001
      -1.51905105e-001 -2.41190959e-002 -9.98258144e-002 3.65378112e-001
      2.07423776e-001 -1.43337995e-002 8.24525952e-002 -9.60548595e-002
      -1.05613597e-001 2.01325655e-001 -1.42838746e-001 4.13097404e-002
      -1.60595432e-001 4.59617823e-002 -1.76408052e-001 3.84524941e-001
      -1.68401167e-001 2.13547289e-001 1.89132199e-001 -2.95603365e-001
      -1.88902900e-001 -2.97630429e-001 5.45133576e-002 1.12563841e-001
      -8.69643018e-002 -2.35716298e-001 1.27390072e-001 -4.47451808e-002
      4.95013827e-003 -1.38588682e-001 -1.37863696e-001 1.96374450e-002
      1.87562138e-001 4.33880061e-001 6.10357262e-002 8.38575363e-002
      1.35754928e-001 5.96960895e-002 -1.17247127e-001 -2.66756266e-002
      1.19314015e-001 4.17593941e-002 -1.66903749e-001 7.87219778e-002
      -1.34108644e-002 1.49186293e-003 2.25591317e-001 1.26083747e-001
      1.54969618e-001 4.44846638e-002 -2.27847055e-001 9.26875696e-002
      1.13034844e-001 -2.06227422e-001 7.02058449e-002 3.34641367e-001
      -7.43256062e-002 -3.65263462e-001 1.93309322e-001 7.23719820e-002
      -2.28982307e-002 1.44783542e-001 1.63764104e-001 3.59110087e-002
      3.05312406e-002 -5.91526926e-002 -7.69852754e-003 2.54891753e-001
      9.09342542e-002 -5.17624617e-003 3.02751184e-001 -8.54473561e-002
      -2.78231323e-001 -9.47708338e-002 -2.15510488e-001 2.45304435e-001
      5.99285439e-002 2.64965564e-001 -2.94019133e-001 -3.16238463e-001
      1.38316765e-001 -4.84096333e-002 4.81533185e-002 -3.37760500e-003
      -8.82569626e-002 1.06842384e-001 5.06087840e-001 -1.34255841e-001
      -8.30946937e-002 -2.40793508e-002 5.04742004e-002 3.92656386e-001
      2.42161714e-002 -2.01508313e-001 -1.45686567e-001 -6.24544434e-002
      1.27132744e-001 -2.87746191e-001 -9.94071960e-002 8.43832120e-002
      1.40423462e-001 8.76281261e-002 -1.20377064e-001 1.23573653e-001
      1.12114653e-001 -3.08389403e-002 2.88242549e-001 -9.95434728e-003
      4.16856296e-002 -1.65306792e-001 -1.08823828e-001 1.31732389e-001
      1.62281543e-002 4.38699901e-001 1.89732034e-002 -4.33609895e-002
      -1.58933803e-001 -9.82416607e-003 1.66480526e-001 1.90412641e-001
      1.81950316e-001 -4.45150584e-002 -8.69588777e-002 -4.46532518e-002
      8.47064704e-002 -2.20590428e-001 -1.83445320e-001 2.06848189e-001
      4.48766388e-002 -7.17281848e-002 -1.49148092e-001 1.77165762e-001
      2.35406682e-001 -1.95177540e-001 -1.06149111e-002 1.16868310e-001
      -2.17174917e-001 -2.11018510e-003 -2.69116983e-002 9.78057235e-002
      -2.24387184e-001 -8.75668898e-002 -1.45098101e-002 3.44333768e-001
      1.01867765e-001 -7.13027045e-002 2.39949614e-001 -3.57633233e-001
      1.07776172e-001 -3.30733627e-001 3.08862813e-002 -1.61142331e-002
      -2.33163051e-002 -1.05403431e-001 -1.95640683e-001 5.65872937e-002
      -2.36793920e-001 -2.07858413e-001 -1.37732342e-001
      -3.01321689e-003 -5.24165183e-002 2.17647061e-001 -1.21866472e-001
      1.73744500e-001 -2.68542022e-001 1.58333465e-001 -1.38815358e-001
      -4.04657461e-002 1.43387541e-001 2.72502154e-001 3.79132867e-001
      -4.45736647e-001 -1.02036737e-001 -5.10574691e-002 4.49631959e-001
      5.92639484e-002 -2.89869718e-002 1.85561359e-001 1.45959660e-001
      1.01933993e-001 3.51963073e-001 -5.08841053e-002 1.68239892e-001
      -1.60769016e-001 4.58307937e-003 1.99021082e-002 5.45164384e-002
      4.45757397e-002 -8.67051333e-002 7.93552622e-002 -2.71064788e-002
      -3.14760864e-001 1.77351549e-001 8.56872052e-002 -6.98394328e-002
      -2.72819679e-002 7.47783259e-002 -1.94302183e-002 -1.68605782e-002
      -5.35748936e-002 -4.59984839e-001 -9.82875284e-003 1.20486148e-001
      -1.84239866e-003 -9.51160043e-002 -1.44791245e-001
      -1.10846378e-001 7.62922838e-002 1.82660103e-001 1.21499263e-001
      -1.85376614e-001 3.27285647e-001 3.09736788e-001 -2.60293394e-001
      3.53579223e-003 1.80248301e-002 -6.73222297e-004 1.06547892e-001
      9.35567543e-002 1.22237571e-001 -1.67037360e-002 4.15026443e-003
      -4.99037951e-002 -3.29133502e-004 -7.01828748e-002 1.87254950e-001
      2.74154752e-001 1.68111566e-002 -1.22868903e-001 -1.00364529e-001
      5.82373478e-002 -2.84846842e-001 -4.22970392e-002 -3.09520125e-001
      4.86345552e-002 4.92714765e-003 -2.54521579e-001 1.34009972e-001
      -3.61279212e-002 3.29251945e-001 -3.07834566e-001 -2.20401838e-001
      5.15924282e-002 -6.88384995e-002 2.03044945e-003 -1.44955799e-001
      1.25435591e-001 6.91408589e-002 1.56032994e-001 4.03603554e-001
      2.86245197e-001 7.87463710e-002 1.64128184e-001 -3.32515948e-002
      2.35805735e-001 -2.17464715e-001 1.19364634e-001 1.69281904e-002
      4.86941636e-001 4.72935401e-002 1.55272514e-001 -2.38854185e-001
      1.46505281e-001 7.26429448e-002 8.25904831e-002 -1.16663955e-001
      -1.28104970e-001 1.22206677e-002 -1.01767458e-001 4.41496037e-002
      -3.14162612e-001 1.56193241e-001 -6.60340562e-002 1.26047537e-001
      2.00990707e-001 -1.07786871e-001 3.19206975e-002 2.55569637e-001
      -1.96637629e-004 1.17785864e-001 -2.00373381e-001 5.31399921e-002
      -1.45750225e-001 -1.31362528e-001 -9.45862755e-002 7.75194913e-002
      1.62607253e-001 -3.70177984e-001 -3.79887491e-001 -7.90409148e-002
      2.24179357e-001 6.23511486e-002 -3.26703936e-002 -1.11475557e-001
      -4.44063321e-002 4.58542973e-001 -2.05979362e-001 2.42860883e-001
      2.22842470e-001 -4.52141464e-002 -3.21338736e-002 2.89333731e-001
      2.31872760e-002 -5.71888871e-002 2.37741351e-001 -9.09516737e-002
      1.11535251e-001 -3.13552991e-002 -3.59647393e-001 2.15842038e-001
      -2.39589557e-001 -1.32796526e-001 -2.48652697e-001 1.32110432e-001
      -1.69229656e-001 -1.46057144e-001 1.77208573e-001 -9.42601338e-002
      1.99165747e-001 2.53054053e-002 1.79917559e-001 -1.72101870e-001
      -2.86136091e-001 3.00588727e-001 3.87839526e-001 1.73534900e-001
      -3.34065020e-001 2.58701593e-001 -1.88469827e-001 1.15693063e-001
      -5.98376291e-003 2.10667565e-001 -4.35982831e-002 2.35261410e-001
      1.62045658e-001 2.41577737e-002 3.46038520e-001 -8.87791347e-003
      9.19417106e-003 9.32940841e-002 -9.35885608e-002 5.55321500e-002
      7.12599084e-002 -3.64068225e-002 -7.67090023e-002 -5.37115559e-002
      1.17060300e-002 2.65050858e-001 -4.66865115e-002 2.97158986e-001
      5.97633123e-002</_>
    <_>
      -9.70909521e-002 -5.09060323e-002 -7.68488720e-002
      -6.68672621e-002 -7.91286305e-002 -4.49638255e-002 1.48775756e-001
      -6.69908226e-002 -2.81918852e-004 -7.72087788e-003 1.79906607e-001
      1.57162771e-001 0. -1.44761834e-005 -2.85335374e-003
      1.22685581e-001 -2.44096201e-003 -3.41760204e-003 -9.21110716e-003
      4.71267675e-004 7.16775903e-005 1.53558746e-001 -8.54106247e-002
      -2.29553040e-002 -1.57807849e-003 -6.67385310e-002
      -1.24267831e-001 6.07646480e-002 0. -4.59149742e-005
      -8.07272084e-003 1.32598892e-001 -4.13359885e-006 -4.92141298e-005
      0. 0. 2.64117531e-002 4.47824178e-003 -2.57322425e-003
      -5.55197615e-003 3.69574613e-004 1.70837995e-002 -5.47911525e-002
      -1.58176079e-001 0. -4.60794909e-005 -1.33862533e-002
      8.05007592e-002 0. 0. 0. 0. 3.68055552e-002 5.42887347e-003 0. 0.
      3.12500000e-002 6.44928729e-003 2.67406516e-002 -6.44745538e-003
      0. -6.58278486e-006 3.56185511e-002 -1.68295160e-001
      -9.66147929e-002 -1.14073977e-002 -5.57543933e-002
      -6.09403290e-002 -6.42114505e-002 -1.20462840e-002 9.79831219e-002
      -8.60418081e-002 -1.36955990e-003 -2.70556286e-002 1.20151892e-001
      1.15922503e-001 0. -1.60104846e-005 -8.55903514e-003
      5.81470355e-002 -8.47999472e-003 -1.11792609e-003 -2.97851698e-003
      5.94074780e-004 -2.50737872e-002 7.54775926e-002 -3.80203873e-002
      -2.77665164e-002 -3.43522057e-003 -4.70015407e-002
      -7.52836764e-002 4.67785932e-002 0. -4.46973900e-005
      -3.78397219e-002 1.45631388e-001 1.38137721e-005 0. 0.
      -3.15318212e-005 2.51211766e-002 -1.29411439e-003 8.52204743e-004
      -5.56158833e-003 1.93828251e-004 -1.79079978e-003 -1.07231541e-002
      -8.23735148e-002 0. -9.07768845e-005 -3.49236988e-002
      1.29813612e-001 0. 0. 0. 0. 1.75925922e-002 5.11921383e-003 0.
      -6.30636423e-005 5.69155104e-002 1.24904141e-002 6.17230125e-003
      -4.69394820e-003 0. -6.58278486e-006 -3.70086194e-003
      -7.86585584e-002 -3.21304202e-001 -4.08042297e-002
      -1.27547488e-001 -3.31436098e-002 -8.98493528e-002 3.24163064e-002
      1.80999324e-001 -5.00698574e-002 -2.97613838e-003 -1.52867101e-003
      1.62203312e-001 2.60075986e-001 0. -1.26127285e-004
      -1.80049730e-003 1.46616921e-001 2.36650426e-002 -2.57336651e-003
      -2.89013842e-003 3.08991899e-003 1.16576478e-002 -9.96483043e-002
      -9.87810455e-003 -1.74502172e-002 -4.60794923e-004
      -6.83643669e-002 -6.24708161e-002 1.33385226e-001 0.
      -1.11545749e-004 -1.54900709e-002 1.36538208e-001 3.18287028e-004
      0. 0. 0. 6.07224740e-002 -6.16776117e-004 -4.46652249e-003
      -1.17449719e-003 8.81081622e-004 2.48888810e-003 -1.02718621e-001
      -3.95521224e-002 0. -1.44821257e-004 -1.93384979e-002
      1.69825956e-001 0. 0. 0. 0. 6.36574056e-004 0. 0. 0.
      2.34495295e-004 -3.82864708e-003 -1.02278851e-002 -5.28066652e-003
      0. 0. -6.02559559e-003 -1.83893070e-001 -3.04057807e-001
      -5.80152199e-002 -1.17814220e-001 -7.18917884e-003
      -7.09045157e-002 1.56510677e-002 2.33905017e-001 -5.83012849e-002
      -6.15214696e-004 -3.76675911e-002 1.73462614e-001 2.85684705e-001
      0. -5.77521896e-005 -2.79606995e-003 1.28601328e-001
      1.10468024e-003 2.87899142e-003 -2.06000608e-004 6.96444046e-003
      1.23946862e-002 -3.19303051e-002 2.66009476e-003 -6.78228168e-003
      -6.43620209e-004 -7.36133307e-002 -2.68936604e-002 1.13969967e-001
      0. -6.70579146e-004 -1.64677277e-002 1.54534608e-001
      1.44675927e-004 0. 0. 0. 4.46785465e-002 -5.10176294e-004
      -1.92144036e-003 8.44450551e-004 1.98525004e-003 -6.02481421e-003
      -1.95437104e-001 -7.72223622e-002 0. -9.67669359e-004
      -4.66946214e-002 2.12310940e-001 0. 0. 0. 0. 2.82976590e-003
      -1.98580074e-005 0. 0. 3.24074063e-003 -1.70736690e-003
      -1.01458952e-002 -1.49777159e-003 0. 3.24767893e-006
      -5.06792683e-003 -2.36006469e-001 1.14819303e-001 2.51076072e-001
      2.62126625e-001 -2.53013849e-001 4.95527647e-002 1.77309558e-001
      6.12581484e-002 -3.74468975e-002 -1.59064725e-001 -5.69183156e-002
      2.29769751e-001 4.89553716e-003 5.29486127e-002 6.23169914e-002
      6.16853014e-002 -3.41239482e-001 1.89289108e-001 -3.72057073e-002
      -1.80467874e-001 4.38172147e-002 -4.56546918e-002 5.66780567e-003
      -2.32057080e-001 -4.97453623e-002 -3.32530677e-001 2.50898451e-001
      1.91995829e-001 1.39383793e-001 2.30203912e-001 1.33807018e-001
      -1.93153739e-001 1.55917645e-001 -1.83540750e-002 1.65298674e-002
      1.94040641e-001 -1.02443576e-001 -1.96768403e-001 4.39564995e-002
      1.67655256e-002 -1.01949319e-001 4.98612635e-002 -4.27352577e-001
      1.54253796e-001 -1.89025719e-002 -1.86532483e-001 -1.84694469e-001
      -4.79445279e-001 -6.32606521e-002 1.69692691e-002 -2.60621339e-001
      5.56181222e-002 4.36607860e-002 2.86637377e-002 -3.64497334e-001
      -1.79418057e-001 -4.43495587e-002 1.30092800e-001 2.50610709e-001
      -2.46391639e-001 4.13558453e-001 -3.90841097e-001 2.20062435e-001
      -3.91596138e-001 -1.63398273e-002 -2.53884673e-001
      -1.16188943e-001 -7.27135688e-002 -3.07297725e-002 1.99795544e-001
      2.97471672e-001 -2.96477079e-001 2.93986313e-003 -1.80263638e-001
      -2.78891828e-002 -2.86386795e-002 -6.97812214e-002 8.63242447e-002
      -1.95414424e-001 -5.65621182e-002 1.47299459e-002 1.46925449e-001
      -1.92747384e-001 -7.81749263e-002 1.11942105e-001 -7.44425207e-002
      2.36538751e-003 -2.16127858e-001 1.73514292e-001 1.59287810e-001
      3.94521169e-002 -4.12740000e-002 -2.79970706e-001 4.56955619e-002
      -2.99348794e-002 4.61212918e-002 5.23035377e-002 1.89243898e-001
      3.86148304e-001 -1.31591260e-001 -2.92377383e-001 -2.19136044e-001
      7.79150650e-002 3.59810144e-001 -7.66584650e-002 -8.98006335e-002
      -1.94751821e-003 -1.48427159e-001 -2.17843741e-001 5.31246029e-002
      -1.62034109e-002 3.51692021e-001 3.19563121e-001 4.64159757e-001
      1.72514573e-001 -2.29670346e-001 -1.14393299e-002 3.96496207e-001
      2.47685030e-001 2.05930218e-001 1.74928650e-001 1.56282723e-001
      1.91065341e-001 -2.44983837e-001 2.20911235e-001 -9.58372578e-002
      -1.89002886e-001 3.48754823e-002 2.80271649e-001 2.35852867e-001
      1.99057773e-001 -7.06056058e-002 2.93048531e-001 -5.94089851e-002
      -1.90534383e-001 4.14331220e-002 1.46817192e-001 1.10871211e-001
      1.61794350e-002 4.41165626e-001 2.85742909e-001 -1.76512629e-001
      6.08385839e-002 -4.48034018e-001 -4.91324425e-001 1.94748297e-001
      -6.16158992e-002 -1.99875027e-001 -6.78356886e-002
      -1.35485485e-001 -2.20069475e-002 -2.36430466e-001
      -4.23452199e-001 1.11579575e-001 2.79611140e-001 2.99105972e-001
      -2.37056520e-002 -5.20299971e-002 3.30182731e-001 5.92651069e-002
      -1.79018110e-001 9.88199040e-002 -2.27558434e-001 -1.75578550e-001
      -7.03302920e-002 1.02007635e-001 -8.72614011e-002 3.06093901e-001
      -2.47327983e-001 1.85869023e-001 6.55182973e-002 5.98968752e-003
      1.86137915e-001 2.07232451e-003 -9.04210284e-002 -8.97624940e-002
      -1.06203742e-001 2.70984054e-001 -3.32287736e-002 3.38790268e-002
      6.84955299e-001 -2.80363429e-002 1.28378883e-001 3.29726785e-001
      -5.77662997e-002 -2.20720768e-001 1.35582671e-001 1.54441232e-002
      9.12111625e-002 -5.02564967e-001 1.04460038e-001 1.30807787e-001
      1.35815814e-001 1.85303837e-001 2.22752929e-001 -3.29393923e-001
      -1.47962734e-001 1.29490748e-001 9.76192504e-002 6.87907413e-002
      -2.67384648e-001 1.45393029e-001 -1.73390612e-001 -2.21308187e-001
      8.30144137e-002 8.64900872e-002 -2.09348593e-002 -3.66991550e-001
      4.60125040e-003 3.65471065e-001 -1.40431553e-001 -3.51624936e-001
      -1.25691518e-001 1.48182258e-001 -5.82558960e-002 -6.13030083e-002
      1.73394680e-001 -5.95960356e-002 -1.16434038e-001 7.70329535e-002
      2.86972702e-001 -1.02321304e-001 -2.07270265e-001 8.88866037e-002
      -2.86491126e-001 7.44656146e-001 4.69909370e-001 4.75962311e-002
      -1.81366861e-001 -3.82615000e-001 -1.11768693e-001 2.16002464e-001
      -4.05152030e-002 8.78387615e-002 -1.57971218e-001 9.65927553e-004
      1.94007471e-001 -2.05393806e-002 2.06623301e-002 9.28838775e-002
      4.63497117e-002 3.72561663e-001 -8.61348510e-002 7.59666273e-003
      -1.99308340e-002 8.78435522e-002 7.71080097e-003 -8.05527568e-002
      -9.95324552e-002 1.86491862e-001 4.56745699e-002 3.06917448e-002
      -2.36380324e-001 -1.35371789e-001 2.22567737e-001 -1.73991621e-001
      1.97713852e-001 -2.54619326e-002 -1.47956371e-001 -4.06142116e-001
      1.95563614e-001 2.86570728e-001 4.82121222e-002 1.11112468e-001
      3.95990312e-002 -1.67768255e-001 -5.71538061e-002 -1.54195815e-001
      8.18998441e-002 2.13500962e-001 1.70526847e-001 -8.84973481e-002
      -1.16409190e-001 -8.32093060e-002 3.06554854e-001 -1.78946592e-002
      -4.40108836e-001 3.24135274e-001 7.63536841e-002 1.18998937e-001
      -1.67060658e-001 2.16826238e-002 3.96463089e-002 3.97602394e-002
      4.01574327e-003 1.02553770e-001 -2.72720337e-001 -2.89624501e-002
      2.97856778e-001 1.41039267e-001 -7.03654066e-002 -3.35322797e-001
      3.70021313e-002 2.69996703e-001 1.05586246e-001 -2.99074233e-001
      -1.51024489e-002 -3.55416000e-001 2.00689971e-001 -4.50043738e-001
      3.01326990e-001 4.05916423e-002 4.49131876e-002 8.63452852e-002
      -1.40632957e-001 -1.58286363e-001 1.05349071e-001 -4.42322761e-001
      1.28897190e-001 1.27699897e-001 -2.80264407e-001 2.10550264e-001
      -9.11528766e-002 2.41003856e-001 -5.21321237e-001 1.72391921e-001
      -2.75945384e-002 2.83783004e-002 -1.46854162e-001 1.32242680e-001
      2.44914562e-001 -1.72828287e-001 9.24213752e-002 4.53929782e-001
      2.44382963e-001 6.10264800e-002 -5.07779717e-002 2.21062023e-002
      1.48727506e-001 -2.59619325e-001 1.33542940e-001 -3.62971991e-001
      -1.21437972e-002 -2.15393066e-001 2.98138797e-001 -1.81823671e-001
      -2.67481685e-001 5.02331376e-001 -4.70668852e-001 -1.15386412e-001
      -2.10164897e-002 -3.52241963e-001 2.12874576e-001 6.42561689e-002
      -3.46090078e-001 1.68145284e-001 3.09037715e-001 3.25561725e-002
      1.32992044e-001 -1.15046516e-001 -4.41115230e-001 5.09525947e-002
      3.69641334e-001 2.87703186e-001 -8.09511393e-002 -8.29195678e-002
      -3.02920818e-001 2.20444649e-001 5.39235584e-002 1.14134490e-001
      1.23117678e-001 1.55838966e-001 1.30112216e-001 -2.46284261e-001
      2.07308885e-002 6.53079391e-001 2.43368685e-001 1.29291937e-001
      -7.99708418e-004 2.00303867e-001 -1.56583205e-001 -4.81279418e-002
      -2.32153051e-002 -1.88616052e-001 2.09020134e-002 1.19087242e-001
      4.01615262e-001 2.83245713e-001 9.28623043e-003 2.57809758e-001
      1.05126843e-001 -2.77500957e-001 5.31784408e-002 -9.45715886e-003
      9.62425321e-002 -2.59707179e-002 1.32358819e-001 -1.57085866e-001
      1.06471203e-001 3.98001581e-001 -5.07200539e-001 -1.80957302e-001
      -2.03097984e-001 -2.72041410e-001 -7.66072124e-002 7.25505780e-003
      1.15121275e-001 -1.18946373e-001 3.67968506e-003 4.67910558e-001
      1.28934070e-001 1.75280601e-001 4.64684889e-002 9.25385579e-002
      -2.02948570e-001 1.03458531e-001 -3.10765374e-002 -3.76351446e-001
      3.52818340e-001 4.02792916e-002 8.43060911e-002 -1.86730370e-001
      9.30972546e-002 2.12868437e-001 2.12822393e-001 1.33412138e-001
      -1.46585694e-002 -1.55420989e-001 3.21532130e-001 1.55874416e-001
      -9.84861553e-002 1.29700199e-001 -7.28593841e-002 1.05690584e-001
      -1.35813821e-002 -9.21706483e-003 2.08963547e-002 -6.50803447e-002
      -1.53022736e-001 4.86925207e-002 -2.17073157e-001 2.86208093e-001
      -3.24670434e-001 -9.80744362e-002 -5.86140044e-002
      -2.15926737e-001 1.65849805e-001 1.52881131e-001 -4.04271841e-001
      -1.50805563e-001 5.59665728e-003 -1.08712623e-002 -4.55890685e-001
      -2.51176376e-002 -3.66459228e-002 4.07977194e-001 -3.17131728e-001
      6.15177341e-002 1.42106935e-001 -3.10822636e-001 -2.38273799e-001
      -3.35893594e-002 1.39342666e-001 1.23039551e-001 3.93538356e-001
      2.89561413e-002 -1.79619584e-002 1.11417830e-001 -1.35371312e-001
      2.66897734e-002 -2.04026088e-001 6.82655498e-002 -2.82455444e-001
      2.59472951e-002 -7.23385066e-002 -2.14840829e-001 4.66975272e-001
      -2.28989683e-002 1.29936099e-001 -1.00457393e-001 -6.94252411e-003
      -1.13802157e-001 -2.31377780e-001 1.73397869e-001 2.31583759e-001
      3.46125841e-001 -1.04830101e-001 3.05195063e-001 -5.14088050e-002
      -7.67127424e-002 -1.99833035e-001 -6.43552542e-002
      -2.84090936e-001 5.24941608e-002 1.36458382e-001 -2.49805525e-002
      1.61249444e-001 1.17994256e-001 -1.69459298e-001 2.66853362e-001
      -1.84744954e-001 -2.96546090e-002 -1.93784431e-001
      -8.91524702e-002 1.86433896e-001 9.55868065e-002 3.04513127e-001
      1.69268921e-002 -4.51226048e-002 1.26181573e-001 2.38327563e-001</_>
    <_>
      -2.48862952e-001 -1.05536133e-001 -3.52717251e-001
      -5.14915287e-001 -1.90465465e-001 5.08062765e-002 1.89318910e-001
      -3.45963806e-001 -1.36877727e-002 2.57662181e-002 2.78189689e-001
      2.39428326e-001 -3.58135137e-003 -1.65763311e-003 6.77937362e-003
      2.30281502e-001 -5.36636859e-002 -3.07627372e-003 -6.79153111e-003
      -7.02914782e-003 -2.47400664e-002 6.45715296e-002 -4.52975184e-002
      -2.13993594e-001 -1.20130414e-002 -6.60031065e-002 2.86480963e-001
      5.57171889e-002 -7.64185534e-005 -1.76901266e-003 1.99072119e-002
      3.64496619e-001 -2.25532276e-004 0. 0. 0. -1.91099234e-002
      -1.30351447e-002 4.00668912e-004 -3.44559969e-003 5.79999574e-003
      2.08777958e-003 -6.06715716e-002 -1.40350237e-001 -1.73961074e-004
      -1.80091977e-003 5.34869730e-003 2.61597961e-001 0. 0. 0. 0.
      1.49175373e-003 1.22421145e-004 0. 0. -4.49944939e-003
      4.82409522e-002 -2.76705027e-002 -1.99364824e-003 0.
      6.43475633e-003 3.15159597e-002 3.10032755e-001 -1.72956079e-001
      -5.85560724e-002 -3.85232061e-001 -5.55810571e-001
      -1.12029903e-001 1.05753221e-001 1.55403912e-001 -3.70438069e-001
      -6.61600474e-003 1.60059743e-002 2.13421330e-001 2.30955869e-001
      -3.55809083e-004 -1.54242199e-003 -3.23451422e-005 1.40402973e-001
      -1.69718415e-002 -1.32017594e-003 -5.40184928e-003
      -4.73018223e-003 -2.07019038e-002 5.24704717e-002 2.67342944e-002
      -2.57311255e-001 -9.64035746e-003 -5.82965389e-002 2.79073834e-001
      1.96016226e-002 -5.93960322e-005 -4.90329752e-004 -8.32277536e-003
      3.73435467e-001 -1.34791437e-004 0. 0. 0. -3.37797515e-002
      -1.24729155e-002 -2.18607121e-004 -6.67808438e-003
      -8.92721349e-004 -9.60145704e-003 6.29923865e-002 -1.18356615e-001
      -7.26791506e-004 -1.80050672e-003 -6.65020384e-003 3.82355899e-001
      0. 0. 0. 0. -1.91142168e-002 1.04932406e-004 0. 0.
      -3.99183258e-002 -4.14519897e-003 -6.85320562e-003
      -2.95129116e-003 0. 6.33113682e-002 -5.03326161e-003
      1.94120333e-001 -1.35710880e-001 -1.71548888e-001 -8.80513608e-001
      -7.05277264e-001 -9.55383033e-002 2.78051466e-001 3.12192321e-001
      -4.35175776e-001 -5.80822176e-004 1.17533263e-002 3.28081608e-001
      4.61034089e-001 0. -5.53830432e-005 -1.76705502e-003
      3.10467154e-001 -8.00931454e-003 -2.51368154e-003 -1.16591603e-002
      -2.57907156e-003 -2.98233121e-003 -1.45615858e-003
      -3.24247777e-002 -2.45017722e-001 -2.00233096e-003
      -4.74910066e-002 3.23932648e-001 1.53967038e-001 -2.24296018e-005
      -7.72687199e-005 9.86776780e-003 4.23689485e-001 3.93063019e-005
      0. 0. 0. 9.60708968e-003 -3.73763195e-003 -8.30754172e-003
      -3.99613706e-003 7.00602215e-003 1.46603789e-002 -1.01096421e-001
      -1.37921855e-001 0. -5.99611376e-004 5.64988749e-003
      4.00864452e-001 0. 0. 0. 0. 1.30282401e-003 2.97308492e-004 0. 0.
      2.50131015e-005 3.23169702e-003 -1.39089692e-002 -1.24997040e-002
      0. 4.10311250e-003 -1.95203479e-002 2.41675172e-002
      -1.80876657e-001 -1.81102693e-001 -8.66248250e-001
      -6.15048766e-001 -9.92429629e-002 3.48768651e-001 3.47014874e-001
      -3.37593406e-001 -4.10183973e-004 -1.40397754e-002 3.21829587e-001
      5.21338761e-001 0. -1.84574001e-005 8.40083871e-004
      3.00962687e-001 -1.48406969e-002 1.51964731e-003 -1.29261222e-002
      -4.83856769e-003 5.61631145e-003 5.48181087e-002 2.99746916e-002
      -2.83156127e-001 -2.47881864e-003 -1.90069191e-002 2.81894863e-001
      1.23329006e-001 -9.52346381e-005 -1.07163571e-004 1.10314628e-002
      4.24631357e-001 1.78665014e-005 0. 0. 0. 6.10272819e-003
      -4.87726461e-003 -5.34591964e-003 -2.22542929e-003
      -7.73175736e-004 1.04879951e-002 -1.51176140e-001 -1.24016665e-001
      -7.79154288e-005 -7.76315050e-004 8.59557465e-003 4.48988318e-001
      0. 0. 0. 0. 6.50548027e-004 2.44990133e-005 0. 0. 4.38573421e-004
      1.58858970e-002 -5.23993000e-003 -9.17930715e-003 0.
      2.66965060e-003 5.37953293e-003 -3.37092400e-001 1.90036044e-001
      -5.18501699e-002 4.90576290e-002 7.40364147e-003 -6.08709827e-002
      1.67201579e-001 3.40537615e-002 -3.73810343e-002 5.69251329e-002
      1.94606036e-002 1.32304460e-001 1.64810389e-001 5.65408245e-002
      -1.13256443e-002 2.37274095e-001 -1.88389271e-001 1.74218357e-001
      3.31986159e-001 -7.34614953e-002 2.59767845e-002 -1.45654127e-001
      1.65447056e-001 -1.14754021e-001 1.15590394e-001 -3.46233457e-001
      -7.44307861e-002 1.10455662e-001 1.76065847e-001 2.51390487e-001
      -1.24570563e-001 1.25887424e-001 -2.71592051e-001 6.22510053e-002
      7.20577016e-002 2.65020013e-001 -1.37097999e-001 -2.31907070e-001
      1.03872698e-002 -1.01586252e-001 -5.30412160e-002 -2.30911717e-001
      -1.44795731e-001 1.81666225e-001 1.83069438e-001 -9.33691859e-002
      -4.01623011e-001 -2.21293911e-001 -5.31012297e-001 1.88988537e-001
      4.64467034e-002 7.41496980e-002 -2.13553771e-001 1.67080939e-001
      -2.59390801e-001 -2.74173379e-001 7.94090554e-002 2.30427980e-001
      1.36349052e-001 -3.00599456e-001 1.78540885e-001 1.53278303e-003
      2.81641096e-001 2.05301553e-001 -1.63336858e-001 3.12356740e-001
      -8.51507485e-002 -1.29053056e-001 -7.61807198e-003
      -1.74846515e-001 1.69892013e-001 3.18706743e-002 -1.27600044e-001
      -2.65803397e-001 -1.71735287e-001 -6.77028075e-002
      -5.41994013e-002 5.50217461e-003 4.25323471e-002 1.25250209e-003
      -9.62143298e-003 -1.35534391e-001 -1.48769319e-001
      -6.05968572e-002 1.40661001e-001 1.74812853e-001 -3.75498310e-002
      -2.22681493e-001 -2.58478168e-002 2.19570041e-001 2.39749193e-001
      -2.30502576e-001 -3.83195877e-001 -1.50227487e-001
      -2.65283938e-002 -1.17362365e-001 -7.24158660e-002 8.76747817e-002
      -1.82052180e-001 -5.42569794e-002 -2.36203060e-001
      -1.63223609e-001 2.11794928e-001 3.33698452e-001 -8.47242177e-002
      5.24196438e-002 1.65847823e-001 1.65820956e-001 -1.16007224e-001
      6.00582480e-001 -3.64519984e-001 2.13914245e-001 -1.83385402e-001
      2.54925132e-001 -2.62094778e-003 -1.65261924e-002 -2.32091192e-002
      2.73900211e-001 5.66736683e-002 5.23078628e-002 -1.88931078e-001
      2.08541408e-001 -3.13774534e-002 1.08682178e-001 -9.66588557e-002
      -6.07132539e-002 -1.70545861e-001 2.47107018e-002 3.73891324e-001
      5.28275147e-002 -6.56417608e-002 -7.03612622e-003 1.52407184e-001
      1.49020642e-001 -5.68904951e-002 2.49869172e-002 3.23062509e-001
      3.66545212e-003 -3.46845686e-001 3.22339356e-001 1.02979720e-001
      8.37458819e-002 -8.35949257e-002 -2.46527165e-001 -3.61269265e-001
      6.66061416e-002 -2.18109205e-001 -1.34610102e-001 4.06370342e-001
      -4.23232496e-001 -2.38477379e-001 1.58776864e-001 4.66975309e-002
      1.61627308e-001 2.08472148e-001 -8.09420794e-002 4.27632660e-001
      -1.16791278e-001 1.10645749e-001 9.10590291e-002 1.06732614e-001
      -4.23830301e-002 -1.71402931e-001 -2.99838394e-001
      -1.07714385e-001 3.59543204e-001 -1.31185561e-001 1.39975294e-001
      -1.64089859e-001 -1.53329462e-001 -3.73467244e-002
      -3.48373681e-001 -5.77758513e-002 2.53869835e-002 -1.20007254e-001
      -1.36116743e-001 -2.08646610e-001 1.55572832e-001 6.57447428e-002
      1.93458825e-001 4.68378097e-001 -1.06354550e-001 1.64830849e-001
      1.82065144e-001 9.71074253e-002 -6.46844655e-002 6.49197176e-002
      -3.64237316e-002 -3.69920433e-001 -1.45503908e-001
      -1.12450182e-001 -3.79467979e-002 -1.25420168e-001 4.55869995e-002
      1.25741303e-001 -1.76194131e-001 2.09785894e-001 1.16655163e-001
      -2.70215888e-002 -2.23247707e-001 -1.43345699e-001 3.84874284e-001
      -2.09848151e-001 -1.78717330e-001 2.84725070e-001 -1.09270923e-001
      -3.68211232e-002 2.27803160e-002 2.34976366e-001 -1.79352872e-002
      -2.33881176e-001 -2.18804136e-001 2.60650456e-001 4.89098020e-002
      -5.07162884e-002 -7.13576600e-002 -1.75007090e-001 7.66750276e-002
      8.58291537e-002 -5.70009165e-002 3.68757509e-002 -1.84355408e-001
      -4.14075941e-001 -1.48874059e-001 2.10762843e-001 1.19493812e-001
      -1.38867348e-001 -2.38523066e-001 -3.22355509e-001 1.05862720e-002
      7.16430992e-002 -1.69670463e-001 1.97883010e-001 2.97169805e-001
      -2.02173106e-002 -8.10865499e-003 -7.74316564e-002 1.51295230e-001
      -3.31938118e-002 4.03753184e-002 -4.18907516e-002 2.42848501e-001
      -1.93460360e-001 1.14625506e-002 -1.87184140e-002 3.65108073e-001
      -3.67943287e-001 -3.09618384e-001 -1.38300449e-001 1.35111183e-001
      2.69982278e-001 4.84469123e-002 -1.54123604e-001 -1.07035279e-001
      1.09161712e-001 -1.03304550e-001 2.03702465e-001 -1.06647521e-001
      -1.57654449e-001 -2.97106564e-001 3.38981241e-001 -6.29627630e-002
      1.43541247e-001 3.67274433e-001 3.74544412e-001 -1.48590922e-001
      -7.55848438e-002 -6.77707717e-002 -4.25138064e-002 7.69096538e-002
      9.39431190e-002 8.02294910e-002 -1.83416113e-001 1.70810357e-001
      2.26994425e-001 -1.41164616e-001 -6.40846565e-002 2.44282439e-001
      8.50122944e-002 1.40496552e-001 -1.75713688e-001 5.12019396e-002
      -8.02841112e-002 2.05752645e-002 1.55738425e-002 2.32015684e-001
      -3.26017261e-001 6.69908881e-001 4.18754816e-001 -1.54332846e-001
      1.20969638e-001 6.85690492e-002 -5.40365651e-002 4.08514768e-001
      6.93808049e-002 4.39588726e-002 -1.56329021e-001 -7.99662843e-002
      1.33983359e-001 -2.25700978e-002 -5.37090123e-001 3.22073549e-001
      1.50456607e-001 -4.23716530e-002 -2.96235308e-002 1.49641648e-001
      -2.32702166e-001 -2.27533698e-001 8.27248618e-002 2.71128893e-001
      9.37262401e-002 1.31051570e-001 2.38975324e-002 -1.47244846e-002
      -1.80265024e-001 8.57311487e-002 -1.54065248e-002 4.16600406e-002
      1.44265920e-001 6.86007887e-002 1.28299192e-001 -7.46248960e-002
      -1.79682270e-001 2.21169651e-001 1.40405437e-002 1.16977625e-001
      -2.29862094e-001 1.49755567e-001 2.47645080e-001 5.34154117e-001
      5.98232090e-001 -2.16422811e-001 1.00625403e-001 -3.06471884e-002
      7.56124407e-002 -3.75587463e-001 3.66187431e-002 1.02971487e-001
      -2.27930412e-001 -7.02519959e-004 5.10178395e-002 8.43105540e-002
      3.14227790e-001 8.65911171e-002 5.11733890e-002 1.70097560e-001
      -7.78981447e-002 2.13785902e-001 -7.48695657e-002 5.43456435e-001
      -4.44112897e-001 1.72962442e-001 1.65893346e-001 -4.23569344e-002
      -2.13598937e-001 -4.71378356e-001 4.06142883e-002 -9.18317735e-002
      1.24826983e-001 1.41543612e-001 3.21686417e-001 3.60027663e-002
      2.33729318e-001 -7.15231523e-003 1.08182788e-001 2.26204544e-001
      1.21088639e-001 -9.89796296e-002 -2.01853469e-001 2.31421098e-001
      -1.81648135e-001 -8.55882391e-002 -1.48345307e-001
      -5.92749342e-002 -2.61003882e-001 6.58132508e-002 2.82783598e-001
      -5.09463429e-001 1.16682447e-001 3.08489650e-001 -2.02053025e-001
      -2.54576355e-001 -6.09744191e-002 -2.40786627e-001 3.58960271e-001
      -1.10210381e-001 -5.05784638e-002 1.08480670e-001 -7.17114843e-003
      3.13280791e-001 5.55483513e-002 -4.52161252e-001 -9.51248780e-002
      -2.13253438e-001 -8.82766619e-002 -2.35844493e-001
      -2.28251010e-001 -1.35008484e-001 7.91822840e-003 1.34571448e-001
      -1.29184753e-001 -1.15971044e-001 1.03781305e-001 -1.36124402e-001
      -1.53391417e-002 8.09011906e-002 1.50928393e-001 -1.83832988e-001
      6.08750582e-001 -1.12041153e-001 -1.18145443e-001 -2.69277990e-001
      -2.41721377e-001 3.34708512e-001 -9.63913128e-002 -1.44991323e-001
      -1.15856171e-001 1.66629508e-001 2.10370883e-001 4.14511524e-002
      1.03428021e-001 2.49250636e-001 -7.18521401e-002 -1.82613861e-002
      -2.38568112e-002 -7.19281882e-002 2.01924786e-001 1.31062537e-001
      -1.33145422e-001 1.21867470e-001 -3.44178937e-002 2.72741497e-001
      1.14573903e-001 -3.08652571e-003 1.41836911e-001 3.91252935e-001
      1.58609122e-001 2.03087404e-001 -7.96497986e-003 1.90406948e-001
      -8.92820209e-002 -1.82993859e-002 -3.74124438e-001
      -1.22550987e-001 -2.18396574e-001 -9.77451797e-004
      -2.87650406e-001 1.07140720e-001 -8.89385194e-002 7.34146088e-002
      3.43993634e-001 7.43628964e-002 3.03441107e-001 -1.59263760e-001
      3.00281316e-001 -3.08309972e-001 1.35157749e-001 -1.79458976e-001
      -3.09733093e-001 1.00486845e-001 -1.43899441e-001 -4.82906371e-001
      -1.87584609e-002 1.86913833e-001 -2.87654698e-001 -6.55303478e-001
      9.29026529e-002 9.67862178e-003 1.32157907e-001 2.64382154e-001
      1.87323689e-001 -1.54036984e-001 -1.90936133e-001 -1.96810678e-001
      -2.73245126e-001 -1.23438120e-001 -2.90249825e-001
      -1.62414178e-001 -2.66462445e-001 -3.23854625e-001 1.13860108e-001
      -1.26588002e-001 -3.71200204e-001 8.87467489e-002 6.65951055e-004
      1.78504556e-001 2.53108174e-001 -3.26670483e-002 3.49738419e-001
      2.46201772e-002 -1.38438412e-003 8.97086188e-002 -4.01468307e-001
      -1.04469672e-001 -2.69436628e-001 -2.52024442e-001 8.91323015e-002
      8.91124979e-002 -3.84863205e-002 2.97625184e-001 8.34575295e-002</_>
    <_>
      6.46674573e-001 1.39448810e-002 -1.15512140e-001 -1.83834396e-002
      4.48461995e-002 1.58626646e-001 -2.11390465e-001 -2.14196727e-001
      4.03565727e-003 6.33967966e-002 -3.44488025e-002 -6.37742877e-001
      5.65116713e-003 5.08970488e-003 1.18248425e-002 -2.09292285e-002
      -1.23519246e-002 -4.39211726e-002 -1.21773267e-002
      -1.17906125e-003 -2.04122066e-002 1.11710019e-001 1.49758607e-001
      4.10915613e-002 1.08790618e-005 2.25606840e-002 4.29099388e-002
      3.97635430e-001 6.52057759e-004 7.61556625e-003 3.20904925e-002
      -2.46953562e-001 -3.50227510e-003 -4.36346885e-003
      -2.02236348e-004 1.81584273e-005 -1.59779098e-004 2.91369809e-003
      3.53866210e-003 5.00767201e-004 -1.26423221e-002 9.54740029e-003
      -8.92674625e-002 6.64412677e-002 -1.86337111e-005 -3.93051596e-005
      -2.79698544e-003 9.66530740e-002 -1.94250199e-004 -5.36001055e-004
      -1.83573138e-005 0. -1.06158899e-003 -4.82843630e-003
      -4.79358860e-004 1.17495747e-005 1.28951087e-003 5.77343535e-003
      2.89603509e-002 4.93071973e-003 0. -5.60499320e-004
      -2.06441000e-001 -6.39936328e-002 5.77518523e-001 -4.87420484e-002
      -1.51057273e-001 1.96576826e-002 6.10164143e-002 2.12435305e-001
      -2.70766616e-001 -1.44428819e-001 2.67028413e-003 6.14241064e-002
      -7.95681030e-002 -6.11701787e-001 2.43039709e-003 3.23410728e-003
      6.15737168e-003 -7.12411245e-003 -5.97510301e-002 -2.16088463e-002
      -1.27067009e-003 -1.32727349e-004 -1.51357260e-002 6.17964529e-002
      1.58067212e-001 6.64303824e-002 -5.97471837e-004 4.72184755e-002
      5.87118044e-002 3.04098278e-001 3.16149206e-004 4.08014422e-003
      1.89876761e-002 -2.82684684e-001 -5.92527958e-003 -2.30306876e-004
      0. 0. -8.54032478e-005 -2.99366564e-003 -8.83961096e-003
      7.96029437e-003 -7.40839867e-003 1.17846671e-002 -1.99828923e-001
      1.17158532e-001 0. -2.53582220e-006 1.18965388e-003
      1.70858987e-002 -2.83903931e-003 -1.14947266e-004 0. 0.
      -4.02526418e-003 -8.11569800e-004 -8.68890947e-006 2.27932269e-005
      4.21727571e-004 8.83619941e-004 4.78239432e-002 2.92397793e-002 0.
      -2.35037762e-004 -1.12384751e-001 1.40481710e-001 5.30258179e-001
      1.86563089e-001 -2.37896159e-001 -7.86873177e-002 7.94619322e-002
      3.66497070e-001 -5.62335253e-001 -4.06044930e-001 4.74720262e-003
      4.71773446e-002 -3.40181962e-002 -7.86368906e-001 0.
      -1.14626732e-006 6.98454306e-003 -6.33829832e-003 -8.41012690e-003
      -2.18837894e-002 1.76582881e-003 -1.70656526e-003 -3.54173454e-003
      8.41646269e-002 2.51858920e-001 7.26218708e-003 -9.87064195e-005
      2.85204370e-002 1.94818735e-001 -7.35750096e-003 0.
      1.35290684e-004 1.05137741e-002 -1.88088849e-001 1.51862996e-003
      0. 1.06378011e-005 9.27396104e-005 1.96785945e-003 6.01359457e-003
      1.36251911e-003 1.84728461e-003 -1.39391294e-003 9.98651423e-003
      1.00841150e-001 1.89561471e-001 0. -5.25353709e-004
      5.94765134e-003 3.71754207e-002 1.54285080e-005 0. 0. 0.
      -7.96144595e-004 -4.98737907e-004 -7.09092536e-004
      -1.97752997e-005 -5.24491654e-004 -4.75497218e-003
      -8.17820546e-004 5.38067473e-003 -7.71236722e-004 -5.29963057e-003
      -3.93210053e-002 2.35758930e-001 3.54352504e-001 -5.39830551e-002
      -3.13259125e-001 -4.81047481e-002 5.49230613e-002 2.82188684e-001
      -8.41764331e-001 -3.71777922e-001 2.46044458e-003 8.60350505e-002
      6.63963472e-003 -7.14488983e-001 4.93983156e-004 8.90647469e-004
      4.73229308e-003 -2.35951506e-003 -1.09392563e-002 -2.22257411e-004
      2.20883149e-003 8.97684135e-004 -7.67123140e-003 7.18889832e-002
      1.99334532e-001 -3.11907614e-003 -2.12387560e-004 2.76503209e-002
      3.21544856e-001 -5.63740060e-002 0. 3.10133837e-005
      2.37087291e-002 -1.07317328e-001 -3.01282533e-004 -9.67767410e-005
      1.04754490e-005 0. -9.41175385e-004 2.49035209e-002
      1.23863099e-002 5.86070772e-003 -8.70880764e-003 2.73631513e-003
      1.45014897e-001 2.00973481e-001 0. 1.12110480e-004 1.21034998e-002
      1.29750207e-001 -8.59559368e-005 0. 0. 0. 1.09052262e-003
      -1.53575471e-004 -3.47556379e-005 0. -7.58670561e-004
      -1.16375089e-002 1.54542681e-002 1.19256312e-002 -1.77977709e-004
      -5.99380815e-004 3.48628755e-003 5.49299657e-001 9.20309871e-003
      8.91216323e-002 4.79263589e-002 1.62763819e-002 -4.43461351e-002
      -2.76698284e-002 -1.79576069e-001 -1.96168944e-001
      -3.39213148e-004 -3.68337810e-001 -2.47916162e-001
      -4.63894978e-002 -5.42968325e-002 2.39098370e-001 2.15054274e-001
      -2.71565139e-001 1.03248283e-001 -2.23358437e-001 5.91133833e-002
      2.70197332e-001 8.77061114e-003 2.20651984e-001 -8.82710218e-002
      2.88823128e-001 -2.26201281e-001 8.31062421e-002 4.26241644e-002
      3.62694287e-003 2.52429456e-001 1.56646311e-001 -1.06766589e-001
      -3.19507062e-001 2.90747106e-001 -7.45922700e-003 -3.38013917e-001
      2.00494573e-001 1.79234874e-002 -1.86970338e-001 4.07032222e-001
      2.51379043e-001 -4.53558296e-001 6.35532886e-002 -4.37157571e-001
      -3.82547438e-001 -5.85667603e-002 2.11527020e-001 -1.27206936e-001
      -3.07947695e-001 2.75427610e-001 -2.73690164e-001 1.05867125e-001
      2.30172291e-001 -1.96310714e-001 -5.81331216e-002 -3.17679375e-001
      -1.10229142e-001 3.20895910e-002 -8.04600716e-002 3.01120043e-001
      1.43333450e-001 1.45057857e-001 -4.56329919e-002 -2.43271202e-001
      6.67012259e-002 2.01482058e-001 -1.29390210e-001 1.64265960e-001
      6.32906184e-002 3.46937984e-001 4.89863813e-001 -3.58224601e-001
      1.14246711e-001 3.46703291e-001 4.23825681e-001 1.72849312e-001
      -2.17129797e-001 1.58119529e-001 3.07097375e-001 4.83774990e-001
      3.69561724e-002 6.62074145e-003 -3.55617814e-002 2.12425679e-001
      3.89348976e-002 -1.98717013e-001 -1.25948146e-001 -2.01701298e-001
      -1.23401284e-001 2.24060088e-001 -3.13858539e-001 -3.30259353e-002
      3.31417531e-001 -3.08902711e-001 -2.08949205e-002 2.01914802e-001
      4.58348155e-001 4.96175796e-001 1.39430344e-001 1.28920496e-001
      1.70184255e-001 1.66214481e-002 -2.88224101e-001 1.64554670e-001
      7.33218938e-002 1.66676402e-001 -2.84774959e-001 -5.67722857e-001
      -1.17396824e-001 -1.18043706e-001 -1.34473011e-001 1.21288732e-001
      3.15287083e-001 1.75515816e-001 -2.87732556e-002 4.91173416e-002
      -2.49500319e-001 -1.53408810e-001 -1.45854056e-001
      -1.31483853e-001 1.09097876e-001 -3.50740217e-002 -2.16593415e-001
      -2.71486193e-002 3.07550132e-001 2.66375281e-002 -2.54215449e-002
      9.36552063e-002 2.77917802e-001 -1.02530256e-001 1.23615889e-003
      -1.03318200e-001 3.39946955e-001 -9.70930457e-002 2.09253907e-001
      5.68241663e-002 -7.39582539e-001 2.94041354e-002 1.31843716e-001
      -4.75228310e-001 1.94360018e-001 -2.94630341e-002 1.67203784e-001
      -4.15519744e-001 6.32114947e-001 4.47004557e-001 2.75053203e-001
      4.19166945e-002 -1.35351960e-002 -3.24802905e-001 -3.67042646e-002
      -5.19429147e-002 7.81272575e-002 -1.92272112e-001 -5.04143871e-002
      1.85728014e-001 -4.84055459e-001 -1.92526340e-001 2.39579991e-001
      -9.35770869e-002 -3.88046801e-001 1.74851879e-001 -3.49982947e-001
      -1.73334464e-001 -2.04957098e-001 2.07341641e-001 6.26945943e-002
      4.56080228e-001 3.61778826e-001 -2.22145274e-001 -7.16224677e-005
      8.33998993e-002 7.30643123e-002 6.03667833e-002 4.75412548e-001
      -1.97120532e-001 2.81044096e-001 -2.03341413e-002 2.59564221e-001
      1.82607025e-002 -3.02432984e-001 2.62305904e-002 -1.79841504e-001
      1.07522175e-001 -6.70459922e-005 2.75868058e-001 5.72338812e-002
      8.80153924e-002 2.04269793e-002 3.12878996e-001 -1.13709860e-001
      -6.96028247e-002 6.64392486e-002 -1.93508208e-001 -5.29914081e-001
      -1.73850194e-001 5.60108833e-002 2.80027747e-001 -1.52917653e-001
      -2.71622896e-001 -5.68533204e-002 -3.67632210e-001
      -1.12292729e-001 2.10147247e-001 5.41946054e-001 -9.82038677e-002
      -2.71514785e-002 -1.40682474e-001 -6.04588911e-003 1.69667855e-001
      2.95824975e-001 1.81960121e-001 5.02206460e-002 -1.53017983e-001
      -9.36019495e-002 3.81265610e-001 -1.75441116e-001 1.64544761e-001
      -1.22297123e-001 8.87882933e-002 -2.52437681e-001 -2.21055970e-001
      -1.85582548e-001 -5.83962202e-002 6.60352260e-002 3.52759749e-001
      -2.37148143e-002 4.14137095e-001 4.14322197e-001 -7.99147412e-002
      -4.03966516e-001 -9.04256552e-002 -1.72910273e-001 1.85399354e-002
      1.63841516e-001 2.10667878e-001 -9.67045315e-003 -8.49591866e-002
      4.56272900e-001 5.88224769e-001 6.50364682e-002 -4.66404259e-001
      3.61107796e-001 1.37422755e-001 -1.31901365e-003 2.87261426e-001
      7.22674071e-004 -5.00814915e-002 -6.69758171e-002 -4.50778961e-001
      8.84138942e-002 4.14656937e-001 -2.49354616e-001 -2.86189467e-001
      2.49477699e-001 -2.58223880e-002 -2.80626267e-001 3.17076385e-001
      -7.02911988e-002 2.30250388e-001 7.23620728e-002 -1.82946444e-001
      7.11640865e-002 -1.00157864e-001 -1.60244048e-001 -2.08691239e-001
      -5.98001108e-002 2.02351928e-001 5.69586754e-002 -3.31308669e-003
      1.09692052e-001 -2.97892988e-001 4.78716828e-002 2.22429052e-001
      -1.83568329e-001 8.55253413e-002 -4.49154042e-002 -1.12705054e-002
      1.95953965e-001 2.71599680e-001 -2.82729208e-001 8.80732834e-002
      3.05992905e-002 1.82869107e-001 3.33857030e-001 -1.17951475e-001
      2.39335284e-001 3.85333538e-001 1.91098481e-001 -1.32138461e-001
      4.39224616e-002 -1.69319496e-001 -3.84009421e-001 -5.17684340e-001
      2.90063471e-002 -1.98363379e-001 -2.43799925e-001 -6.84330836e-002
      1.70061290e-001 -2.68840104e-001 6.63276687e-002 1.72971919e-001
      4.23548102e-001 2.31552392e-001 -2.34519973e-001 -1.67619079e-001
      -3.91136259e-001 -1.55031383e-002 5.96746862e-001 2.87290245e-001
      -1.84590012e-001 1.09218337e-001 -1.17037222e-001 -2.66567528e-001
      -5.84883988e-001 -2.28260264e-001 -2.37690166e-001 2.04042606e-002
      -1.88222155e-001 -1.16354339e-001 4.16137949e-002 -2.74100512e-001
      -5.19296713e-002 4.08869892e-001 2.42190897e-001 -2.20147893e-001
      6.13720864e-002 -2.62864053e-001 4.09700237e-002 1.12758398e-001
      -1.36834800e-001 -4.25364941e-001 -1.25591576e-001
      -2.68792957e-001 -1.20655805e-001 -2.50060260e-001
      -1.98833589e-002 1.00151673e-001 -1.30164862e-001 6.69913739e-002
      -2.24726722e-001 1.47157237e-002 1.23801515e-001 -4.07134771e-001
      -2.51642585e-001 1.36121184e-001 1.78535953e-001 -2.61379331e-001
      2.60957908e-002 1.34145655e-002 2.47493107e-002 -2.17858002e-001
      1.41541198e-001 -2.37712681e-001 7.30022490e-002 -2.30369911e-001
      1.41666099e-001 -2.05461517e-001 2.98509263e-002 -3.12743008e-001
      3.85935634e-001 -2.16479182e-001 2.09512770e-001 1.24612421e-001
      4.63888437e-001 2.41187843e-003 8.18133634e-003 1.02468185e-001
      2.71283258e-002 -1.66777313e-001 -1.28342941e-001 -3.46453041e-002
      -1.44634530e-001 -2.14315113e-002 3.12326312e-001 2.17079014e-001
      -2.89281607e-001 -3.21488380e-001 -3.30024570e-001
      -2.79823035e-001 4.66526031e-001 -4.24684614e-001 -1.83419719e-001
      -6.71617500e-003 -6.61540218e-003 -1.64556652e-001 4.75429110e-002
      1.10004000e-001 -6.79951534e-002 -2.42530033e-002 -3.74091178e-001
      -8.16049799e-002 -1.09487616e-001 1.17812492e-001 -1.52238771e-001
      4.76735890e-001 4.92712557e-001 4.23122384e-002 1.57854497e-001
      1.00537620e-001 1.54844344e-001 2.27895498e-001 4.21872251e-002
      1.94646195e-001 1.41034618e-001 1.44980177e-001 -4.37865794e-001
      -3.87878269e-001 1.64016560e-001 -7.46473894e-002 1.80421188e-001
      4.09469418e-002 -7.10680988e-003 -8.81712064e-002 3.77573743e-002
      1.86111853e-001 7.10775144e-004 -5.55449128e-001 -1.43398628e-001
      -1.48323625e-001 -3.19434524e-001 1.02326214e-001 -1.10658899e-001
      4.34097558e-001 2.47740839e-002 2.25676447e-001 5.14431655e-001
      -1.10866554e-001 7.76175708e-002 8.10015872e-002 -7.65831620e-002
      7.18198493e-002 -6.38898388e-002 4.28285927e-001 -6.88562691e-002
      -2.24092215e-001 -9.38595310e-002 1.82174474e-001 -1.13898009e-001
      -9.01193470e-002 -1.33007835e-003 -2.56334804e-002
      -2.51916528e-001 -7.69509196e-001 -1.38221189e-001 2.26008222e-001
      2.79775947e-001 -1.15334973e-001 1.86622098e-001 2.41940275e-001
      -1.92770064e-001 -1.33110583e-001 -3.22290510e-001 1.21872555e-002
      9.93562043e-002 2.42530666e-002 2.65370384e-002 8.56529251e-002
      -3.05966228e-001 3.47171873e-001 -2.36134663e-001 -4.10769619e-002
      -1.73400596e-001 2.24735677e-001 -1.24332719e-001 -2.12741598e-001
      -2.01219961e-001 1.71051607e-001 -6.91093206e-001 -1.34619758e-001
      2.94214860e-002 -1.48908660e-001 1.78934440e-001 -1.34615272e-001
      -1.05112940e-002 1.79540575e-001 -9.73001868e-002 -2.73290187e-001
      2.66198277e-001 3.11057568e-001 -6.28291443e-002 -3.87476593e-001
      -1.78334683e-001 -4.32756096e-002 -2.88228821e-002
      -3.70315798e-002 3.56328219e-001 3.44495088e-001 -3.87583412e-002
      1.95913147e-002 1.10737301e-001 1.27775282e-001 -7.57637694e-002
      -2.59384513e-001 3.64651561e-001 2.05585375e-001 -3.36452901e-001
      -1.41918883e-001 1.78522095e-001 1.32619906e-002 -2.43742749e-001</_>
    <_>
      7.86075652e-001 5.78392625e-001 8.66843835e-002 2.92665698e-002
      1.83253419e-002 6.11536729e-004 3.08817208e-001 1.29955739e-001
      5.89138502e-003 1.34743853e-002 -1.97675571e-001 -2.36712247e-001
      5.89198060e-003 5.19931503e-003 7.53513863e-003 -3.96911949e-002
      -4.20617610e-002 -6.54264074e-003 3.95283801e-003 1.82749867e-003
      -3.42242740e-004 1.02686226e-001 2.88544595e-001 9.78437215e-002
      6.74771611e-004 1.09817311e-002 -3.45783859e-001 1.90903723e-001
      6.79843943e-004 8.19214620e-003 4.63262647e-002 -2.73713797e-001
      -1.44927530e-004 0. 5.49450560e-005 5.49450560e-005
      -4.21032310e-003 7.02339318e-003 1.32752769e-002 5.08045172e-003
      -7.88571592e-003 -3.32151097e-003 -1.04013242e-001 7.74899200e-002
      0. -2.46660667e-004 -2.03716438e-002 -4.72738206e-001 0. 0. 0. 0.
      -1.29477098e-003 2.71301597e-005 0. 4.04911452e-006
      -9.47034080e-003 -1.43868616e-003 4.75594178e-002 1.78435948e-002
      0. -2.31077516e-004 -4.93947975e-002 -1.07986259e+000
      7.68180311e-001 4.73729402e-001 6.29560128e-002 6.68450892e-002
      2.09172908e-002 4.50601988e-003 2.02950165e-001 2.20881477e-001
      1.62001804e-003 2.38628834e-002 -3.05347741e-001 -2.36615896e-001
      2.53396365e-003 3.25919013e-003 3.02606903e-004 -4.56129126e-002
      -9.88661777e-003 -9.54859424e-003 3.81490751e-003 1.61966146e-003
      -4.05449281e-003 5.57021834e-002 2.52941102e-001 1.08650655e-001
      2.42760958e-004 1.96772553e-002 -3.59577596e-001 5.66663295e-002
      3.29621282e-004 4.34892857e-003 2.54958104e-002 -3.89686704e-001
      0. 1.11111112e-004 0. 0. -2.18258449e-003 -1.21392012e-002
      6.03944203e-003 1.38792172e-002 -3.90425138e-003 9.33061726e-003
      -1.64861083e-001 1.37638777e-001 0. 9.40050522e-004
      -1.68101080e-002 -3.62108856e-001 0. 0. 0. 0. -1.70355663e-004
      -2.29258061e-004 0. 5.17262670e-005 1.53873907e-003
      -2.35671061e-003 5.65141775e-002 3.53392474e-002 -1.46370021e-005
      -5.49577933e-004 -6.45745471e-002 -6.53185010e-001 7.12494612e-001
      8.67059290e-001 -6.86933706e-003 3.22885029e-002 7.51487762e-002
      1.79603592e-001 -2.26842523e-001 -5.21718943e-003 4.50388342e-003
      4.06661928e-002 -3.29105884e-001 -4.68285650e-001 0.
      2.41292466e-004 8.51907674e-003 -3.11076436e-002 -6.95551420e-003
      8.21571052e-003 4.77989623e-003 2.03577511e-004 -3.29071097e-003
      1.12483270e-001 3.62456530e-001 8.63319784e-002 1.41888799e-004
      2.75009274e-002 -1.48439363e-001 -4.41434234e-001 0.
      3.53939744e-004 1.29279196e-002 -4.71458822e-001 -4.33728681e-004
      0. 6.25510711e-006 3.12755365e-005 -6.52608986e-004
      -2.34412565e-003 6.66703004e-003 1.77060755e-003 -1.34667999e-003
      -2.60225739e-002 -9.45674703e-002 1.41953021e-001 0.
      -2.02967698e-004 -5.58952522e-003 -3.08878720e-001 0. 0. 0. 0.
      -2.60237197e-004 -1.59033851e-004 0. 0. -7.56740046e-004
      -6.55759918e-003 2.85750851e-002 6.70583639e-003 0.
      -2.45095725e-004 -3.96762863e-002 -9.49296504e-002 4.49635983e-001
      6.18893087e-001 -4.70406935e-002 3.74745438e-003 4.69515659e-002
      1.73522845e-001 -3.44352931e-001 -4.39439602e-002 1.96077791e-003
      8.52951929e-002 -2.60909379e-001 -4.21867311e-001 5.15033258e-004
      3.77603079e-004 5.00613777e-003 -5.50367758e-002 -3.15168872e-003
      -2.57617241e-004 2.61571421e-003 -3.14971636e-004 3.13855911e-004
      6.95076585e-002 3.42199355e-001 6.82478845e-002 7.09662709e-005
      1.51121365e-002 -9.48021039e-002 -4.46480900e-001 0.
      2.33362618e-004 2.41599362e-002 -4.12321508e-001 -2.60237197e-004
      -1.99999995e-004 -2.88804563e-006 -5.99434043e-006
      -1.27149718e-002 1.17551731e-002 1.21411774e-002 6.09195791e-003
      -2.75006820e-003 -1.79247614e-002 -1.66847073e-002 1.36314601e-001
      0. 4.94509586e-004 6.58735121e-003 -2.47687519e-001 0. 0. 0. 0.
      -3.46982939e-004 -1.36640709e-004 0. 0. -2.14025160e-004
      -7.32220849e-003 -1.87219083e-002 1.22712841e-002 0.
      -1.60990085e-003 -2.78535895e-002 3.90893638e-001 8.41263458e-002
      2.13465333e-001 3.39531481e-001 1.46146178e-001 7.29727373e-002
      1.16316341e-001 5.54475896e-002 -2.54274815e-001 8.24670419e-002
      -6.32927567e-002 1.89074934e-001 3.97195995e-001 2.88403839e-001
      2.59199917e-001 4.28738564e-001 3.57407480e-002 4.51322645e-001
      -1.35833561e-001 1.48903131e-001 5.31312406e-001 2.61774004e-001
      -1.84117630e-001 -3.05116802e-001 2.82531857e-001 1.86968386e-001
      -1.87264442e-001 -1.48660243e-001 -7.54603371e-002 3.02362200e-002
      3.29863489e-001 -2.36744687e-001 5.03158942e-002 2.77673572e-001
      -1.23072892e-001 -6.33533299e-001 5.97997427e-001 1.25579342e-001
      7.81836659e-002 5.08462012e-001 -1.12072907e-001 -3.94788474e-001
      -3.77084434e-001 2.54840612e-001 1.99361011e-001 2.61702817e-002
      7.96911400e-003 -1.05522893e-001 1.89252421e-002 -7.75319114e-002
      3.43067527e-001 -7.40551949e-002 5.43705933e-002 -3.12577635e-001
      1.56744152e-001 -1.94844441e-003 1.77722126e-001 2.62771964e-001
      -1.14405513e-001 2.25173593e-001 -6.97841216e-003 2.71578482e-003
      2.20616460e-001 -6.31173015e-001 -1.62032723e-001 -1.19166717e-001
      -2.69863784e-001 -9.32025313e-002 4.96647716e-001 -2.05204964e-001
      7.75065482e-001 -3.97675514e-001 -1.14695325e-001 4.45344597e-002
      3.70846599e-001 -8.07265788e-002 -2.17766806e-001 -1.42666772e-001
      3.83082151e-001 -5.86534776e-002 -3.39843065e-001 4.42206144e-001
      2.14601308e-001 7.33654737e-001 -3.97749990e-001 -2.71119326e-001
      -3.44873339e-001 -1.29180312e-001 -3.70881781e-002 1.24658108e-001
      -2.35716119e-001 -1.39800280e-001 4.42332834e-001 -1.89194698e-002
      1.73064411e-001 3.00198913e-001 3.20318155e-002 2.72443622e-001
      5.55398583e-001 2.50256270e-001 2.26657361e-001 -6.23928159e-002
      -1.40496558e-002 5.88434041e-001 -1.84626237e-001 -2.77333949e-002
      2.08097070e-001 -5.20048201e-001 -2.31783345e-001 -3.77837777e-001
      -4.19261128e-001 -2.56871525e-002 -5.84865630e-001 1.85314611e-001
      -7.73536488e-002 1.01651505e-001 5.00035398e-002 -5.48200980e-002
      5.08966185e-002 1.28286973e-001 -4.83167320e-001 1.08892791e-001
      -1.46189421e-001 5.45490626e-003 6.76531553e-001 -3.21343750e-001
      7.75149688e-002 -3.58884060e-003 3.21980536e-001 6.70668066e-001
      2.04558238e-001 -5.50323784e-001 3.91731352e-001 -1.61980078e-001
      1.67986542e-001 2.12702788e-002 -7.63040185e-001 -1.48973405e-001
      3.02349985e-001 -3.05012465e-001 -1.19229957e-001 1.59093201e-001
      6.69312105e-002 -8.20982307e-002 5.41401267e-001 2.27655321e-001
      3.40230197e-001 -5.79085909e-002 5.19234836e-001 -1.31252438e-001
      2.40139335e-001 -2.56360825e-002 -2.90380210e-001 -8.37137327e-002
      -3.07923287e-001 -1.58417806e-001 -5.60677946e-001
      -1.15924217e-001 2.75494993e-001 1.64087601e-002 -4.28819895e-001
      -1.19333029e-001 -3.11405361e-001 -4.77275580e-001 2.84947067e-001
      -2.29722247e-001 -1.45778850e-001 2.14141220e-001 7.19520003e-002
      4.14754674e-002 -2.22947132e-002 -2.84425169e-001 -2.13872850e-001
      4.21385437e-001 -2.67501354e-001 -2.41185188e-001 1.18296184e-001
      3.68632227e-001 4.26336601e-002 2.58775830e-001 3.40175152e-001
      1.46325335e-001 3.49148929e-001 9.68096554e-002 7.87173212e-002
      4.44247089e-002 -1.48689076e-001 1.32014379e-001 -2.96655506e-001
      1.66291207e-001 -2.41689220e-001 -2.98757548e-003 1.35550648e-002
      -2.96077818e-001 -3.27770382e-001 6.65436387e-002 4.72715527e-001
      -2.32598796e-001 -1.56786934e-001 -2.21178934e-001
      -3.57291222e-001 -3.58898520e-001 6.25696108e-002 4.16411370e-001
      6.04166150e-001 9.86968800e-002 -9.00103599e-002 -1.42841414e-001
      -2.12378204e-001 -1.11600228e-001 7.27576017e-002 2.87799239e-001
      1.24697611e-001 -4.72062081e-001 -2.46369645e-001 1.70105219e-001
      6.16076477e-002 3.82703124e-003 -1.16310440e-001 2.77209848e-001
      -3.11402939e-002 -6.74219802e-002 -7.69266933e-002 2.11308524e-001
      1.78063884e-001 3.27440888e-001 -1.26297265e-001 2.73264170e-001
      5.58591425e-001 -3.79038274e-001 -1.56237826e-001 -4.42015976e-002
      -2.27544568e-002 1.62912741e-001 -5.16112208e-001 -1.99655667e-001
      1.60583004e-004 -4.58712786e-001 1.38604358e-001 4.74117370e-003
      3.10580164e-001 -9.62427199e-001 2.35852733e-001 2.24849164e-001
      -3.22760850e-001 2.87767977e-001 -1.16532497e-001 3.14742923e-001
      -4.51285154e-001 1.08138397e-001 5.42583168e-002 -8.66858587e-002
      -2.05531016e-001 -3.63704413e-001 1.51283249e-001 -1.80062816e-001
      6.06300682e-002 1.33646861e-001 -5.35690263e-002 1.72110692e-001
      2.39635482e-001 2.52755523e-001 -1.47536561e-001 9.45425853e-002
      2.62907267e-001 -6.53348148e-001 -1.88303322e-001 -1.39524505e-001
      3.45329612e-001 -1.71078205e-001 4.77076739e-001 -1.54207677e-001
      7.73004815e-002 -1.75378080e-002 -2.67816782e-001 -3.16368580e-001
